<?xml version="1.0"?>
<opencv_storage>
<cascade>
  <stageType>BOOST</stageType>
  <featureType>HAAR</featureType>
  <height>40</height>
  <width>40</width>
  <stageParams>
    <boostType>GAB</boostType>
    <minHitRate>9.9500000476837158e-01</minHitRate>
    <maxFalseAlarm>3.0000001192092896e-01</maxFalseAlarm>
    <weightTrimRate>9.4999999999999996e-01</weightTrimRate>
    <maxDepth>1</maxDepth>
    <maxWeakCount>100</maxWeakCount></stageParams>
  <featureParams>
    <maxCatCount>0</maxCatCount>
    <featSize>1</featSize>
    <mode>BASIC</mode></featureParams>
  <stageNum>13</stageNum>
  <stages>
    <!-- stage 0 -->
    <_>
      <maxWeakCount>5</maxWeakCount>
      <stageThreshold>-1.1715245246887207e+00</stageThreshold>
      <weakClassifiers>
        <_>
          <internalNodes>
            0 -1 133 -1.0598832741379738e-02</internalNodes>
          <leafValues>
            1.1493018269538879e-01 -9.1384053230285645e-01</leafValues></_>
        <_>
          <internalNodes>
            0 -1 145 -2.5944709777832031e-02</internalNodes>
          <leafValues>
            5.6555074453353882e-01 -6.5502452850341797e-01</leafValues></_>
        <_>
          <internalNodes>
            0 -1 154 -1.0657175153028220e-05</internalNodes>
          <leafValues>
            4.7818678617477417e-01 -6.0572123527526855e-01</leafValues></_>
        <_>
          <internalNodes>
            0 -1 58 4.0561720728874207e-02</internalNodes>
          <leafValues>
            -3.5821098089218140e-01 7.7361750602722168e-01</leafValues></_>
        <_>
          <internalNodes>
            0 -1 127 -2.7424930594861507e-03</internalNodes>
          <leafValues>
            -8.5446375608444214e-01 3.3337536454200745e-01</leafValues></_></weakClassifiers></_>
    <!-- stage 1 -->
    <_>
      <maxWeakCount>6</maxWeakCount>
      <stageThreshold>-1.4531369209289551e+00</stageThreshold>
      <weakClassifiers>
        <_>
          <internalNodes>
            0 -1 105 4.4574521481990814e-02</internalNodes>
          <leafValues>
            -7.7279305458068848e-01 7.1346706151962280e-01</leafValues></_>
        <_>
          <internalNodes>
            0 -1 101 4.5397849753499031e-03</internalNodes>
          <leafValues>
            -8.0448657274246216e-01 3.1161350011825562e-01</leafValues></_>
        <_>
          <internalNodes>
            0 -1 45 -2.7607309818267822e-01</internalNodes>
          <leafValues>
            2.0172576606273651e-01 -9.1128903627395630e-01</leafValues></_>
        <_>
          <internalNodes>
            0 -1 167 -1.7506026779301465e-05</internalNodes>
          <leafValues>
            4.5451679825782776e-01 -5.6272172927856445e-01</leafValues></_>
        <_>
          <internalNodes>
            0 -1 89 1.6251653432846069e-02</internalNodes>
          <leafValues>
            2.4708253145217896e-01 -8.5156661272048950e-01</leafValues></_>
        <_>
          <internalNodes>
            0 -1 81 -6.7592762410640717e-02</internalNodes>
          <leafValues>
            -8.7804400920867920e-01 2.7313831448554993e-01</leafValues></_></weakClassifiers></_>
    <!-- stage 2 -->
    <_>
      <maxWeakCount>9</maxWeakCount>
      <stageThreshold>-2.0091388225555420e+00</stageThreshold>
      <weakClassifiers>
        <_>
          <internalNodes>
            0 -1 17 1.1148778721690178e-02</internalNodes>
          <leafValues>
            -7.5827443599700928e-01 3.5849055647850037e-01</leafValues></_>
        <_>
          <internalNodes>
            0 -1 171 -1.8820734112523496e-05</internalNodes>
          <leafValues>
            3.7681886553764343e-01 -6.3259810209274292e-01</leafValues></_>
        <_>
          <internalNodes>
            0 -1 155 -4.4783560042560566e-06</internalNodes>
          <leafValues>
            4.3543159961700439e-01 -4.7349205613136292e-01</leafValues></_>
        <_>
          <internalNodes>
            0 -1 125 -7.2193279629573226e-04</internalNodes>
          <leafValues>
            1.9822703301906586e-01 -8.6458963155746460e-01</leafValues></_>
        <_>
          <internalNodes>
            0 -1 128 1.2350337783573195e-05</internalNodes>
          <leafValues>
            -4.7881495952606201e-01 3.6551353335380554e-01</leafValues></_>
        <_>
          <internalNodes>
            0 -1 77 7.7492922544479370e-02</internalNodes>
          <leafValues>
            -2.2930946946144104e-01 7.7359777688980103e-01</leafValues></_>
        <_>
          <internalNodes>
            0 -1 116 -3.9063371717929840e-02</internalNodes>
          <leafValues>
            8.5878151655197144e-01 -2.7155622839927673e-01</leafValues></_>
        <_>
          <internalNodes>
            0 -1 223 -2.0236253738403320e-02</internalNodes>
          <leafValues>
            7.7878075838088989e-01 -2.0418651401996613e-01</leafValues></_>
        <_>
          <internalNodes>
            0 -1 198 1.2388676404953003e-02</internalNodes>
          <leafValues>
            -2.1598967909812927e-01 6.9153493642807007e-01</leafValues></_></weakClassifiers></_>
    <!-- stage 3 -->
    <_>
      <maxWeakCount>13</maxWeakCount>
      <stageThreshold>-1.6781203746795654e+00</stageThreshold>
      <weakClassifiers>
        <_>
          <internalNodes>
            0 -1 24 6.0557471588253975e-03</internalNodes>
          <leafValues>
            -7.3129886388778687e-01 1.8309858441352844e-01</leafValues></_>
        <_>
          <internalNodes>
            0 -1 56 -1.9182235002517700e-02</internalNodes>
          <leafValues>
            -8.1022268533706665e-01 6.0822825878858566e-02</leafValues></_>
        <_>
          <internalNodes>
            0 -1 71 1.0225318837910891e-03</internalNodes>
          <leafValues>
            -7.3321145772933960e-01 1.8935415148735046e-01</leafValues></_>
        <_>
          <internalNodes>
            0 -1 120 -1.7444225028157234e-02</internalNodes>
          <leafValues>
            2.3496392369270325e-01 -5.9413272142410278e-01</leafValues></_>
        <_>
          <internalNodes>
            0 -1 64 4.0748037397861481e-02</internalNodes>
          <leafValues>
            -2.6984646916389465e-01 6.1341279745101929e-01</leafValues></_>
        <_>
          <internalNodes>
            0 -1 115 -4.5055154711008072e-02</internalNodes>
          <leafValues>
            8.3443498611450195e-01 -2.0395037531852722e-01</leafValues></_>
        <_>
          <internalNodes>
            0 -1 151 -1.2314718216657639e-02</internalNodes>
          <leafValues>
            4.8579946160316467e-01 -2.8750187158584595e-01</leafValues></_>
        <_>
          <internalNodes>
            0 -1 122 1.6526315361261368e-02</internalNodes>
          <leafValues>
            1.5825642645359039e-01 -9.7263062000274658e-01</leafValues></_>
        <_>
          <internalNodes>
            0 -1 82 -5.4524213075637817e-02</internalNodes>
          <leafValues>
            -7.6605772972106934e-01 1.5901875495910645e-01</leafValues></_>
        <_>
          <internalNodes>
            0 -1 231 1.0253528133034706e-02</internalNodes>
          <leafValues>
            -1.8508544564247131e-01 8.4764772653579712e-01</leafValues></_>
        <_>
          <internalNodes>
            0 -1 222 -1.8743243068456650e-02</internalNodes>
          <leafValues>
            5.7926768064498901e-01 -2.4507327377796173e-01</leafValues></_>
        <_>
          <internalNodes>
            0 -1 91 7.9094627872109413e-03</internalNodes>
          <leafValues>
            1.5961714088916779e-01 -8.3022403717041016e-01</leafValues></_>
        <_>
          <internalNodes>
            0 -1 88 -1.8351119011640549e-02</internalNodes>
          <leafValues>
            -7.1698462963104248e-01 1.5100570023059845e-01</leafValues></_></weakClassifiers></_>
    <!-- stage 4 -->
    <_>
      <maxWeakCount>12</maxWeakCount>
      <stageThreshold>-1.4029968976974487e+00</stageThreshold>
      <weakClassifiers>
        <_>
          <internalNodes>
            0 -1 205 -1.1357777751982212e-02</internalNodes>
          <leafValues>
            6.8783067166805267e-02 -7.5648075342178345e-01</leafValues></_>
        <_>
          <internalNodes>
            0 -1 12 2.8767304494976997e-02</internalNodes>
          <leafValues>
            -4.3752861022949219e-01 4.8357698321342468e-01</leafValues></_>
        <_>
          <internalNodes>
            0 -1 123 4.4179661199450493e-03</internalNodes>
          <leafValues>
            -4.8272788524627686e-01 3.5484799742698669e-01</leafValues></_>
        <_>
          <internalNodes>
            0 -1 15 -7.4914067983627319e-02</internalNodes>
          <leafValues>
            6.4053153991699219e-01 -2.1654392778873444e-01</leafValues></_>
        <_>
          <internalNodes>
            0 -1 73 3.5548096639104187e-04</internalNodes>
          <leafValues>
            -5.5272722244262695e-01 2.4790783226490021e-01</leafValues></_>
        <_>
          <internalNodes>
            0 -1 142 -5.9399817138910294e-02</internalNodes>
          <leafValues>
            1.7773267626762390e-01 -9.2207759618759155e-01</leafValues></_>
        <_>
          <internalNodes>
            0 -1 201 -4.5968886297487188e-06</internalNodes>
          <leafValues>
            2.3369233310222626e-01 -4.4776985049247742e-01</leafValues></_>
        <_>
          <internalNodes>
            0 -1 74 1.0086389258503914e-02</internalNodes>
          <leafValues>
            1.6149736940860748e-01 -7.5611048936843872e-01</leafValues></_>
        <_>
          <internalNodes>
            0 -1 85 -1.2136445939540863e-01</internalNodes>
          <leafValues>
            -5.8016401529312134e-01 1.6993676126003265e-01</leafValues></_>
        <_>
          <internalNodes>
            0 -1 184 1.2302359100431204e-03</internalNodes>
          <leafValues>
            -3.9404219388961792e-01 2.9169803857803345e-01</leafValues></_>
        <_>
          <internalNodes>
            0 -1 157 6.0520168393850327e-02</internalNodes>
          <leafValues>
            1.2634608149528503e-01 -9.3901628255844116e-01</leafValues></_>
        <_>
          <internalNodes>
            0 -1 225 -1.4469088055193424e-03</internalNodes>
          <leafValues>
            5.6784844398498535e-01 -2.0581135153770447e-01</leafValues></_></weakClassifiers></_>
    <!-- stage 5 -->
    <_>
      <maxWeakCount>12</maxWeakCount>
      <stageThreshold>-1.4279441833496094e+00</stageThreshold>
      <weakClassifiers>
        <_>
          <internalNodes>
            0 -1 199 -4.3847925961017609e-02</internalNodes>
          <leafValues>
            6.9536425173282623e-02 -7.6883220672607422e-01</leafValues></_>
        <_>
          <internalNodes>
            0 -1 100 8.4150396287441254e-03</internalNodes>
          <leafValues>
            -6.4374816417694092e-01 1.6420626640319824e-01</leafValues></_>
        <_>
          <internalNodes>
            0 -1 9 4.1245192289352417e-02</internalNodes>
          <leafValues>
            -2.9522091150283813e-01 4.7661870718002319e-01</leafValues></_>
        <_>
          <internalNodes>
            0 -1 216 3.1159201636910439e-02</internalNodes>
          <leafValues>
            -2.0968477427959442e-01 7.5853830575942993e-01</leafValues></_>
        <_>
          <internalNodes>
            0 -1 46 -1.0795701295137405e-02</internalNodes>
          <leafValues>
            3.2251393795013428e-01 -3.7212586402893066e-01</leafValues></_>
        <_>
          <internalNodes>
            0 -1 52 2.7933623641729355e-02</internalNodes>
          <leafValues>
            -2.7639663219451904e-01 4.9485316872596741e-01</leafValues></_>
        <_>
          <internalNodes>
            0 -1 57 -4.0437031537294388e-02</internalNodes>
          <leafValues>
            6.3676226139068604e-01 -2.6129755377769470e-01</leafValues></_>
        <_>
          <internalNodes>
            0 -1 66 -1.8466077744960785e-01</internalNodes>
          <leafValues>
            1.4948675036430359e-01 -9.3590682744979858e-01</leafValues></_>
        <_>
          <internalNodes>
            0 -1 229 -9.7900209948420525e-04</internalNodes>
          <leafValues>
            -1.8351241946220398e-01 6.5589338541030884e-01</leafValues></_>
        <_>
          <internalNodes>
            0 -1 139 -2.2969897836446762e-03</internalNodes>
          <leafValues>
            2.9136863350868225e-01 -3.6700287461280823e-01</leafValues></_>
        <_>
          <internalNodes>
            0 -1 21 6.2715997919440269e-03</internalNodes>
          <leafValues>
            -1.8063388764858246e-01 4.7178003191947937e-01</leafValues></_>
        <_>
          <internalNodes>
            0 -1 26 -1.1859767138957977e-02</internalNodes>
          <leafValues>
            8.7736338376998901e-01 -1.4323675632476807e-01</leafValues></_></weakClassifiers></_>
    <!-- stage 6 -->
    <_>
      <maxWeakCount>11</maxWeakCount>
      <stageThreshold>-1.4396249055862427e+00</stageThreshold>
      <weakClassifiers>
        <_>
          <internalNodes>
            0 -1 63 -7.1575609035789967e-03</internalNodes>
          <leafValues>
            -7.1148461103439331e-01 5.6420230865478516e-01</leafValues></_>
        <_>
          <internalNodes>
            0 -1 48 7.5608573388308287e-04</internalNodes>
          <leafValues>
            1.5092806518077850e-01 -8.9752453565597534e-01</leafValues></_>
        <_>
          <internalNodes>
            0 -1 114 4.5613566180691123e-04</internalNodes>
          <leafValues>
            1.6342003643512726e-01 -6.8400436639785767e-01</leafValues></_>
        <_>
          <internalNodes>
            0 -1 178 -2.2690708283334970e-04</internalNodes>
          <leafValues>
            3.3270809054374695e-01 -4.6364912390708923e-01</leafValues></_>
        <_>
          <internalNodes>
            0 -1 72 1.3951011933386326e-03</internalNodes>
          <leafValues>
            1.6989220678806305e-01 -6.3308453559875488e-01</leafValues></_>
        <_>
          <internalNodes>
            0 -1 75 -1.4798270422033966e-04</internalNodes>
          <leafValues>
            -6.5931338071823120e-01 1.7386594414710999e-01</leafValues></_>
        <_>
          <internalNodes>
            0 -1 138 4.8176259733736515e-03</internalNodes>
          <leafValues>
            1.4099691808223724e-01 -6.5794885158538818e-01</leafValues></_>
        <_>
          <internalNodes>
            0 -1 118 -3.9062928408384323e-02</internalNodes>
          <leafValues>
            -6.0249119997024536e-01 1.6425399482250214e-01</leafValues></_>
        <_>
          <internalNodes>
            0 -1 69 -4.4782316684722900e-01</internalNodes>
          <leafValues>
            -4.8767900466918945e-01 2.1699553728103638e-01</leafValues></_>
        <_>
          <internalNodes>
            0 -1 53 -2.6576491072773933e-03</internalNodes>
          <leafValues>
            6.0130494832992554e-01 -1.9116267561912537e-01</leafValues></_>
        <_>
          <internalNodes>
            0 -1 0 1.7158079892396927e-02</internalNodes>
          <leafValues>
            -2.0522861182689667e-01 6.0824352502822876e-01</leafValues></_></weakClassifiers></_>
    <!-- stage 7 -->
    <_>
      <maxWeakCount>21</maxWeakCount>
      <stageThreshold>-1.5111087560653687e+00</stageThreshold>
      <weakClassifiers>
        <_>
          <internalNodes>
            0 -1 152 9.6851605921983719e-03</internalNodes>
          <leafValues>
            -7.1537578105926514e-01 -5.2192065864801407e-02</leafValues></_>
        <_>
          <internalNodes>
            0 -1 60 -1.9316800171509385e-03</internalNodes>
          <leafValues>
            -6.2801080942153931e-01 5.7404838502407074e-02</leafValues></_>
        <_>
          <internalNodes>
            0 -1 149 -4.0406570769846439e-03</internalNodes>
          <leafValues>
            1.1895753443241119e-01 -6.7369753122329712e-01</leafValues></_>
        <_>
          <internalNodes>
            0 -1 37 1.5152974054217339e-02</internalNodes>
          <leafValues>
            1.1828834563493729e-01 -7.9453814029693604e-01</leafValues></_>
        <_>
          <internalNodes>
            0 -1 221 -1.6155220568180084e-02</internalNodes>
          <leafValues>
            4.4093850255012512e-01 -2.1453945338726044e-01</leafValues></_>
        <_>
          <internalNodes>
            0 -1 153 -4.9320697784423828e-02</internalNodes>
          <leafValues>
            6.5501898527145386e-01 -1.4510785043239594e-01</leafValues></_>
        <_>
          <internalNodes>
            0 -1 172 -7.4990477878600359e-04</internalNodes>
          <leafValues>
            2.8713405132293701e-01 -3.1552422046661377e-01</leafValues></_>
        <_>
          <internalNodes>
            0 -1 14 -8.7649110355414450e-05</internalNodes>
          <leafValues>
            -5.5085885524749756e-01 1.6399690508842468e-01</leafValues></_>
        <_>
          <internalNodes>
            0 -1 67 -8.2612663507461548e-02</internalNodes>
          <leafValues>
            -7.7483797073364258e-01 1.0782130807638168e-01</leafValues></_>
        <_>
          <internalNodes>
            0 -1 25 -1.4231209643185139e-03</internalNodes>
          <leafValues>
            -1.4955992996692657e-01 5.9115988016128540e-01</leafValues></_>
        <_>
          <internalNodes>
            0 -1 68 -3.3723744563758373e-03</internalNodes>
          <leafValues>
            2.3009535670280457e-01 -3.5596740245819092e-01</leafValues></_>
        <_>
          <internalNodes>
            0 -1 134 2.8091702610254288e-02</internalNodes>
          <leafValues>
            1.0021293908357620e-01 -7.9964101314544678e-01</leafValues></_>
        <_>
          <internalNodes>
            0 -1 44 1.1068521440029144e-01</internalNodes>
          <leafValues>
            7.0711016654968262e-02 -8.2565218210220337e-01</leafValues></_>
        <_>
          <internalNodes>
            0 -1 42 -1.1264348868280649e-03</internalNodes>
          <leafValues>
            4.4063726067543030e-01 -1.6916367411613464e-01</leafValues></_>
        <_>
          <internalNodes>
            0 -1 227 -1.6533116577193141e-03</internalNodes>
          <leafValues>
            4.8257896304130554e-01 -1.3629029691219330e-01</leafValues></_>
        <_>
          <internalNodes>
            0 -1 30 1.3647457584738731e-02</internalNodes>
          <leafValues>
            -1.9129894673824310e-01 3.6002704501152039e-01</leafValues></_>
        <_>
          <internalNodes>
            0 -1 16 -3.6440961062908173e-02</internalNodes>
          <leafValues>
            5.1671850681304932e-01 -1.4607475697994232e-01</leafValues></_>
        <_>
          <internalNodes>
            0 -1 102 -6.2015675008296967e-02</internalNodes>
          <leafValues>
            3.4305873513221741e-01 -2.3553499579429626e-01</leafValues></_>
        <_>
          <internalNodes>
            0 -1 87 -6.3321068882942200e-03</internalNodes>
          <leafValues>
            -5.2640283107757568e-01 1.3176831603050232e-01</leafValues></_>
        <_>
          <internalNodes>
            0 -1 162 2.6599136181175709e-03</internalNodes>
          <leafValues>
            -3.0132308602333069e-01 2.6309937238693237e-01</leafValues></_>
        <_>
          <internalNodes>
            0 -1 50 7.3797797085717320e-05</internalNodes>
          <leafValues>
            1.6362808644771576e-01 -4.4189822673797607e-01</leafValues></_></weakClassifiers></_>
    <!-- stage 8 -->
    <_>
      <maxWeakCount>20</maxWeakCount>
      <stageThreshold>-1.5701893568038940e+00</stageThreshold>
      <weakClassifiers>
        <_>
          <internalNodes>
            0 -1 96 2.0800314843654633e-02</internalNodes>
          <leafValues>
            -7.5183671712875366e-01 -8.9230768382549286e-02</leafValues></_>
        <_>
          <internalNodes>
            0 -1 98 -5.5030457675457001e-02</internalNodes>
          <leafValues>
            5.3021138906478882e-01 -3.2382962107658386e-01</leafValues></_>
        <_>
          <internalNodes>
            0 -1 5 2.6616461575031281e-02</internalNodes>
          <leafValues>
            -2.9804420471191406e-01 3.7120845913887024e-01</leafValues></_>
        <_>
          <internalNodes>
            0 -1 124 -7.8890742734074593e-03</internalNodes>
          <leafValues>
            -4.4854030013084412e-01 2.3210109770298004e-01</leafValues></_>
        <_>
          <internalNodes>
            0 -1 106 5.9028744697570801e-02</internalNodes>
          <leafValues>
            9.8916605114936829e-02 -8.4228932857513428e-01</leafValues></_>
        <_>
          <internalNodes>
            0 -1 232 9.4715496525168419e-03</internalNodes>
          <leafValues>
            -1.6195453703403473e-01 5.1835316419601440e-01</leafValues></_>
        <_>
          <internalNodes>
            0 -1 23 -1.8661035224795341e-02</internalNodes>
          <leafValues>
            6.5123111009597778e-01 -1.2678726017475128e-01</leafValues></_>
        <_>
          <internalNodes>
            0 -1 141 1.3053122907876968e-02</internalNodes>
          <leafValues>
            -2.8839156031608582e-01 3.2548555731773376e-01</leafValues></_>
        <_>
          <internalNodes>
            0 -1 35 -1.3635153882205486e-03</internalNodes>
          <leafValues>
            -4.8711109161376953e-01 2.1153578162193298e-01</leafValues></_>
        <_>
          <internalNodes>
            0 -1 235 2.5714198127388954e-03</internalNodes>
          <leafValues>
            -1.4577423036098480e-01 6.5330851078033447e-01</leafValues></_>
        <_>
          <internalNodes>
            0 -1 113 -4.3564052321016788e-03</internalNodes>
          <leafValues>
            -7.7309519052505493e-01 1.4161397516727448e-01</leafValues></_>
        <_>
          <internalNodes>
            0 -1 132 -2.1282983943820000e-03</internalNodes>
          <leafValues>
            1.2287238240242004e-01 -5.3267025947570801e-01</leafValues></_>
        <_>
          <internalNodes>
            0 -1 84 2.7133221738040447e-03</internalNodes>
          <leafValues>
            1.2649345397949219e-01 -5.6275594234466553e-01</leafValues></_>
        <_>
          <internalNodes>
            0 -1 197 -2.8488631360232830e-03</internalNodes>
          <leafValues>
            2.1159023046493530e-01 -3.6427029967308044e-01</leafValues></_>
        <_>
          <internalNodes>
            0 -1 27 2.5637442246079445e-02</internalNodes>
          <leafValues>
            9.7104527056217194e-02 -7.4354571104049683e-01</leafValues></_>
        <_>
          <internalNodes>
            0 -1 209 3.2775090076029301e-03</internalNodes>
          <leafValues>
            -2.9337844252586365e-01 2.8894555568695068e-01</leafValues></_>
        <_>
          <internalNodes>
            0 -1 90 -8.7487567216157913e-03</internalNodes>
          <leafValues>
            -5.8910548686981201e-01 1.2361135333776474e-01</leafValues></_>
        <_>
          <internalNodes>
            0 -1 207 -1.9115880131721497e-03</internalNodes>
          <leafValues>
            2.9369556903839111e-01 -2.3702831566333771e-01</leafValues></_>
        <_>
          <internalNodes>
            0 -1 164 3.7885628989897668e-04</internalNodes>
          <leafValues>
            -1.6836218535900116e-01 3.6425036191940308e-01</leafValues></_>
        <_>
          <internalNodes>
            0 -1 174 -5.3935356438159943e-02</internalNodes>
          <leafValues>
            -8.3079248666763306e-01 8.2759454846382141e-02</leafValues></_></weakClassifiers></_>
    <!-- stage 9 -->
    <_>
      <maxWeakCount>25</maxWeakCount>
      <stageThreshold>-1.5110933780670166e+00</stageThreshold>
      <weakClassifiers>
        <_>
          <internalNodes>
            0 -1 22 2.6056660339236259e-02</internalNodes>
          <leafValues>
            -6.8496078252792358e-01 7.4829928576946259e-02</leafValues></_>
        <_>
          <internalNodes>
            0 -1 181 3.2139346003532410e-03</internalNodes>
          <leafValues>
            9.1064281761646271e-02 -5.7457369565963745e-01</leafValues></_>
        <_>
          <internalNodes>
            0 -1 38 5.1841288950527087e-06</internalNodes>
          <leafValues>
            -5.9733968973159790e-01 1.5957486629486084e-01</leafValues></_>
        <_>
          <internalNodes>
            0 -1 110 -1.0635666549205780e-02</internalNodes>
          <leafValues>
            2.2745084762573242e-01 -3.2252931594848633e-01</leafValues></_>
        <_>
          <internalNodes>
            0 -1 4 1.6113746096380055e-04</internalNodes>
          <leafValues>
            1.7338380217552185e-01 -4.6668183803558350e-01</leafValues></_>
        <_>
          <internalNodes>
            0 -1 79 -1.6108589246869087e-02</internalNodes>
          <leafValues>
            5.1070445775985718e-01 -1.3591878116130829e-01</leafValues></_>
        <_>
          <internalNodes>
            0 -1 218 -2.5631409138441086e-02</internalNodes>
          <leafValues>
            3.4075069427490234e-01 -2.3062510788440704e-01</leafValues></_>
        <_>
          <internalNodes>
            0 -1 179 4.3300216202624142e-04</internalNodes>
          <leafValues>
            8.5116401314735413e-02 -8.8468676805496216e-01</leafValues></_>
        <_>
          <internalNodes>
            0 -1 214 1.0624192655086517e-02</internalNodes>
          <leafValues>
            -2.0500937104225159e-01 3.3563715219497681e-01</leafValues></_>
        <_>
          <internalNodes>
            0 -1 1 9.6471589058637619e-03</internalNodes>
          <leafValues>
            -2.1207478642463684e-01 3.7913671135902405e-01</leafValues></_>
        <_>
          <internalNodes>
            0 -1 191 -1.1184753850102425e-02</internalNodes>
          <leafValues>
            -3.4726956486701965e-01 2.0627675950527191e-01</leafValues></_>
        <_>
          <internalNodes>
            0 -1 119 1.6882563009858131e-02</internalNodes>
          <leafValues>
            8.2239151000976563e-02 -8.2443994283676147e-01</leafValues></_>
        <_>
          <internalNodes>
            0 -1 137 -3.4598053898662329e-03</internalNodes>
          <leafValues>
            1.7968329787254333e-01 -3.4843367338180542e-01</leafValues></_>
        <_>
          <internalNodes>
            0 -1 104 8.5640884935855865e-04</internalNodes>
          <leafValues>
            8.6627647280693054e-02 -6.6822189092636108e-01</leafValues></_>
        <_>
          <internalNodes>
            0 -1 18 -4.1274153627455235e-03</internalNodes>
          <leafValues>
            3.3871528506278992e-01 -1.6826467216014862e-01</leafValues></_>
        <_>
          <internalNodes>
            0 -1 206 -7.9317335039377213e-03</internalNodes>
          <leafValues>
            3.5607051849365234e-01 -1.6906733810901642e-01</leafValues></_>
        <_>
          <internalNodes>
            0 -1 192 -6.3751160632818937e-04</internalNodes>
          <leafValues>
            3.8509285449981689e-01 -1.5179395675659180e-01</leafValues></_>
        <_>
          <internalNodes>
            0 -1 8 -1.0325679928064346e-01</internalNodes>
          <leafValues>
            6.2738996744155884e-01 -9.4992019236087799e-02</leafValues></_>
        <_>
          <internalNodes>
            0 -1 185 4.6753481728956103e-04</internalNodes>
          <leafValues>
            1.2360636889934540e-01 -5.4027193784713745e-01</leafValues></_>
        <_>
          <internalNodes>
            0 -1 213 -1.4135991223156452e-03</internalNodes>
          <leafValues>
            5.2097320556640625e-01 -1.1713737994432449e-01</leafValues></_>
        <_>
          <internalNodes>
            0 -1 11 4.8041396075859666e-04</internalNodes>
          <leafValues>
            1.0582357645034790e-01 -5.1539963483810425e-01</leafValues></_>
        <_>
          <internalNodes>
            0 -1 112 -1.8717860803008080e-03</internalNodes>
          <leafValues>
            5.8858372271060944e-02 -1.</leafValues></_>
        <_>
          <internalNodes>
            0 -1 195 9.0857723262161016e-04</internalNodes>
          <leafValues>
            -3.3884724974632263e-01 1.5173518657684326e-01</leafValues></_>
        <_>
          <internalNodes>
            0 -1 177 4.9274157732725143e-02</internalNodes>
          <leafValues>
            -8.7172716856002808e-02 7.0514184236526489e-01</leafValues></_>
        <_>
          <internalNodes>
            0 -1 189 -1.6082363435998559e-04</internalNodes>
          <leafValues>
            2.3891468346118927e-01 -2.9329031705856323e-01</leafValues></_></weakClassifiers></_>
    <!-- stage 10 -->
    <_>
      <maxWeakCount>32</maxWeakCount>
      <stageThreshold>-1.5591932535171509e+00</stageThreshold>
      <weakClassifiers>
        <_>
          <internalNodes>
            0 -1 211 2.7986092492938042e-02</internalNodes>
          <leafValues>
            -6.5010076761245728e-01 2.9508197307586670e-01</leafValues></_>
        <_>
          <internalNodes>
            0 -1 173 1.6514257004018873e-04</internalNodes>
          <leafValues>
            -3.7003487814217806e-03 -9.1132473945617676e-01</leafValues></_>
        <_>
          <internalNodes>
            0 -1 93 4.7784856178623158e-06</internalNodes>
          <leafValues>
            -4.2376580834388733e-01 2.0401887595653534e-01</leafValues></_>
        <_>
          <internalNodes>
            0 -1 103 2.1812904160469770e-03</internalNodes>
          <leafValues>
            6.8948321044445038e-02 -6.9162613153457642e-01</leafValues></_>
        <_>
          <internalNodes>
            0 -1 121 2.4281104560941458e-03</internalNodes>
          <leafValues>
            -5.5471807718276978e-01 1.3882988691329956e-01</leafValues></_>
        <_>
          <internalNodes>
            0 -1 169 2.2853938862681389e-02</internalNodes>
          <leafValues>
            5.8355629444122314e-02 -7.2371846437454224e-01</leafValues></_>
        <_>
          <internalNodes>
            0 -1 2 -6.4314883202314377e-03</internalNodes>
          <leafValues>
            -3.8531538844108582e-01 1.5915004909038544e-01</leafValues></_>
        <_>
          <internalNodes>
            0 -1 226 -5.5773090571165085e-04</internalNodes>
          <leafValues>
            -4.0899962186813354e-01 1.3830550014972687e-01</leafValues></_>
        <_>
          <internalNodes>
            0 -1 80 -1.1416435241699219e-02</internalNodes>
          <leafValues>
            4.3388670682907104e-01 -1.2083333730697632e-01</leafValues></_>
        <_>
          <internalNodes>
            0 -1 180 1.0543193202465773e-03</internalNodes>
          <leafValues>
            -2.2286422550678253e-01 3.3366212248802185e-01</leafValues></_>
        <_>
          <internalNodes>
            0 -1 143 -2.4789310991764069e-03</internalNodes>
          <leafValues>
            1.1127975583076477e-01 -4.8742395639419556e-01</leafValues></_>
        <_>
          <internalNodes>
            0 -1 233 -2.9792464338243008e-03</internalNodes>
          <leafValues>
            2.9823547601699829e-01 -1.9233667850494385e-01</leafValues></_>
        <_>
          <internalNodes>
            0 -1 182 -2.1735620684921741e-03</internalNodes>
          <leafValues>
            5.6604045629501343e-01 -9.7782805562019348e-02</leafValues></_>
        <_>
          <internalNodes>
            0 -1 200 3.9457532693631947e-05</internalNodes>
          <leafValues>
            1.2141716480255127e-01 -4.5745682716369629e-01</leafValues></_>
        <_>
          <internalNodes>
            0 -1 158 1.5900613740086555e-02</internalNodes>
          <leafValues>
            7.0305250585079193e-02 -6.7484736442565918e-01</leafValues></_>
        <_>
          <internalNodes>
            0 -1 239 -3.9403946138918400e-03</internalNodes>
          <leafValues>
            -3.7992775440216064e-01 1.2918828427791595e-01</leafValues></_>
        <_>
          <internalNodes>
            0 -1 55 1.3111894950270653e-03</internalNodes>
          <leafValues>
            -4.2502853274345398e-01 1.0797055065631866e-01</leafValues></_>
        <_>
          <internalNodes>
            0 -1 94 2.4833986535668373e-03</internalNodes>
          <leafValues>
            8.5641518235206604e-02 -5.6640797853469849e-01</leafValues></_>
        <_>
          <internalNodes>
            0 -1 168 -2.5767229963093996e-03</internalNodes>
          <leafValues>
            3.2821246981620789e-01 -1.6680124402046204e-01</leafValues></_>
        <_>
          <internalNodes>
            0 -1 204 7.1868693339638412e-05</internalNodes>
          <leafValues>
            -1.7483694851398468e-01 3.0182775855064392e-01</leafValues></_>
        <_>
          <internalNodes>
            0 -1 28 -6.2317635864019394e-02</internalNodes>
          <leafValues>
            -6.7367124557495117e-01 7.4052035808563232e-02</leafValues></_>
        <_>
          <internalNodes>
            0 -1 31 -2.1188505925238132e-03</internalNodes>
          <leafValues>
            -6.0480421781539917e-01 6.5857104957103729e-02</leafValues></_>
        <_>
          <internalNodes>
            0 -1 78 -3.8682360202074051e-02</internalNodes>
          <leafValues>
            -6.0120201110839844e-01 6.6395685076713562e-02</leafValues></_>
        <_>
          <internalNodes>
            0 -1 41 1.3051569461822510e-01</internalNodes>
          <leafValues>
            5.1467593759298325e-02 -7.4929904937744141e-01</leafValues></_>
        <_>
          <internalNodes>
            0 -1 76 -3.1862687319517136e-04</internalNodes>
          <leafValues>
            -6.2794327735900879e-01 6.9078005850315094e-02</leafValues></_>
        <_>
          <internalNodes>
            0 -1 238 -7.6703180093318224e-04</internalNodes>
          <leafValues>
            -3.1361088156700134e-01 1.4441594481468201e-01</leafValues></_>
        <_>
          <internalNodes>
            0 -1 99 7.8928861767053604e-03</internalNodes>
          <leafValues>
            7.3941983282566071e-02 -5.6375676393508911e-01</leafValues></_>
        <_>
          <internalNodes>
            0 -1 59 -9.5014175167307258e-04</internalNodes>
          <leafValues>
            3.4056058526039124e-01 -1.4754426479339600e-01</leafValues></_>
        <_>
          <internalNodes>
            0 -1 193 -4.2070363997481763e-04</internalNodes>
          <leafValues>
            4.2912009358406067e-01 -1.0451038181781769e-01</leafValues></_>
        <_>
          <internalNodes>
            0 -1 49 -5.8206666260957718e-02</internalNodes>
          <leafValues>
            -6.2852108478546143e-01 7.4818037450313568e-02</leafValues></_>
        <_>
          <internalNodes>
            0 -1 29 -4.8764459788799286e-02</internalNodes>
          <leafValues>
            -6.9893431663513184e-01 6.0818806290626526e-02</leafValues></_>
        <_>
          <internalNodes>
            0 -1 163 4.9466209020465612e-04</internalNodes>
          <leafValues>
            4.6344302594661713e-02 -7.9190456867218018e-01</leafValues></_></weakClassifiers></_>
    <!-- stage 11 -->
    <_>
      <maxWeakCount>39</maxWeakCount>
      <stageThreshold>-1.4288771152496338e+00</stageThreshold>
      <weakClassifiers>
        <_>
          <internalNodes>
            0 -1 220 2.7582781389355659e-02</internalNodes>
          <leafValues>
            -6.4604127407073975e-01 3.8095238804817200e-01</leafValues></_>
        <_>
          <internalNodes>
            0 -1 65 1.7944216728210449e-02</internalNodes>
          <leafValues>
            -3.0335757136344910e-01 1.8138110637664795e-01</leafValues></_>
        <_>
          <internalNodes>
            0 -1 210 -4.3806815519928932e-03</internalNodes>
          <leafValues>
            2.0730988681316376e-01 -2.3498870432376862e-01</leafValues></_>
        <_>
          <internalNodes>
            0 -1 43 -2.4624741636216640e-03</internalNodes>
          <leafValues>
            5.0265294313430786e-01 -9.1592304408550262e-02</leafValues></_>
        <_>
          <internalNodes>
            0 -1 111 9.8101460025645792e-05</internalNodes>
          <leafValues>
            -2.2143924236297607e-01 1.9511972367763519e-01</leafValues></_>
        <_>
          <internalNodes>
            0 -1 130 9.7384601831436157e-02</internalNodes>
          <leafValues>
            4.6105079352855682e-02 -9.6037679910659790e-01</leafValues></_>
        <_>
          <internalNodes>
            0 -1 228 -6.4264372922480106e-03</internalNodes>
          <leafValues>
            4.0107437968254089e-01 -1.2352749705314636e-01</leafValues></_>
        <_>
          <internalNodes>
            0 -1 109 1.3704355806112289e-03</internalNodes>
          <leafValues>
            -1.1434487998485565e-01 3.6269128322601318e-01</leafValues></_>
        <_>
          <internalNodes>
            0 -1 234 -6.0856018535559997e-05</internalNodes>
          <leafValues>
            -3.6285325884819031e-01 1.5114957094192505e-01</leafValues></_>
        <_>
          <internalNodes>
            0 -1 188 9.1210249811410904e-03</internalNodes>
          <leafValues>
            4.3093081563711166e-02 -7.9475438594818115e-01</leafValues></_>
        <_>
          <internalNodes>
            0 -1 183 1.8082004971802235e-03</internalNodes>
          <leafValues>
            -2.1153232455253601e-01 2.0655082166194916e-01</leafValues></_>
        <_>
          <internalNodes>
            0 -1 20 6.6167851909995079e-03</internalNodes>
          <leafValues>
            -1.7577603459358215e-01 2.7835083007812500e-01</leafValues></_>
        <_>
          <internalNodes>
            0 -1 117 -5.3645931184291840e-03</internalNodes>
          <leafValues>
            3.4745609760284424e-01 -1.3565260171890259e-01</leafValues></_>
        <_>
          <internalNodes>
            0 -1 160 -7.1319234848488122e-05</internalNodes>
          <leafValues>
            1.6195927560329437e-01 -2.5897282361984253e-01</leafValues></_>
        <_>
          <internalNodes>
            0 -1 129 6.7227822728455067e-04</internalNodes>
          <leafValues>
            1.1188871413469315e-01 -4.1772255301475525e-01</leafValues></_>
        <_>
          <internalNodes>
            0 -1 107 3.9007051382213831e-03</internalNodes>
          <leafValues>
            -2.0608749985694885e-01 2.2117432951927185e-01</leafValues></_>
        <_>
          <internalNodes>
            0 -1 7 -8.8113265519496053e-05</internalNodes>
          <leafValues>
            -4.5586717128753662e-01 8.8670536875724792e-02</leafValues></_>
        <_>
          <internalNodes>
            0 -1 215 1.6190012684091926e-03</internalNodes>
          <leafValues>
            5.6209873408079147e-02 -7.0835316181182861e-01</leafValues></_>
        <_>
          <internalNodes>
            0 -1 144 -3.7673756480216980e-02</internalNodes>
          <leafValues>
            -5.6878054141998291e-01 6.5453834831714630e-02</leafValues></_>
        <_>
          <internalNodes>
            0 -1 3 1.2360960245132446e-01</internalNodes>
          <leafValues>
            3.6067895591259003e-02 -8.1742578744888306e-01</leafValues></_>
        <_>
          <internalNodes>
            0 -1 175 -1.7475407570600510e-02</internalNodes>
          <leafValues>
            -6.5227884054183960e-01 4.7398231923580170e-02</leafValues></_>
        <_>
          <internalNodes>
            0 -1 170 2.8455875813961029e-02</internalNodes>
          <leafValues>
            6.5254665911197662e-02 -5.2963721752166748e-01</leafValues></_>
        <_>
          <internalNodes>
            0 -1 92 3.1410171650350094e-03</internalNodes>
          <leafValues>
            -7.3359921574592590e-02 5.9375053644180298e-01</leafValues></_>
        <_>
          <internalNodes>
            0 -1 126 8.5905455052852631e-03</internalNodes>
          <leafValues>
            -2.0445701479911804e-01 1.9859623908996582e-01</leafValues></_>
        <_>
          <internalNodes>
            0 -1 161 3.7441380321979523e-02</internalNodes>
          <leafValues>
            6.8058371543884277e-02 -5.9133559465408325e-01</leafValues></_>
        <_>
          <internalNodes>
            0 -1 186 -8.0336933024227619e-04</internalNodes>
          <leafValues>
            4.4438853859901428e-01 -9.2520043253898621e-02</leafValues></_>
        <_>
          <internalNodes>
            0 -1 241 -4.8615189734846354e-04</internalNodes>
          <leafValues>
            -2.9323357343673706e-01 1.3546678423881531e-01</leafValues></_>
        <_>
          <internalNodes>
            0 -1 236 -5.3917896002531052e-04</internalNodes>
          <leafValues>
            -4.3241709470748901e-01 8.6252011358737946e-02</leafValues></_>
        <_>
          <internalNodes>
            0 -1 240 9.4427559524774551e-03</internalNodes>
          <leafValues>
            4.1225209832191467e-02 -8.2142859697341919e-01</leafValues></_>
        <_>
          <internalNodes>
            0 -1 13 5.6794486939907074e-02</internalNodes>
          <leafValues>
            4.1161254048347473e-02 -7.0297110080718994e-01</leafValues></_>
        <_>
          <internalNodes>
            0 -1 97 -9.1264229267835617e-03</internalNodes>
          <leafValues>
            -3.6417105793952942e-01 1.0503818839788437e-01</leafValues></_>
        <_>
          <internalNodes>
            0 -1 32 2.9029599390923977e-03</internalNodes>
          <leafValues>
            5.3086172789335251e-02 -6.4132183790206909e-01</leafValues></_>
        <_>
          <internalNodes>
            0 -1 10 -5.9740379452705383e-02</internalNodes>
          <leafValues>
            4.0396052598953247e-01 -1.0473274439573288e-01</leafValues></_>
        <_>
          <internalNodes>
            0 -1 6 3.1886599957942963e-02</internalNodes>
          <leafValues>
            -2.4039700627326965e-01 2.0784552395343781e-01</leafValues></_>
        <_>
          <internalNodes>
            0 -1 61 -2.4868466425687075e-03</internalNodes>
          <leafValues>
            1.8099120259284973e-01 -2.3164065182209015e-01</leafValues></_>
        <_>
          <internalNodes>
            0 -1 190 3.5853584995493293e-04</internalNodes>
          <leafValues>
            -1.4302350580692291e-01 2.8290069103240967e-01</leafValues></_>
        <_>
          <internalNodes>
            0 -1 208 5.5066682398319244e-04</internalNodes>
          <leafValues>
            -1.5022787451744080e-01 2.7100375294685364e-01</leafValues></_>
        <_>
          <internalNodes>
            0 -1 51 -1.1382300406694412e-02</internalNodes>
          <leafValues>
            2.7441450953483582e-01 -1.5018618106842041e-01</leafValues></_>
        <_>
          <internalNodes>
            0 -1 147 -1.5123803168535233e-02</internalNodes>
          <leafValues>
            -5.5040884017944336e-01 8.1162631511688232e-02</leafValues></_></weakClassifiers></_>
    <!-- stage 12 -->
    <_>
      <maxWeakCount>38</maxWeakCount>
      <stageThreshold>-1.3779083490371704e+00</stageThreshold>
      <weakClassifiers>
        <_>
          <internalNodes>
            0 -1 202 3.5039994399994612e-03</internalNodes>
          <leafValues>
            -6.5932554006576538e-01 3.2608695328235626e-02</leafValues></_>
        <_>
          <internalNodes>
            0 -1 237 -2.3440539371222258e-04</internalNodes>
          <leafValues>
            -5.1704311370849609e-01 3.8936916738748550e-02</leafValues></_>
        <_>
          <internalNodes>
            0 -1 230 1.4517320320010185e-02</internalNodes>
          <leafValues>
            -9.7672328352928162e-02 5.2593034505844116e-01</leafValues></_>
        <_>
          <internalNodes>
            0 -1 224 -1.6600213944911957e-02</internalNodes>
          <leafValues>
            2.5928011536598206e-01 -1.8495583534240723e-01</leafValues></_>
        <_>
          <internalNodes>
            0 -1 19 -6.4519059378653765e-05</internalNodes>
          <leafValues>
            -4.9904271960258484e-01 8.9849665760993958e-02</leafValues></_>
        <_>
          <internalNodes>
            0 -1 108 -5.6218467652797699e-02</internalNodes>
          <leafValues>
            1.0386713594198227e-01 -6.9621449708938599e-01</leafValues></_>
        <_>
          <internalNodes>
            0 -1 136 -1.7581604421138763e-02</internalNodes>
          <leafValues>
            -1.7839285731315613e-01 2.1366590261459351e-01</leafValues></_>
        <_>
          <internalNodes>
            0 -1 212 -2.6952673215419054e-04</internalNodes>
          <leafValues>
            2.3333999514579773e-01 -1.7126768827438354e-01</leafValues></_>
        <_>
          <internalNodes>
            0 -1 148 -6.6600565332919359e-04</internalNodes>
          <leafValues>
            2.7342367172241211e-01 -1.3691323995590210e-01</leafValues></_>
        <_>
          <internalNodes>
            0 -1 150 1.6231008339673281e-04</internalNodes>
          <leafValues>
            -1.4198347926139832e-01 2.5585383176803589e-01</leafValues></_>
        <_>
          <internalNodes>
            0 -1 159 -5.6724715977907181e-04</internalNodes>
          <leafValues>
            -7.5147074460983276e-01 4.5525547116994858e-02</leafValues></_>
        <_>
          <internalNodes>
            0 -1 33 3.9850589819252491e-03</internalNodes>
          <leafValues>
            -7.8922338783740997e-02 4.8612910509109497e-01</leafValues></_>
        <_>
          <internalNodes>
            0 -1 86 2.3597106337547302e-03</internalNodes>
          <leafValues>
            -1.5152610838413239e-01 2.6411730051040649e-01</leafValues></_>
        <_>
          <internalNodes>
            0 -1 135 5.5203452706336975e-02</internalNodes>
          <leafValues>
            3.9563126862049103e-02 -9.1768538951873779e-01</leafValues></_>
        <_>
          <internalNodes>
            0 -1 194 -1.1467659845948219e-02</internalNodes>
          <leafValues>
            -5.9753561019897461e-01 4.5465305447578430e-02</leafValues></_>
        <_>
          <internalNodes>
            0 -1 146 -3.2175815431401134e-04</internalNodes>
          <leafValues>
            2.1844325959682465e-01 -1.7509149014949799e-01</leafValues></_>
        <_>
          <internalNodes>
            0 -1 62 -1.0784852202050388e-04</internalNodes>
          <leafValues>
            -5.1594519615173340e-01 7.3614008724689484e-02</leafValues></_>
        <_>
          <internalNodes>
            0 -1 70 -1.6876198351383209e-02</internalNodes>
          <leafValues>
            3.5503439605236053e-02 -8.5167980194091797e-01</leafValues></_>
        <_>
          <internalNodes>
            0 -1 217 1.1994072701781988e-03</internalNodes>
          <leafValues>
            3.3598214387893677e-02 -7.2128534317016602e-01</leafValues></_>
        <_>
          <internalNodes>
            0 -1 176 1.1170722544193268e-02</internalNodes>
          <leafValues>
            -8.3791166543960571e-02 4.6762648224830627e-01</leafValues></_>
        <_>
          <internalNodes>
            0 -1 219 5.1428331062197685e-03</internalNodes>
          <leafValues>
            -1.0886991769075394e-01 3.3795270323753357e-01</leafValues></_>
        <_>
          <internalNodes>
            0 -1 203 -6.2941737473011017e-02</internalNodes>
          <leafValues>
            8.2385927438735962e-02 -4.8630258440971375e-01</leafValues></_>
        <_>
          <internalNodes>
            0 -1 196 1.1129674967378378e-03</internalNodes>
          <leafValues>
            3.5985026508569717e-02 -8.1592828035354614e-01</leafValues></_>
        <_>
          <internalNodes>
            0 -1 95 -2.2278010845184326e-02</internalNodes>
          <leafValues>
            -1.3892510533332825e-01 2.3667524755001068e-01</leafValues></_>
        <_>
          <internalNodes>
            0 -1 83 -1.6408928786404431e-05</internalNodes>
          <leafValues>
            -3.5535323619842529e-01 9.5876649022102356e-02</leafValues></_>
        <_>
          <internalNodes>
            0 -1 47 1.1626783758401871e-02</internalNodes>
          <leafValues>
            7.9607866704463959e-02 -3.9786210656166077e-01</leafValues></_>
        <_>
          <internalNodes>
            0 -1 166 -2.3840577341616154e-04</internalNodes>
          <leafValues>
            2.8159484267234802e-01 -1.3200893998146057e-01</leafValues></_>
        <_>
          <internalNodes>
            0 -1 187 8.2517601549625397e-04</internalNodes>
          <leafValues>
            -1.7277550697326660e-01 2.0037376880645752e-01</leafValues></_>
        <_>
          <internalNodes>
            0 -1 165 2.2910773986950517e-04</internalNodes>
          <leafValues>
            -1.3330173492431641e-01 2.5158458948135376e-01</leafValues></_>
        <_>
          <internalNodes>
            0 -1 140 -1.1237525177421048e-04</internalNodes>
          <leafValues>
            -2.1721902489662170e-01 1.5404766798019409e-01</leafValues></_>
        <_>
          <internalNodes>
            0 -1 36 -1.9333683885633945e-03</internalNodes>
          <leafValues>
            2.7308890223503113e-01 -1.2416640669107437e-01</leafValues></_>
        <_>
          <internalNodes>
            0 -1 39 1.0290979407727718e-03</internalNodes>
          <leafValues>
            -6.6116161644458771e-02 5.2395987510681152e-01</leafValues></_>
        <_>
          <internalNodes>
            0 -1 40 -8.3439975976943970e-02</internalNodes>
          <leafValues>
            -4.9501836299896240e-01 8.4363400936126709e-02</leafValues></_>
        <_>
          <internalNodes>
            0 -1 131 -1.7100621480494738e-03</internalNodes>
          <leafValues>
            4.7645337879657745e-02 -6.8749272823333740e-01</leafValues></_>
        <_>
          <internalNodes>
            0 -1 156 5.5049743968993425e-04</internalNodes>
          <leafValues>
            -1.1630825698375702e-01 3.2370504736900330e-01</leafValues></_>
        <_>
          <internalNodes>
            0 -1 34 3.2484927942277864e-05</internalNodes>
          <leafValues>
            9.6956670284271240e-02 -4.0588071942329407e-01</leafValues></_>
        <_>
          <internalNodes>
            0 -1 54 1.6860701143741608e-03</internalNodes>
          <leafValues>
            -1.5832254290580750e-01 2.4381467700004578e-01</leafValues></_>
        <_>
          <internalNodes>
            0 -1 242 -6.4856989774852991e-04</internalNodes>
          <leafValues>
            -3.6024996638298035e-01 1.1571540683507919e-01</leafValues></_></weakClassifiers></_></stages>
  <features>
    <_>
      <rects>
        <_>
          0 0 10 14 -1.</_>
        <_>
          0 0 5 7 2.</_>
        <_>
          5 7 5 7 2.</_></rects>
      <tilted>0</tilted></_>
    <_>
      <rects>
        <_>
          0 0 22 6 -1.</_>
        <_>
          0 0 11 3 2.</_>
        <_>
          11 3 11 3 2.</_></rects>
      <tilted>0</tilted></_>
    <_>
      <rects>
        <_>
          0 0 40 2 -1.</_>
        <_>
          20 0 20 2 2.</_></rects>
      <tilted>0</tilted></_>
    <_>
      <rects>
        <_>
          0 0 22 10 -1.</_>
        <_>
          0 5 22 5 2.</_></rects>
      <tilted>0</tilted></_>
    <_>
      <rects>
        <_>
          0 2 6 1 -1.</_>
        <_>
          3 2 3 1 2.</_></rects>
      <tilted>0</tilted></_>
    <_>
      <rects>
        <_>
          0 3 14 14 -1.</_>
        <_>
          7 3 7 14 2.</_></rects>
      <tilted>0</tilted></_>
    <_>
      <rects>
        <_>
          0 3 20 8 -1.</_>
        <_>
          10 3 10 8 2.</_></rects>
      <tilted>0</tilted></_>
    <_>
      <rects>
        <_>
          0 4 2 2 -1.</_>
        <_>
          0 5 2 1 2.</_></rects>
      <tilted>0</tilted></_>
    <_>
      <rects>
        <_>
          0 4 12 32 -1.</_>
        <_>
          6 4 6 32 2.</_></rects>
      <tilted>0</tilted></_>
    <_>
      <rects>
        <_>
          0 4 20 9 -1.</_>
        <_>
          10 4 10 9 2.</_></rects>
      <tilted>0</tilted></_>
    <_>
      <rects>
        <_>
          0 4 30 8 -1.</_>
        <_>
          15 4 15 8 2.</_></rects>
      <tilted>0</tilted></_>
    <_>
      <rects>
        <_>
          0 5 1 6 -1.</_>
        <_>
          0 8 1 3 2.</_></rects>
      <tilted>0</tilted></_>
    <_>
      <rects>
        <_>
          0 5 12 10 -1.</_>
        <_>
          6 5 6 10 2.</_></rects>
      <tilted>0</tilted></_>
    <_>
      <rects>
        <_>
          0 5 11 12 -1.</_>
        <_>
          0 11 11 6 2.</_></rects>
      <tilted>0</tilted></_>
    <_>
      <rects>
        <_>
          0 6 3 2 -1.</_>
        <_>
          0 7 3 1 2.</_></rects>
      <tilted>0</tilted></_>
    <_>
      <rects>
        <_>
          0 6 14 25 -1.</_>
        <_>
          7 6 7 25 2.</_></rects>
      <tilted>0</tilted></_>
    <_>
      <rects>
        <_>
          0 6 18 8 -1.</_>
        <_>
          9 6 9 8 2.</_></rects>
      <tilted>0</tilted></_>
    <_>
      <rects>
        <_>
          0 7 4 20 -1.</_>
        <_>
          2 7 2 20 2.</_></rects>
      <tilted>0</tilted></_>
    <_>
      <rects>
        <_>
          0 9 4 18 -1.</_>
        <_>
          0 9 2 9 2.</_>
        <_>
          2 18 2 9 2.</_></rects>
      <tilted>0</tilted></_>
    <_>
      <rects>
        <_>
          0 10 1 2 -1.</_>
        <_>
          0 11 1 1 2.</_></rects>
      <tilted>0</tilted></_>
    <_>
      <rects>
        <_>
          0 10 4 10 -1.</_>
        <_>
          2 10 2 10 2.</_></rects>
      <tilted>0</tilted></_>
    <_>
      <rects>
        <_>
          0 10 4 13 -1.</_>
        <_>
          2 10 2 13 2.</_></rects>
      <tilted>0</tilted></_>
    <_>
      <rects>
        <_>
          0 10 4 28 -1.</_>
        <_>
          2 10 2 28 2.</_></rects>
      <tilted>0</tilted></_>
    <_>
      <rects>
        <_>
          0 12 6 16 -1.</_>
        <_>
          3 12 3 16 2.</_></rects>
      <tilted>0</tilted></_>
    <_>
      <rects>
        <_>
          0 13 4 7 -1.</_>
        <_>
          2 13 2 7 2.</_></rects>
      <tilted>0</tilted></_>
    <_>
      <rects>
        <_>
          0 14 1 6 -1.</_>
        <_>
          0 16 1 2 2.</_></rects>
      <tilted>0</tilted></_>
    <_>
      <rects>
        <_>
          0 15 4 14 -1.</_>
        <_>
          2 15 2 14 2.</_></rects>
      <tilted>0</tilted></_>
    <_>
      <rects>
        <_>
          0 16 12 12 -1.</_>
        <_>
          0 22 12 6 2.</_></rects>
      <tilted>0</tilted></_>
    <_>
      <rects>
        <_>
          0 18 27 2 -1.</_>
        <_>
          9 18 9 2 2.</_></rects>
      <tilted>0</tilted></_>
    <_>
      <rects>
        <_>
          0 18 38 6 -1.</_>
        <_>
          19 18 19 6 2.</_></rects>
      <tilted>0</tilted></_>
    <_>
      <rects>
        <_>
          0 19 10 12 -1.</_>
        <_>
          5 19 5 12 2.</_></rects>
      <tilted>0</tilted></_>
    <_>
      <rects>
        <_>
          0 19 11 4 -1.</_>
        <_>
          0 21 11 2 2.</_></rects>
      <tilted>0</tilted></_>
    <_>
      <rects>
        <_>
          0 20 10 4 -1.</_>
        <_>
          0 20 5 2 2.</_>
        <_>
          5 22 5 2 2.</_></rects>
      <tilted>0</tilted></_>
    <_>
      <rects>
        <_>
          0 22 2 15 -1.</_>
        <_>
          1 22 1 15 2.</_></rects>
      <tilted>0</tilted></_>
    <_>
      <rects>
        <_>
          0 37 1 2 -1.</_>
        <_>
          0 38 1 1 2.</_></rects>
      <tilted>0</tilted></_>
    <_>
      <rects>
        <_>
          1 0 10 3 -1.</_>
        <_>
          6 0 5 3 2.</_></rects>
      <tilted>0</tilted></_>
    <_>
      <rects>
        <_>
          1 9 2 24 -1.</_>
        <_>
          1 9 1 12 2.</_>
        <_>
          2 21 1 12 2.</_></rects>
      <tilted>0</tilted></_>
    <_>
      <rects>
        <_>
          1 15 38 2 -1.</_>
        <_>
          20 15 19 2 2.</_></rects>
      <tilted>0</tilted></_>
    <_>
      <rects>
        <_>
          1 23 22 2 -1.</_>
        <_>
          1 24 22 1 2.</_></rects>
      <tilted>0</tilted></_>
    <_>
      <rects>
        <_>
          1 25 2 2 -1.</_>
        <_>
          2 25 1 2 2.</_></rects>
      <tilted>0</tilted></_>
    <_>
      <rects>
        <_>
          2 0 16 24 -1.</_>
        <_>
          2 0 8 12 2.</_>
        <_>
          10 12 8 12 2.</_></rects>
      <tilted>0</tilted></_>
    <_>
      <rects>
        <_>
          2 0 11 20 -1.</_>
        <_>
          2 10 11 10 2.</_></rects>
      <tilted>0</tilted></_>
    <_>
      <rects>
        <_>
          2 7 2 12 -1.</_>
        <_>
          2 7 1 6 2.</_>
        <_>
          3 13 1 6 2.</_></rects>
      <tilted>0</tilted></_>
    <_>
      <rects>
        <_>
          2 7 2 16 -1.</_>
        <_>
          3 7 1 16 2.</_></rects>
      <tilted>0</tilted></_>
    <_>
      <rects>
        <_>
          2 7 16 30 -1.</_>
        <_>
          2 22 16 15 2.</_></rects>
      <tilted>0</tilted></_>
    <_>
      <rects>
        <_>
          2 7 28 21 -1.</_>
        <_>
          2 14 28 7 2.</_></rects>
      <tilted>0</tilted></_>
    <_>
      <rects>
        <_>
          2 15 28 8 -1.</_>
        <_>
          16 15 14 8 2.</_></rects>
      <tilted>0</tilted></_>
    <_>
      <rects>
        <_>
          2 20 11 10 -1.</_>
        <_>
          2 25 11 5 2.</_></rects>
      <tilted>0</tilted></_>
    <_>
      <rects>
        <_>
          2 21 3 4 -1.</_>
        <_>
          2 23 3 2 2.</_></rects>
      <tilted>0</tilted></_>
    <_>
      <rects>
        <_>
          2 23 38 10 -1.</_>
        <_>
          2 23 19 5 2.</_>
        <_>
          21 28 19 5 2.</_></rects>
      <tilted>0</tilted></_>
    <_>
      <rects>
        <_>
          3 0 4 1 -1.</_>
        <_>
          5 0 2 1 2.</_></rects>
      <tilted>0</tilted></_>
    <_>
      <rects>
        <_>
          3 0 3 40 -1.</_>
        <_>
          3 20 3 20 2.</_></rects>
      <tilted>0</tilted></_>
    <_>
      <rects>
        <_>
          3 0 17 10 -1.</_>
        <_>
          3 5 17 5 2.</_></rects>
      <tilted>0</tilted></_>
    <_>
      <rects>
        <_>
          3 4 4 10 -1.</_>
        <_>
          3 4 2 5 2.</_>
        <_>
          5 9 2 5 2.</_></rects>
      <tilted>0</tilted></_>
    <_>
      <rects>
        <_>
          3 8 2 20 -1.</_>
        <_>
          4 8 1 20 2.</_></rects>
      <tilted>0</tilted></_>
    <_>
      <rects>
        <_>
          3 15 14 20 -1.</_>
        <_>
          3 15 7 10 2.</_>
        <_>
          10 25 7 10 2.</_></rects>
      <tilted>0</tilted></_>
    <_>
      <rects>
        <_>
          3 36 21 1 -1.</_>
        <_>
          10 36 7 1 2.</_></rects>
      <tilted>0</tilted></_>
    <_>
      <rects>
        <_>
          4 0 15 14 -1.</_>
        <_>
          4 7 15 7 2.</_></rects>
      <tilted>0</tilted></_>
    <_>
      <rects>
        <_>
          4 0 19 10 -1.</_>
        <_>
          4 5 19 5 2.</_></rects>
      <tilted>0</tilted></_>
    <_>
      <rects>
        <_>
          4 5 2 12 -1.</_>
        <_>
          4 5 1 6 2.</_>
        <_>
          5 11 1 6 2.</_></rects>
      <tilted>0</tilted></_>
    <_>
      <rects>
        <_>
          4 15 8 14 -1.</_>
        <_>
          4 22 8 7 2.</_></rects>
      <tilted>0</tilted></_>
    <_>
      <rects>
        <_>
          4 20 8 6 -1.</_>
        <_>
          8 20 4 6 2.</_></rects>
      <tilted>0</tilted></_>
    <_>
      <rects>
        <_>
          4 22 2 2 -1.</_>
        <_>
          4 23 2 1 2.</_></rects>
      <tilted>0</tilted></_>
    <_>
      <rects>
        <_>
          5 0 12 2 -1.</_>
        <_>
          9 0 4 2 2.</_></rects>
      <tilted>0</tilted></_>
    <_>
      <rects>
        <_>
          5 0 24 8 -1.</_>
        <_>
          5 4 24 4 2.</_></rects>
      <tilted>0</tilted></_>
    <_>
      <rects>
        <_>
          5 3 11 8 -1.</_>
        <_>
          5 7 11 4 2.</_></rects>
      <tilted>0</tilted></_>
    <_>
      <rects>
        <_>
          5 6 27 18 -1.</_>
        <_>
          14 6 9 18 2.</_></rects>
      <tilted>0</tilted></_>
    <_>
      <rects>
        <_>
          5 9 26 17 -1.</_>
        <_>
          18 9 13 17 2.</_></rects>
      <tilted>0</tilted></_>
    <_>
      <rects>
        <_>
          5 15 8 15 -1.</_>
        <_>
          9 15 4 15 2.</_></rects>
      <tilted>0</tilted></_>
    <_>
      <rects>
        <_>
          5 15 24 23 -1.</_>
        <_>
          13 15 8 23 2.</_></rects>
      <tilted>0</tilted></_>
    <_>
      <rects>
        <_>
          5 16 3 24 -1.</_>
        <_>
          5 24 3 8 2.</_></rects>
      <tilted>0</tilted></_>
    <_>
      <rects>
        <_>
          5 17 14 14 -1.</_>
        <_>
          5 24 14 7 2.</_></rects>
      <tilted>0</tilted></_>
    <_>
      <rects>
        <_>
          5 18 1 12 -1.</_>
        <_>
          5 24 1 6 2.</_></rects>
      <tilted>0</tilted></_>
    <_>
      <rects>
        <_>
          5 20 8 12 -1.</_>
        <_>
          5 20 4 6 2.</_>
        <_>
          9 26 4 6 2.</_></rects>
      <tilted>0</tilted></_>
    <_>
      <rects>
        <_>
          5 21 20 7 -1.</_>
        <_>
          15 21 10 7 2.</_></rects>
      <tilted>0</tilted></_>
    <_>
      <rects>
        <_>
          5 24 20 2 -1.</_>
        <_>
          5 25 20 1 2.</_></rects>
      <tilted>0</tilted></_>
    <_>
      <rects>
        <_>
          5 25 1 4 -1.</_>
        <_>
          5 27 1 2 2.</_></rects>
      <tilted>0</tilted></_>
    <_>
      <rects>
        <_>
          6 0 27 10 -1.</_>
        <_>
          6 5 27 5 2.</_></rects>
      <tilted>0</tilted></_>
    <_>
      <rects>
        <_>
          6 1 34 3 -1.</_>
        <_>
          23 1 17 3 2.</_></rects>
      <tilted>0</tilted></_>
    <_>
      <rects>
        <_>
          6 2 21 6 -1.</_>
        <_>
          6 5 21 3 2.</_></rects>
      <tilted>0</tilted></_>
    <_>
      <rects>
        <_>
          6 3 9 8 -1.</_>
        <_>
          6 7 9 4 2.</_></rects>
      <tilted>0</tilted></_>
    <_>
      <rects>
        <_>
          6 13 28 16 -1.</_>
        <_>
          20 13 14 16 2.</_></rects>
      <tilted>0</tilted></_>
    <_>
      <rects>
        <_>
          6 17 30 12 -1.</_>
        <_>
          21 17 15 12 2.</_></rects>
      <tilted>0</tilted></_>
    <_>
      <rects>
        <_>
          6 25 11 2 -1.</_>
        <_>
          6 26 11 1 2.</_></rects>
      <tilted>0</tilted></_>
    <_>
      <rects>
        <_>
          6 27 22 4 -1.</_>
        <_>
          17 27 11 4 2.</_></rects>
      <tilted>0</tilted></_>
    <_>
      <rects>
        <_>
          7 0 12 11 -1.</_>
        <_>
          11 0 4 11 2.</_></rects>
      <tilted>0</tilted></_>
    <_>
      <rects>
        <_>
          7 5 30 4 -1.</_>
        <_>
          7 5 15 2 2.</_>
        <_>
          22 7 15 2 2.</_></rects>
      <tilted>0</tilted></_>
    <_>
      <rects>
        <_>
          7 9 12 5 -1.</_>
        <_>
          13 9 6 5 2.</_></rects>
      <tilted>0</tilted></_>
    <_>
      <rects>
        <_>
          7 10 18 6 -1.</_>
        <_>
          16 10 9 6 2.</_></rects>
      <tilted>0</tilted></_>
    <_>
      <rects>
        <_>
          7 10 18 23 -1.</_>
        <_>
          16 10 9 23 2.</_></rects>
      <tilted>0</tilted></_>
    <_>
      <rects>
        <_>
          7 12 16 4 -1.</_>
        <_>
          15 12 8 4 2.</_></rects>
      <tilted>0</tilted></_>
    <_>
      <rects>
        <_>
          7 12 26 2 -1.</_>
        <_>
          20 12 13 2 2.</_></rects>
      <tilted>0</tilted></_>
    <_>
      <rects>
        <_>
          7 15 10 4 -1.</_>
        <_>
          7 17 10 2 2.</_></rects>
      <tilted>0</tilted></_>
    <_>
      <rects>
        <_>
          7 22 2 14 -1.</_>
        <_>
          7 22 1 7 2.</_>
        <_>
          8 29 1 7 2.</_></rects>
      <tilted>0</tilted></_>
    <_>
      <rects>
        <_>
          7 24 26 2 -1.</_>
        <_>
          7 25 26 1 2.</_></rects>
      <tilted>0</tilted></_>
    <_>
      <rects>
        <_>
          7 36 15 3 -1.</_>
        <_>
          12 36 5 3 2.</_></rects>
      <tilted>0</tilted></_>
    <_>
      <rects>
        <_>
          8 0 5 12 -1.</_>
        <_>
          8 6 5 6 2.</_></rects>
      <tilted>0</tilted></_>
    <_>
      <rects>
        <_>
          8 0 32 2 -1.</_>
        <_>
          24 0 16 2 2.</_></rects>
      <tilted>0</tilted></_>
    <_>
      <rects>
        <_>
          8 1 29 10 -1.</_>
        <_>
          8 6 29 5 2.</_></rects>
      <tilted>0</tilted></_>
    <_>
      <rects>
        <_>
          8 11 12 15 -1.</_>
        <_>
          14 11 6 15 2.</_></rects>
      <tilted>0</tilted></_>
    <_>
      <rects>
        <_>
          8 16 24 12 -1.</_>
        <_>
          8 22 24 6 2.</_></rects>
      <tilted>0</tilted></_>
    <_>
      <rects>
        <_>
          8 20 17 8 -1.</_>
        <_>
          8 24 17 4 2.</_></rects>
      <tilted>0</tilted></_>
    <_>
      <rects>
        <_>
          8 24 26 16 -1.</_>
        <_>
          8 32 26 8 2.</_></rects>
      <tilted>0</tilted></_>
    <_>
      <rects>
        <_>
          8 26 7 4 -1.</_>
        <_>
          8 28 7 2 2.</_></rects>
      <tilted>0</tilted></_>
    <_>
      <rects>
        <_>
          8 30 1 10 -1.</_>
        <_>
          8 35 1 5 2.</_></rects>
      <tilted>0</tilted></_>
    <_>
      <rects>
        <_>
          9 0 22 8 -1.</_>
        <_>
          9 4 22 4 2.</_></rects>
      <tilted>0</tilted></_>
    <_>
      <rects>
        <_>
          9 1 20 22 -1.</_>
        <_>
          19 1 10 22 2.</_></rects>
      <tilted>0</tilted></_>
    <_>
      <rects>
        <_>
          9 3 16 14 -1.</_>
        <_>
          17 3 8 14 2.</_></rects>
      <tilted>0</tilted></_>
    <_>
      <rects>
        <_>
          9 4 10 18 -1.</_>
        <_>
          9 10 10 6 2.</_></rects>
      <tilted>0</tilted></_>
    <_>
      <rects>
        <_>
          9 11 4 14 -1.</_>
        <_>
          9 11 2 7 2.</_>
        <_>
          11 18 2 7 2.</_></rects>
      <tilted>0</tilted></_>
    <_>
      <rects>
        <_>
          9 13 19 8 -1.</_>
        <_>
          9 17 19 4 2.</_></rects>
      <tilted>0</tilted></_>
    <_>
      <rects>
        <_>
          9 18 2 8 -1.</_>
        <_>
          9 18 1 4 2.</_>
        <_>
          10 22 1 4 2.</_></rects>
      <tilted>0</tilted></_>
    <_>
      <rects>
        <_>
          9 20 2 3 -1.</_>
        <_>
          9 21 2 1 2.</_></rects>
      <tilted>0</tilted></_>
    <_>
      <rects>
        <_>
          9 25 20 1 -1.</_>
        <_>
          19 25 10 1 2.</_></rects>
      <tilted>0</tilted></_>
    <_>
      <rects>
        <_>
          9 32 16 2 -1.</_>
        <_>
          17 32 8 2 2.</_></rects>
      <tilted>0</tilted></_>
    <_>
      <rects>
        <_>
          10 0 23 8 -1.</_>
        <_>
          10 4 23 4 2.</_></rects>
      <tilted>0</tilted></_>
    <_>
      <rects>
        <_>
          10 1 28 8 -1.</_>
        <_>
          10 5 28 4 2.</_></rects>
      <tilted>0</tilted></_>
    <_>
      <rects>
        <_>
          10 3 12 6 -1.</_>
        <_>
          10 6 12 3 2.</_></rects>
      <tilted>0</tilted></_>
    <_>
      <rects>
        <_>
          10 4 14 29 -1.</_>
        <_>
          17 4 7 29 2.</_></rects>
      <tilted>0</tilted></_>
    <_>
      <rects>
        <_>
          10 8 12 22 -1.</_>
        <_>
          16 8 6 22 2.</_></rects>
      <tilted>0</tilted></_>
    <_>
      <rects>
        <_>
          10 9 19 12 -1.</_>
        <_>
          10 15 19 6 2.</_></rects>
      <tilted>0</tilted></_>
    <_>
      <rects>
        <_>
          10 18 8 16 -1.</_>
        <_>
          10 26 8 8 2.</_></rects>
      <tilted>0</tilted></_>
    <_>
      <rects>
        <_>
          10 19 12 18 -1.</_>
        <_>
          16 19 6 18 2.</_></rects>
      <tilted>0</tilted></_>
    <_>
      <rects>
        <_>
          10 19 20 6 -1.</_>
        <_>
          10 22 20 3 2.</_></rects>
      <tilted>0</tilted></_>
    <_>
      <rects>
        <_>
          11 8 11 28 -1.</_>
        <_>
          11 22 11 14 2.</_></rects>
      <tilted>0</tilted></_>
    <_>
      <rects>
        <_>
          11 9 15 12 -1.</_>
        <_>
          11 15 15 6 2.</_></rects>
      <tilted>0</tilted></_>
    <_>
      <rects>
        <_>
          11 14 26 6 -1.</_>
        <_>
          11 14 13 3 2.</_>
        <_>
          24 17 13 3 2.</_></rects>
      <tilted>0</tilted></_>
    <_>
      <rects>
        <_>
          11 17 1 3 -1.</_>
        <_>
          11 18 1 1 2.</_></rects>
      <tilted>0</tilted></_>
    <_>
      <rects>
        <_>
          11 21 2 2 -1.</_>
        <_>
          11 22 2 1 2.</_></rects>
      <tilted>0</tilted></_>
    <_>
      <rects>
        <_>
          11 30 8 7 -1.</_>
        <_>
          15 30 4 7 2.</_></rects>
      <tilted>0</tilted></_>
    <_>
      <rects>
        <_>
          12 2 12 36 -1.</_>
        <_>
          12 20 12 18 2.</_></rects>
      <tilted>0</tilted></_>
    <_>
      <rects>
        <_>
          12 7 10 14 -1.</_>
        <_>
          12 14 10 7 2.</_></rects>
      <tilted>0</tilted></_>
    <_>
      <rects>
        <_>
          12 9 5 10 -1.</_>
        <_>
          12 14 5 5 2.</_></rects>
      <tilted>0</tilted></_>
    <_>
      <rects>
        <_>
          12 11 12 10 -1.</_>
        <_>
          12 16 12 5 2.</_></rects>
      <tilted>0</tilted></_>
    <_>
      <rects>
        <_>
          12 16 16 18 -1.</_>
        <_>
          20 16 8 18 2.</_></rects>
      <tilted>0</tilted></_>
    <_>
      <rects>
        <_>
          13 0 20 16 -1.</_>
        <_>
          13 0 10 8 2.</_>
        <_>
          23 8 10 8 2.</_></rects>
      <tilted>0</tilted></_>
    <_>
      <rects>
        <_>
          13 6 2 15 -1.</_>
        <_>
          13 11 2 5 2.</_></rects>
      <tilted>0</tilted></_>
    <_>
      <rects>
        <_>
          13 7 3 12 -1.</_>
        <_>
          13 13 3 6 2.</_></rects>
      <tilted>0</tilted></_>
    <_>
      <rects>
        <_>
          13 8 12 5 -1.</_>
        <_>
          19 8 6 5 2.</_></rects>
      <tilted>0</tilted></_>
    <_>
      <rects>
        <_>
          13 11 3 8 -1.</_>
        <_>
          13 15 3 4 2.</_></rects>
      <tilted>0</tilted></_>
    <_>
      <rects>
        <_>
          13 25 4 2 -1.</_>
        <_>
          15 25 2 2 2.</_></rects>
      <tilted>0</tilted></_>
    <_>
      <rects>
        <_>
          14 0 16 8 -1.</_>
        <_>
          14 4 16 4 2.</_></rects>
      <tilted>0</tilted></_>
    <_>
      <rects>
        <_>
          14 10 26 6 -1.</_>
        <_>
          14 12 26 2 2.</_></rects>
      <tilted>0</tilted></_>
    <_>
      <rects>
        <_>
          14 12 7 8 -1.</_>
        <_>
          14 16 7 4 2.</_></rects>
      <tilted>0</tilted></_>
    <_>
      <rects>
        <_>
          14 14 26 14 -1.</_>
        <_>
          14 21 26 7 2.</_></rects>
      <tilted>0</tilted></_>
    <_>
      <rects>
        <_>
          14 19 22 14 -1.</_>
        <_>
          14 19 11 7 2.</_>
        <_>
          25 26 11 7 2.</_></rects>
      <tilted>0</tilted></_>
    <_>
      <rects>
        <_>
          14 35 6 2 -1.</_>
        <_>
          14 36 6 1 2.</_></rects>
      <tilted>0</tilted></_>
    <_>
      <rects>
        <_>
          15 4 10 10 -1.</_>
        <_>
          20 4 5 10 2.</_></rects>
      <tilted>0</tilted></_>
    <_>
      <rects>
        <_>
          15 9 4 5 -1.</_>
        <_>
          17 9 2 5 2.</_></rects>
      <tilted>0</tilted></_>
    <_>
      <rects>
        <_>
          15 11 11 10 -1.</_>
        <_>
          15 16 11 5 2.</_></rects>
      <tilted>0</tilted></_>
    <_>
      <rects>
        <_>
          15 16 4 1 -1.</_>
        <_>
          17 16 2 1 2.</_></rects>
      <tilted>0</tilted></_>
    <_>
      <rects>
        <_>
          15 29 22 8 -1.</_>
        <_>
          15 33 22 4 2.</_></rects>
      <tilted>0</tilted></_>
    <_>
      <rects>
        <_>
          16 0 12 4 -1.</_>
        <_>
          16 2 12 2 2.</_></rects>
      <tilted>0</tilted></_>
    <_>
      <rects>
        <_>
          16 0 20 8 -1.</_>
        <_>
          16 4 20 4 2.</_></rects>
      <tilted>0</tilted></_>
    <_>
      <rects>
        <_>
          16 14 1 2 -1.</_>
        <_>
          16 15 1 1 2.</_></rects>
      <tilted>0</tilted></_>
    <_>
      <rects>
        <_>
          16 36 1 2 -1.</_>
        <_>
          16 37 1 1 2.</_></rects>
      <tilted>0</tilted></_>
    <_>
      <rects>
        <_>
          17 0 2 10 -1.</_>
        <_>
          17 0 1 5 2.</_>
        <_>
          18 5 1 5 2.</_></rects>
      <tilted>0</tilted></_>
    <_>
      <rects>
        <_>
          17 0 7 40 -1.</_>
        <_>
          17 20 7 20 2.</_></rects>
      <tilted>0</tilted></_>
    <_>
      <rects>
        <_>
          17 10 2 26 -1.</_>
        <_>
          17 23 2 13 2.</_></rects>
      <tilted>0</tilted></_>
    <_>
      <rects>
        <_>
          17 12 6 2 -1.</_>
        <_>
          17 12 3 1 2.</_>
        <_>
          20 13 3 1 2.</_></rects>
      <tilted>0</tilted></_>
    <_>
      <rects>
        <_>
          17 34 1 4 -1.</_>
        <_>
          17 36 1 2 2.</_></rects>
      <tilted>0</tilted></_>
    <_>
      <rects>
        <_>
          18 3 12 20 -1.</_>
        <_>
          18 3 6 10 2.</_>
        <_>
          24 13 6 10 2.</_></rects>
      <tilted>0</tilted></_>
    <_>
      <rects>
        <_>
          18 19 22 1 -1.</_>
        <_>
          29 19 11 1 2.</_></rects>
      <tilted>0</tilted></_>
    <_>
      <rects>
        <_>
          18 28 2 8 -1.</_>
        <_>
          19 28 1 8 2.</_></rects>
      <tilted>0</tilted></_>
    <_>
      <rects>
        <_>
          19 6 2 13 -1.</_>
        <_>
          20 6 1 13 2.</_></rects>
      <tilted>0</tilted></_>
    <_>
      <rects>
        <_>
          19 8 2 8 -1.</_>
        <_>
          20 8 1 8 2.</_></rects>
      <tilted>0</tilted></_>
    <_>
      <rects>
        <_>
          19 12 2 3 -1.</_>
        <_>
          20 12 1 3 2.</_></rects>
      <tilted>0</tilted></_>
    <_>
      <rects>
        <_>
          19 16 1 2 -1.</_>
        <_>
          19 17 1 1 2.</_></rects>
      <tilted>0</tilted></_>
    <_>
      <rects>
        <_>
          19 17 6 6 -1.</_>
        <_>
          19 20 6 3 2.</_></rects>
      <tilted>0</tilted></_>
    <_>
      <rects>
        <_>
          20 0 14 8 -1.</_>
        <_>
          27 0 7 8 2.</_></rects>
      <tilted>0</tilted></_>
    <_>
      <rects>
        <_>
          20 14 18 10 -1.</_>
        <_>
          20 19 18 5 2.</_></rects>
      <tilted>0</tilted></_>
    <_>
      <rects>
        <_>
          20 16 1 2 -1.</_>
        <_>
          20 17 1 1 2.</_></rects>
      <tilted>0</tilted></_>
    <_>
      <rects>
        <_>
          21 24 12 4 -1.</_>
        <_>
          21 24 6 2 2.</_>
        <_>
          27 26 6 2 2.</_></rects>
      <tilted>0</tilted></_>
    <_>
      <rects>
        <_>
          21 27 4 2 -1.</_>
        <_>
          21 27 2 1 2.</_>
        <_>
          23 28 2 1 2.</_></rects>
      <tilted>0</tilted></_>
    <_>
      <rects>
        <_>
          22 0 10 36 -1.</_>
        <_>
          27 0 5 36 2.</_></rects>
      <tilted>0</tilted></_>
    <_>
      <rects>
        <_>
          22 10 6 28 -1.</_>
        <_>
          22 10 3 14 2.</_>
        <_>
          25 24 3 14 2.</_></rects>
      <tilted>0</tilted></_>
    <_>
      <rects>
        <_>
          22 16 12 10 -1.</_>
        <_>
          22 16 6 5 2.</_>
        <_>
          28 21 6 5 2.</_></rects>
      <tilted>0</tilted></_>
    <_>
      <rects>
        <_>
          22 20 16 18 -1.</_>
        <_>
          22 20 8 9 2.</_>
        <_>
          30 29 8 9 2.</_></rects>
      <tilted>0</tilted></_>
    <_>
      <rects>
        <_>
          22 22 14 2 -1.</_>
        <_>
          22 22 7 1 2.</_>
        <_>
          29 23 7 1 2.</_></rects>
      <tilted>0</tilted></_>
    <_>
      <rects>
        <_>
          22 25 4 4 -1.</_>
        <_>
          22 25 2 2 2.</_>
        <_>
          24 27 2 2 2.</_></rects>
      <tilted>0</tilted></_>
    <_>
      <rects>
        <_>
          23 0 1 6 -1.</_>
        <_>
          23 3 1 3 2.</_></rects>
      <tilted>0</tilted></_>
    <_>
      <rects>
        <_>
          23 0 16 2 -1.</_>
        <_>
          31 0 8 2 2.</_></rects>
      <tilted>0</tilted></_>
    <_>
      <rects>
        <_>
          23 1 13 2 -1.</_>
        <_>
          23 2 13 1 2.</_></rects>
      <tilted>0</tilted></_>
    <_>
      <rects>
        <_>
          23 21 8 10 -1.</_>
        <_>
          27 21 4 10 2.</_></rects>
      <tilted>0</tilted></_>
    <_>
      <rects>
        <_>
          23 21 10 3 -1.</_>
        <_>
          28 21 5 3 2.</_></rects>
      <tilted>0</tilted></_>
    <_>
      <rects>
        <_>
          23 32 6 1 -1.</_>
        <_>
          26 32 3 1 2.</_></rects>
      <tilted>0</tilted></_>
    <_>
      <rects>
        <_>
          24 1 6 2 -1.</_>
        <_>
          24 1 3 1 2.</_>
        <_>
          27 2 3 1 2.</_></rects>
      <tilted>0</tilted></_>
    <_>
      <rects>
        <_>
          24 18 4 17 -1.</_>
        <_>
          26 18 2 17 2.</_></rects>
      <tilted>0</tilted></_>
    <_>
      <rects>
        <_>
          24 20 8 3 -1.</_>
        <_>
          28 20 4 3 2.</_></rects>
      <tilted>0</tilted></_>
    <_>
      <rects>
        <_>
          24 27 12 2 -1.</_>
        <_>
          24 27 6 1 2.</_>
        <_>
          30 28 6 1 2.</_></rects>
      <tilted>0</tilted></_>
    <_>
      <rects>
        <_>
          25 5 1 8 -1.</_>
        <_>
          25 9 1 4 2.</_></rects>
      <tilted>0</tilted></_>
    <_>
      <rects>
        <_>
          25 6 7 20 -1.</_>
        <_>
          25 16 7 10 2.</_></rects>
      <tilted>0</tilted></_>
    <_>
      <rects>
        <_>
          25 10 4 6 -1.</_>
        <_>
          25 10 2 3 2.</_>
        <_>
          27 13 2 3 2.</_></rects>
      <tilted>0</tilted></_>
    <_>
      <rects>
        <_>
          25 12 2 6 -1.</_>
        <_>
          25 12 1 3 2.</_>
        <_>
          26 15 1 3 2.</_></rects>
      <tilted>0</tilted></_>
    <_>
      <rects>
        <_>
          25 16 6 20 -1.</_>
        <_>
          28 16 3 20 2.</_></rects>
      <tilted>0</tilted></_>
    <_>
      <rects>
        <_>
          25 17 6 9 -1.</_>
        <_>
          28 17 3 9 2.</_></rects>
      <tilted>0</tilted></_>
    <_>
      <rects>
        <_>
          25 23 2 9 -1.</_>
        <_>
          26 23 1 9 2.</_></rects>
      <tilted>0</tilted></_>
    <_>
      <rects>
        <_>
          25 27 4 12 -1.</_>
        <_>
          25 33 4 6 2.</_></rects>
      <tilted>0</tilted></_>
    <_>
      <rects>
        <_>
          26 13 14 4 -1.</_>
        <_>
          33 13 7 4 2.</_></rects>
      <tilted>0</tilted></_>
    <_>
      <rects>
        <_>
          26 21 14 14 -1.</_>
        <_>
          33 21 7 14 2.</_></rects>
      <tilted>0</tilted></_>
    <_>
      <rects>
        <_>
          26 30 2 2 -1.</_>
        <_>
          26 31 2 1 2.</_></rects>
      <tilted>0</tilted></_>
    <_>
      <rects>
        <_>
          26 33 1 2 -1.</_>
        <_>
          26 34 1 1 2.</_></rects>
      <tilted>0</tilted></_>
    <_>
      <rects>
        <_>
          27 1 9 2 -1.</_>
        <_>
          27 2 9 1 2.</_></rects>
      <tilted>0</tilted></_>
    <_>
      <rects>
        <_>
          27 4 6 30 -1.</_>
        <_>
          27 14 6 10 2.</_></rects>
      <tilted>0</tilted></_>
    <_>
      <rects>
        <_>
          27 6 2 3 -1.</_>
        <_>
          28 6 1 3 2.</_></rects>
      <tilted>0</tilted></_>
    <_>
      <rects>
        <_>
          27 14 8 14 -1.</_>
        <_>
          27 14 4 7 2.</_>
        <_>
          31 21 4 7 2.</_></rects>
      <tilted>0</tilted></_>
    <_>
      <rects>
        <_>
          28 0 10 12 -1.</_>
        <_>
          28 0 5 6 2.</_>
        <_>
          33 6 5 6 2.</_></rects>
      <tilted>0</tilted></_>
    <_>
      <rects>
        <_>
          28 1 8 8 -1.</_>
        <_>
          28 1 4 4 2.</_>
        <_>
          32 5 4 4 2.</_></rects>
      <tilted>0</tilted></_>
    <_>
      <rects>
        <_>
          28 4 2 12 -1.</_>
        <_>
          28 4 1 6 2.</_>
        <_>
          29 10 1 6 2.</_></rects>
      <tilted>0</tilted></_>
    <_>
      <rects>
        <_>
          28 11 6 9 -1.</_>
        <_>
          31 11 3 9 2.</_></rects>
      <tilted>0</tilted></_>
    <_>
      <rects>
        <_>
          28 15 8 10 -1.</_>
        <_>
          28 15 4 5 2.</_>
        <_>
          32 20 4 5 2.</_></rects>
      <tilted>0</tilted></_>
    <_>
      <rects>
        <_>
          28 17 10 14 -1.</_>
        <_>
          28 17 5 7 2.</_>
        <_>
          33 24 5 7 2.</_></rects>
      <tilted>0</tilted></_>
    <_>
      <rects>
        <_>
          29 16 8 2 -1.</_>
        <_>
          29 16 4 1 2.</_>
        <_>
          33 17 4 1 2.</_></rects>
      <tilted>0</tilted></_>
    <_>
      <rects>
        <_>
          29 31 6 4 -1.</_>
        <_>
          29 31 3 2 2.</_>
        <_>
          32 33 3 2 2.</_></rects>
      <tilted>0</tilted></_>
    <_>
      <rects>
        <_>
          30 13 8 18 -1.</_>
        <_>
          34 13 4 18 2.</_></rects>
      <tilted>0</tilted></_>
    <_>
      <rects>
        <_>
          30 18 2 4 -1.</_>
        <_>
          30 20 2 2 2.</_></rects>
      <tilted>0</tilted></_>
    <_>
      <rects>
        <_>
          30 22 10 12 -1.</_>
        <_>
          35 22 5 12 2.</_></rects>
      <tilted>0</tilted></_>
    <_>
      <rects>
        <_>
          31 20 2 4 -1.</_>
        <_>
          31 22 2 2 2.</_></rects>
      <tilted>0</tilted></_>
    <_>
      <rects>
        <_>
          32 13 8 17 -1.</_>
        <_>
          36 13 4 17 2.</_></rects>
      <tilted>0</tilted></_>
    <_>
      <rects>
        <_>
          32 16 4 20 -1.</_>
        <_>
          32 16 2 10 2.</_>
        <_>
          34 26 2 10 2.</_></rects>
      <tilted>0</tilted></_>
    <_>
      <rects>
        <_>
          33 17 2 22 -1.</_>
        <_>
          33 28 2 11 2.</_></rects>
      <tilted>0</tilted></_>
    <_>
      <rects>
        <_>
          34 10 6 13 -1.</_>
        <_>
          37 10 3 13 2.</_></rects>
      <tilted>0</tilted></_>
    <_>
      <rects>
        <_>
          34 10 6 21 -1.</_>
        <_>
          37 10 3 21 2.</_></rects>
      <tilted>0</tilted></_>
    <_>
      <rects>
        <_>
          34 12 6 17 -1.</_>
        <_>
          37 12 3 17 2.</_></rects>
      <tilted>0</tilted></_>
    <_>
      <rects>
        <_>
          34 13 6 14 -1.</_>
        <_>
          37 13 3 14 2.</_></rects>
      <tilted>0</tilted></_>
    <_>
      <rects>
        <_>
          34 19 2 18 -1.</_>
        <_>
          34 19 1 9 2.</_>
        <_>
          35 28 1 9 2.</_></rects>
      <tilted>0</tilted></_>
    <_>
      <rects>
        <_>
          34 37 6 2 -1.</_>
        <_>
          37 37 3 2 2.</_></rects>
      <tilted>0</tilted></_>
    <_>
      <rects>
        <_>
          35 19 2 18 -1.</_>
        <_>
          35 19 1 9 2.</_>
        <_>
          36 28 1 9 2.</_></rects>
      <tilted>0</tilted></_>
    <_>
      <rects>
        <_>
          35 21 4 6 -1.</_>
        <_>
          37 21 2 6 2.</_></rects>
      <tilted>0</tilted></_>
    <_>
      <rects>
        <_>
          35 35 3 3 -1.</_>
        <_>
          36 35 1 3 2.</_></rects>
      <tilted>0</tilted></_>
    <_>
      <rects>
        <_>
          36 8 4 22 -1.</_>
        <_>
          38 8 2 22 2.</_></rects>
      <tilted>0</tilted></_>
    <_>
      <rects>
        <_>
          36 13 4 17 -1.</_>
        <_>
          38 13 2 17 2.</_></rects>
      <tilted>0</tilted></_>
    <_>
      <rects>
        <_>
          36 15 4 22 -1.</_>
        <_>
          36 15 2 11 2.</_>
        <_>
          38 26 2 11 2.</_></rects>
      <tilted>0</tilted></_>
    <_>
      <rects>
        <_>
          37 9 2 23 -1.</_>
        <_>
          38 9 1 23 2.</_></rects>
      <tilted>0</tilted></_>
    <_>
      <rects>
        <_>
          38 2 2 1 -1.</_>
        <_>
          39 2 1 1 2.</_></rects>
      <tilted>0</tilted></_>
    <_>
      <rects>
        <_>
          38 13 2 12 -1.</_>
        <_>
          39 13 1 12 2.</_></rects>
      <tilted>0</tilted></_>
    <_>
      <rects>
        <_>
          38 30 1 6 -1.</_>
        <_>
          38 33 1 3 2.</_></rects>
      <tilted>0</tilted></_>
    <_>
      <rects>
        <_>
          39 1 1 6 -1.</_>
        <_>
          39 4 1 3 2.</_></rects>
      <tilted>0</tilted></_>
    <_>
      <rects>
        <_>
          39 1 1 14 -1.</_>
        <_>
          39 8 1 7 2.</_></rects>
      <tilted>0</tilted></_>
    <_>
      <rects>
        <_>
          39 6 1 22 -1.</_>
        <_>
          39 17 1 11 2.</_></rects>
      <tilted>0</tilted></_>
    <_>
      <rects>
        <_>
          39 14 1 24 -1.</_>
        <_>
          39 26 1 12 2.</_></rects>
      <tilted>0</tilted></_>
    <_>
      <rects>
        <_>
          39 15 1 8 -1.</_>
        <_>
          39 19 1 4 2.</_></rects>
      <tilted>0</tilted></_>
    <_>
      <rects>
        <_>
          39 24 1 8 -1.</_>
        <_>
          39 28 1 4 2.</_></rects>
      <tilted>0</tilted></_></features></cascade>
</opencv_storage>
