<?xml version="1.0"?>
<opencv_storage>
<cascade>
  <stageType>BOOST</stageType>
  <featureType>HAAR</featureType>
  <height>24</height>
  <width>24</width>
  <stageParams>
    <boostType>GAB</boostType>
    <minHitRate>9.9500000476837158e-01</minHitRate>
    <maxFalseAlarm>3.0000001192092896e-01</maxFalseAlarm>
    <weightTrimRate>9.4999999999999996e-01</weightTrimRate>
    <maxDepth>1</maxDepth>
    <maxWeakCount>100</maxWeakCount></stageParams>
  <featureParams>
    <maxCatCount>0</maxCatCount>
    <featSize>1</featSize>
    <mode>BASIC</mode></featureParams>
  <stageNum>15</stageNum>
  <stages>
    <!-- stage 0 -->
    <_>
      <maxWeakCount>8</maxWeakCount>
      <stageThreshold>-1.3809963464736938e+00</stageThreshold>
      <weakClassifiers>
        <_>
          <internalNodes>
            0 -1 90 -3.6548051983118057e-02</internalNodes>
          <leafValues>
            6.1490684747695923e-01 -8.5725307464599609e-01</leafValues></_>
        <_>
          <internalNodes>
            0 -1 252 4.3681830167770386e-02</internalNodes>
          <leafValues>
            -5.6993651390075684e-01 7.8865212202072144e-01</leafValues></_>
        <_>
          <internalNodes>
            0 -1 269 -1.9588245078921318e-02</internalNodes>
          <leafValues>
            7.9471963644027710e-01 -3.0285131931304932e-01</leafValues></_>
        <_>
          <internalNodes>
            0 -1 291 -3.2397811301052570e-03</internalNodes>
          <leafValues>
            5.1681816577911377e-01 -3.6500445008277893e-01</leafValues></_>
        <_>
          <internalNodes>
            0 -1 284 -9.2779342085123062e-03</internalNodes>
          <leafValues>
            6.4570677280426025e-01 -2.3539285361766815e-01</leafValues></_>
        <_>
          <internalNodes>
            0 -1 62 1.6767081618309021e-01</internalNodes>
          <leafValues>
            -3.0174431204795837e-01 6.7628037929534912e-01</leafValues></_>
        <_>
          <internalNodes>
            0 -1 99 -1.5602549910545349e-01</internalNodes>
          <leafValues>
            2.0471009612083435e-01 -9.1987472772598267e-01</leafValues></_>
        <_>
          <internalNodes>
            0 -1 170 -9.9160401150584221e-03</internalNodes>
          <leafValues>
            -9.1885781288146973e-01 1.6537652909755707e-01</leafValues></_></weakClassifiers></_>
    <!-- stage 1 -->
    <_>
      <maxWeakCount>12</maxWeakCount>
      <stageThreshold>-1.8341890573501587e+00</stageThreshold>
      <weakClassifiers>
        <_>
          <internalNodes>
            0 -1 38 -1.0606033727526665e-02</internalNodes>
          <leafValues>
            1.1142061650753021e-01 -8.5065764188766479e-01</leafValues></_>
        <_>
          <internalNodes>
            0 -1 301 -1.3130391016602516e-02</internalNodes>
          <leafValues>
            3.6911210417747498e-01 -5.4861611127853394e-01</leafValues></_>
        <_>
          <internalNodes>
            0 -1 136 -3.9480333216488361e-03</internalNodes>
          <leafValues>
            6.3182568550109863e-01 -2.6819071173667908e-01</leafValues></_>
        <_>
          <internalNodes>
            0 -1 172 1.3030128553509712e-02</internalNodes>
          <leafValues>
            -2.2570988535881042e-01 7.2584539651870728e-01</leafValues></_>
        <_>
          <internalNodes>
            0 -1 229 -1.1358001756889280e-05</internalNodes>
          <leafValues>
            3.3934405446052551e-01 -4.9814367294311523e-01</leafValues></_>
        <_>
          <internalNodes>
            0 -1 48 -8.0848403740674257e-04</internalNodes>
          <leafValues>
            5.4898965358734131e-01 -2.6339870691299438e-01</leafValues></_>
        <_>
          <internalNodes>
            0 -1 117 2.1091306116431952e-03</internalNodes>
          <leafValues>
            -1.9307920336723328e-01 6.0229498147964478e-01</leafValues></_>
        <_>
          <internalNodes>
            0 -1 105 -1.3872379064559937e-01</internalNodes>
          <leafValues>
            2.6889920234680176e-01 -5.4380071163177490e-01</leafValues></_>
        <_>
          <internalNodes>
            0 -1 293 -1.1990601196885109e-02</internalNodes>
          <leafValues>
            7.3050975799560547e-01 -1.9330380856990814e-01</leafValues></_>
        <_>
          <internalNodes>
            0 -1 302 1.1594472452998161e-03</internalNodes>
          <leafValues>
            -3.4352329373359680e-01 3.9461272954940796e-01</leafValues></_>
        <_>
          <internalNodes>
            0 -1 339 -2.4809072783682495e-05</internalNodes>
          <leafValues>
            3.6495366692543030e-01 -3.5532614588737488e-01</leafValues></_>
        <_>
          <internalNodes>
            0 -1 44 -1.7460789531469345e-02</internalNodes>
          <leafValues>
            6.7196667194366455e-01 -1.8665756285190582e-01</leafValues></_></weakClassifiers></_>
    <!-- stage 2 -->
    <_>
      <maxWeakCount>15</maxWeakCount>
      <stageThreshold>-1.5227091312408447e+00</stageThreshold>
      <weakClassifiers>
        <_>
          <internalNodes>
            0 -1 318 -2.4891855195164680e-02</internalNodes>
          <leafValues>
            2.5996534153819084e-02 -7.7662128210067749e-01</leafValues></_>
        <_>
          <internalNodes>
            0 -1 16 4.4758901000022888e-02</internalNodes>
          <leafValues>
            -4.2456954717636108e-01 4.6649050712585449e-01</leafValues></_>
        <_>
          <internalNodes>
            0 -1 37 -1.4499074313789606e-03</internalNodes>
          <leafValues>
            2.7733817696571350e-01 -5.1285523176193237e-01</leafValues></_>
        <_>
          <internalNodes>
            0 -1 336 5.4668856319040060e-04</internalNodes>
          <leafValues>
            -1.8369255959987640e-01 5.8969491720199585e-01</leafValues></_>
        <_>
          <internalNodes>
            0 -1 192 -6.3145658932626247e-03</internalNodes>
          <leafValues>
            -8.0028718709945679e-01 1.4821352064609528e-01</leafValues></_>
        <_>
          <internalNodes>
            0 -1 35 9.1076623648405075e-03</internalNodes>
          <leafValues>
            1.5683117508888245e-01 -7.5579786300659180e-01</leafValues></_>
        <_>
          <internalNodes>
            0 -1 180 -1.0207054205238819e-02</internalNodes>
          <leafValues>
            5.4802119731903076e-01 -2.0553335547447205e-01</leafValues></_>
        <_>
          <internalNodes>
            0 -1 179 -2.5082095526158810e-03</internalNodes>
          <leafValues>
            6.0311377048492432e-01 -2.5061991810798645e-01</leafValues></_>
        <_>
          <internalNodes>
            0 -1 126 -1.6394138801842928e-03</internalNodes>
          <leafValues>
            -9.2724639177322388e-01 1.3103736937046051e-01</leafValues></_>
        <_>
          <internalNodes>
            0 -1 133 -1.0810714593390003e-04</internalNodes>
          <leafValues>
            3.1539481878280640e-01 -3.4599974751472473e-01</leafValues></_>
        <_>
          <internalNodes>
            0 -1 91 -1.8323045223951340e-02</internalNodes>
          <leafValues>
            5.7182532548904419e-01 -2.0805448293685913e-01</leafValues></_>
        <_>
          <internalNodes>
            0 -1 235 -1.0981317609548569e-02</internalNodes>
          <leafValues>
            -7.9912149906158447e-01 1.2869380414485931e-01</leafValues></_>
        <_>
          <internalNodes>
            0 -1 220 -5.9541133232414722e-03</internalNodes>
          <leafValues>
            1.1464427411556244e-01 -8.6064040660858154e-01</leafValues></_>
        <_>
          <internalNodes>
            0 -1 67 1.2266089022159576e-01</internalNodes>
          <leafValues>
            -2.4256460368633270e-01 5.1562470197677612e-01</leafValues></_>
        <_>
          <internalNodes>
            0 -1 66 -8.3279021084308624e-02</internalNodes>
          <leafValues>
            6.8955326080322266e-01 -2.1831017732620239e-01</leafValues></_></weakClassifiers></_>
    <!-- stage 3 -->
    <_>
      <maxWeakCount>15</maxWeakCount>
      <stageThreshold>-1.4942442178726196e+00</stageThreshold>
      <weakClassifiers>
        <_>
          <internalNodes>
            0 -1 186 2.6453681290149689e-02</internalNodes>
          <leafValues>
            -8.1993854045867920e-01 -7.2681702673435211e-02</leafValues></_>
        <_>
          <internalNodes>
            0 -1 89 -1.6780838370323181e-02</internalNodes>
          <leafValues>
            3.4826427698135376e-01 -4.6523243188858032e-01</leafValues></_>
        <_>
          <internalNodes>
            0 -1 259 -2.4358753114938736e-02</internalNodes>
          <leafValues>
            3.5618159174919128e-01 -3.3654776215553284e-01</leafValues></_>
        <_>
          <internalNodes>
            0 -1 283 -2.1892678923904896e-03</internalNodes>
          <leafValues>
            6.9230973720550537e-01 -1.7245833575725555e-01</leafValues></_>
        <_>
          <internalNodes>
            0 -1 286 -6.3101106206886470e-05</internalNodes>
          <leafValues>
            2.8509172797203064e-01 -3.9529860019683838e-01</leafValues></_>
        <_>
          <internalNodes>
            0 -1 253 -2.3611601442098618e-02</internalNodes>
          <leafValues>
            -7.4388921260833740e-01 1.9311441481113434e-01</leafValues></_>
        <_>
          <internalNodes>
            0 -1 20 1.0312701342627406e-03</internalNodes>
          <leafValues>
            -1.7134124040603638e-01 8.5295665264129639e-01</leafValues></_>
        <_>
          <internalNodes>
            0 -1 151 -1.7986869439482689e-02</internalNodes>
          <leafValues>
            6.6921645402908325e-01 -1.3578970730304718e-01</leafValues></_>
        <_>
          <internalNodes>
            0 -1 156 1.8356107175350189e-02</internalNodes>
          <leafValues>
            -1.4690554141998291e-01 6.5395116806030273e-01</leafValues></_>
        <_>
          <internalNodes>
            0 -1 231 6.1150849796831608e-03</internalNodes>
          <leafValues>
            -1.9149327278137207e-01 4.9464893341064453e-01</leafValues></_>
        <_>
          <internalNodes>
            0 -1 142 -6.3857370987534523e-03</internalNodes>
          <leafValues>
            -9.3006777763366699e-01 1.0444901883602142e-01</leafValues></_>
        <_>
          <internalNodes>
            0 -1 294 -1.5247105620801449e-03</internalNodes>
          <leafValues>
            4.9912226200103760e-01 -2.1791400015354156e-01</leafValues></_>
        <_>
          <internalNodes>
            0 -1 211 -6.9155860692262650e-03</internalNodes>
          <leafValues>
            -7.2914773225784302e-01 1.3752980530261993e-01</leafValues></_>
        <_>
          <internalNodes>
            0 -1 316 5.3302047308534384e-04</internalNodes>
          <leafValues>
            -1.7049619555473328e-01 5.8694165945053101e-01</leafValues></_>
        <_>
          <internalNodes>
            0 -1 331 -2.8866566717624664e-03</internalNodes>
          <leafValues>
            -7.8790861368179321e-01 1.4092576503753662e-01</leafValues></_></weakClassifiers></_>
    <!-- stage 4 -->
    <_>
      <maxWeakCount>20</maxWeakCount>
      <stageThreshold>-1.6768625974655151e+00</stageThreshold>
      <weakClassifiers>
        <_>
          <internalNodes>
            0 -1 325 -7.7003771439194679e-03</internalNodes>
          <leafValues>
            -7.4475908279418945e-01 2.8089886903762817e-01</leafValues></_>
        <_>
          <internalNodes>
            0 -1 93 1.0353309661149979e-01</internalNodes>
          <leafValues>
            -4.8111030459403992e-01 2.8981474041938782e-01</leafValues></_>
        <_>
          <internalNodes>
            0 -1 281 -1.1196506209671497e-02</internalNodes>
          <leafValues>
            -9.3228912353515625e-01 1.3073970377445221e-01</leafValues></_>
        <_>
          <internalNodes>
            0 -1 219 -8.6624249815940857e-03</internalNodes>
          <leafValues>
            1.6525343060493469e-01 -7.3741137981414795e-01</leafValues></_>
        <_>
          <internalNodes>
            0 -1 54 -1.1376993730664253e-02</internalNodes>
          <leafValues>
            3.5567376017570496e-01 -3.2583245635032654e-01</leafValues></_>
        <_>
          <internalNodes>
            0 -1 157 2.7856143191456795e-02</internalNodes>
          <leafValues>
            -1.4210636913776398e-01 6.3576447963714600e-01</leafValues></_>
        <_>
          <internalNodes>
            0 -1 182 2.0545013248920441e-02</internalNodes>
          <leafValues>
            -1.3877990841865540e-01 6.8325948715209961e-01</leafValues></_>
        <_>
          <internalNodes>
            0 -1 306 -2.3136494681239128e-02</internalNodes>
          <leafValues>
            4.2543759942054749e-01 -1.8920852243900299e-01</leafValues></_>
        <_>
          <internalNodes>
            0 -1 15 -1.1317782104015350e-01</internalNodes>
          <leafValues>
            5.0983566045761108e-01 -2.2083921730518341e-01</leafValues></_>
        <_>
          <internalNodes>
            0 -1 21 1.3045831583440304e-02</internalNodes>
          <leafValues>
            -1.7790004611015320e-01 6.0790723562240601e-01</leafValues></_>
        <_>
          <internalNodes>
            0 -1 310 7.0442538708448410e-03</internalNodes>
          <leafValues>
            -1.1829592287540436e-01 6.5521806478500366e-01</leafValues></_>
        <_>
          <internalNodes>
            0 -1 333 -9.3924943357706070e-03</internalNodes>
          <leafValues>
            6.0685855150222778e-01 -1.2412656843662262e-01</leafValues></_>
        <_>
          <internalNodes>
            0 -1 30 -2.4215418845415115e-02</internalNodes>
          <leafValues>
            -9.3432694673538208e-01 1.0216711461544037e-01</leafValues></_>
        <_>
          <internalNodes>
            0 -1 84 1.1843950487673283e-02</internalNodes>
          <leafValues>
            -1.9575153291225433e-01 4.3706837296485901e-01</leafValues></_>
        <_>
          <internalNodes>
            0 -1 203 -2.7509810402989388e-02</internalNodes>
          <leafValues>
            6.9340747594833374e-01 -1.2864451110363007e-01</leafValues></_>
        <_>
          <internalNodes>
            0 -1 275 -4.2988249333575368e-04</internalNodes>
          <leafValues>
            3.7529757618904114e-01 -2.1780796349048615e-01</leafValues></_>
        <_>
          <internalNodes>
            0 -1 120 -3.3833540510386229e-04</internalNodes>
          <leafValues>
            3.5167887806892395e-01 -2.4737878143787384e-01</leafValues></_>
        <_>
          <internalNodes>
            0 -1 106 2.0107004791498184e-02</internalNodes>
          <leafValues>
            8.7405391037464142e-02 -8.9652186632156372e-01</leafValues></_>
        <_>
          <internalNodes>
            0 -1 316 -3.5391928395256400e-04</internalNodes>
          <leafValues>
            4.4608888030052185e-01 -1.8800611793994904e-01</leafValues></_>
        <_>
          <internalNodes>
            0 -1 0 -1.2962738983333111e-03</internalNodes>
          <leafValues>
            -5.1828062534332275e-01 1.4838659763336182e-01</leafValues></_></weakClassifiers></_>
    <!-- stage 5 -->
    <_>
      <maxWeakCount>21</maxWeakCount>
      <stageThreshold>-1.6356443166732788e+00</stageThreshold>
      <weakClassifiers>
        <_>
          <internalNodes>
            0 -1 14 -1.6343379393219948e-02</internalNodes>
          <leafValues>
            -7.2120785713195801e-01 5.6828194856643677e-01</leafValues></_>
        <_>
          <internalNodes>
            0 -1 246 -4.1174355894327164e-02</internalNodes>
          <leafValues>
            3.2905021309852600e-01 -5.2365505695343018e-01</leafValues></_>
        <_>
          <internalNodes>
            0 -1 340 -1.4291303232312202e-03</internalNodes>
          <leafValues>
            4.9800807237625122e-01 -2.3747591674327850e-01</leafValues></_>
        <_>
          <internalNodes>
            0 -1 321 1.4174137264490128e-02</internalNodes>
          <leafValues>
            -1.2372120469808578e-01 7.3464715480804443e-01</leafValues></_>
        <_>
          <internalNodes>
            0 -1 3 4.8175621032714844e-01</internalNodes>
          <leafValues>
            -1.6801574826240540e-01 5.1000195741653442e-01</leafValues></_>
        <_>
          <internalNodes>
            0 -1 7 -6.6627224441617727e-05</internalNodes>
          <leafValues>
            -4.7284913063049316e-01 1.9449266791343689e-01</leafValues></_>
        <_>
          <internalNodes>
            0 -1 187 2.7922687586396933e-03</internalNodes>
          <leafValues>
            1.4296004176139832e-01 -8.1469905376434326e-01</leafValues></_>
        <_>
          <internalNodes>
            0 -1 128 -1.5730890445411205e-03</internalNodes>
          <leafValues>
            3.0518454313278198e-01 -3.3539438247680664e-01</leafValues></_>
        <_>
          <internalNodes>
            0 -1 304 -2.3990266025066376e-02</internalNodes>
          <leafValues>
            5.7870769500732422e-01 -1.4229016005992889e-01</leafValues></_>
        <_>
          <internalNodes>
            0 -1 234 -1.4545741677284241e-01</internalNodes>
          <leafValues>
            -4.8399969935417175e-01 1.9848132133483887e-01</leafValues></_>
        <_>
          <internalNodes>
            0 -1 317 -6.0470271855592728e-03</internalNodes>
          <leafValues>
            3.9966025948524475e-01 -2.2179593145847321e-01</leafValues></_>
        <_>
          <internalNodes>
            0 -1 69 8.4432475268840790e-03</internalNodes>
          <leafValues>
            -1.3955774903297424e-01 6.0875105857849121e-01</leafValues></_>
        <_>
          <internalNodes>
            0 -1 109 -4.2467378079891205e-04</internalNodes>
          <leafValues>
            -6.5003883838653564e-01 1.4806787669658661e-01</leafValues></_>
        <_>
          <internalNodes>
            0 -1 83 2.0166933536529541e-01</internalNodes>
          <leafValues>
            6.9625273346900940e-02 -9.3760722875595093e-01</leafValues></_>
        <_>
          <internalNodes>
            0 -1 25 -3.7676834035664797e-03</internalNodes>
          <leafValues>
            3.9679563045501709e-01 -2.3551744222640991e-01</leafValues></_>
        <_>
          <internalNodes>
            0 -1 94 -1.0158360004425049e-02</internalNodes>
          <leafValues>
            4.3593874573707581e-01 -1.9021609425544739e-01</leafValues></_>
        <_>
          <internalNodes>
            0 -1 249 -8.4638297557830811e-03</internalNodes>
          <leafValues>
            4.3689388036727905e-01 -1.8714345991611481e-01</leafValues></_>
        <_>
          <internalNodes>
            0 -1 195 1.3880091719329357e-02</internalNodes>
          <leafValues>
            -1.0564268380403519e-01 8.1460648775100708e-01</leafValues></_>
        <_>
          <internalNodes>
            0 -1 24 1.0811269283294678e-02</internalNodes>
          <leafValues>
            -2.4181158840656281e-01 3.3877575397491455e-01</leafValues></_>
        <_>
          <internalNodes>
            0 -1 225 9.3029923737049103e-03</internalNodes>
          <leafValues>
            9.3362353742122650e-02 -9.7493362426757813e-01</leafValues></_>
        <_>
          <internalNodes>
            0 -1 11 -4.1620627045631409e-02</internalNodes>
          <leafValues>
            4.6244531869888306e-01 -1.7798733711242676e-01</leafValues></_></weakClassifiers></_>
    <!-- stage 6 -->
    <_>
      <maxWeakCount>17</maxWeakCount>
      <stageThreshold>-1.7371829748153687e+00</stageThreshold>
      <weakClassifiers>
        <_>
          <internalNodes>
            0 -1 324 -1.0513314977288246e-02</internalNodes>
          <leafValues>
            -8.0130922794342041e-01 3.2635983824729919e-01</leafValues></_>
        <_>
          <internalNodes>
            0 -1 139 -5.4734796285629272e-03</internalNodes>
          <leafValues>
            3.4803605079650879e-01 -4.4088339805603027e-01</leafValues></_>
        <_>
          <internalNodes>
            0 -1 164 5.7555288076400757e-03</internalNodes>
          <leafValues>
            1.6054597496986389e-01 -7.1464693546295166e-01</leafValues></_>
        <_>
          <internalNodes>
            0 -1 110 3.2386514358222485e-03</internalNodes>
          <leafValues>
            1.8269085884094238e-01 -5.5530989170074463e-01</leafValues></_>
        <_>
          <internalNodes>
            0 -1 77 -6.3337810570374131e-04</internalNodes>
          <leafValues>
            -6.9504213333129883e-01 1.4238187670707703e-01</leafValues></_>
        <_>
          <internalNodes>
            0 -1 264 -1.0304949246346951e-02</internalNodes>
          <leafValues>
            -4.5307940244674683e-01 2.0811563730239868e-01</leafValues></_>
        <_>
          <internalNodes>
            0 -1 9 1.8096709391102195e-04</internalNodes>
          <leafValues>
            1.4808344841003418e-01 -5.8311265707015991e-01</leafValues></_>
        <_>
          <internalNodes>
            0 -1 191 -6.1559514142572880e-04</internalNodes>
          <leafValues>
            -5.9783583879470825e-01 1.4537568390369415e-01</leafValues></_>
        <_>
          <internalNodes>
            0 -1 113 -2.7105128392577171e-03</internalNodes>
          <leafValues>
            4.6719536185264587e-01 -2.0683801174163818e-01</leafValues></_>
        <_>
          <internalNodes>
            0 -1 36 9.6914276946336031e-04</internalNodes>
          <leafValues>
            1.3071978092193604e-01 -7.1610748767852783e-01</leafValues></_>
        <_>
          <internalNodes>
            0 -1 61 -2.3612100630998611e-02</internalNodes>
          <leafValues>
            -8.3723944425582886e-01 8.8318422436714172e-02</leafValues></_>
        <_>
          <internalNodes>
            0 -1 265 2.3475885391235352e-03</internalNodes>
          <leafValues>
            9.7979061305522919e-02 -7.5653272867202759e-01</leafValues></_>
        <_>
          <internalNodes>
            0 -1 129 3.7898346781730652e-03</internalNodes>
          <leafValues>
            -2.0167854428291321e-01 4.8660659790039063e-01</leafValues></_>
        <_>
          <internalNodes>
            0 -1 266 -2.7581334114074707e-02</internalNodes>
          <leafValues>
            -8.5156983137130737e-01 1.0720869153738022e-01</leafValues></_>
        <_>
          <internalNodes>
            0 -1 227 8.9948754757642746e-03</internalNodes>
          <leafValues>
            9.4878576695919037e-02 -7.2935760021209717e-01</leafValues></_>
        <_>
          <internalNodes>
            0 -1 152 1.2749793007969856e-02</internalNodes>
          <leafValues>
            -1.9901488721370697e-01 4.5395088195800781e-01</leafValues></_>
        <_>
          <internalNodes>
            0 -1 330 1.6335671534761786e-03</internalNodes>
          <leafValues>
            1.4263094961643219e-01 -6.3023203611373901e-01</leafValues></_></weakClassifiers></_>
    <!-- stage 7 -->
    <_>
      <maxWeakCount>20</maxWeakCount>
      <stageThreshold>-1.7105948925018311e+00</stageThreshold>
      <weakClassifiers>
        <_>
          <internalNodes>
            0 -1 47 6.6432453691959381e-02</internalNodes>
          <leafValues>
            -7.4818575382232666e-01 4.2946708202362061e-01</leafValues></_>
        <_>
          <internalNodes>
            0 -1 80 2.8096113819628954e-03</internalNodes>
          <leafValues>
            -3.9735433459281921e-01 3.4299698472023010e-01</leafValues></_>
        <_>
          <internalNodes>
            0 -1 34 1.4817952178418636e-03</internalNodes>
          <leafValues>
            3.0777350068092346e-01 -4.0861389040946960e-01</leafValues></_>
        <_>
          <internalNodes>
            0 -1 216 -1.3008177047595382e-03</internalNodes>
          <leafValues>
            2.7666521072387695e-01 -4.2258122563362122e-01</leafValues></_>
        <_>
          <internalNodes>
            0 -1 82 5.8994889259338379e-02</internalNodes>
          <leafValues>
            1.4717765152454376e-01 -6.4330524206161499e-01</leafValues></_>
        <_>
          <internalNodes>
            0 -1 8 5.9568725526332855e-02</internalNodes>
          <leafValues>
            -2.3213002085685730e-01 3.9254567027091980e-01</leafValues></_>
        <_>
          <internalNodes>
            0 -1 197 8.3278901875019073e-03</internalNodes>
          <leafValues>
            -8.3546333014965057e-02 9.2789149284362793e-01</leafValues></_>
        <_>
          <internalNodes>
            0 -1 102 1.5754565829411149e-03</internalNodes>
          <leafValues>
            -2.1303910017013550e-01 3.4668761491775513e-01</leafValues></_>
        <_>
          <internalNodes>
            0 -1 338 -3.8955523632466793e-04</internalNodes>
          <leafValues>
            4.5933428406715393e-01 -1.6573657095432281e-01</leafValues></_>
        <_>
          <internalNodes>
            0 -1 141 3.4640874946489930e-04</internalNodes>
          <leafValues>
            1.2333472073078156e-01 -6.0234659910202026e-01</leafValues></_>
        <_>
          <internalNodes>
            0 -1 262 1.2795762158930302e-03</internalNodes>
          <leafValues>
            -1.4278987050056458e-01 5.1476448774337769e-01</leafValues></_>
        <_>
          <internalNodes>
            0 -1 239 -7.1166665293276310e-04</internalNodes>
          <leafValues>
            5.1823681592941284e-01 -1.9921518862247467e-01</leafValues></_>
        <_>
          <internalNodes>
            0 -1 323 7.9376681242138147e-04</internalNodes>
          <leafValues>
            -1.5659984946250916e-01 4.1698348522186279e-01</leafValues></_>
        <_>
          <internalNodes>
            0 -1 86 1.3756785774603486e-03</internalNodes>
          <leafValues>
            -1.8140406906604767e-01 3.5802772641181946e-01</leafValues></_>
        <_>
          <internalNodes>
            0 -1 158 7.1086674928665161e-02</internalNodes>
          <leafValues>
            -1.3750256597995758e-01 5.2752286195755005e-01</leafValues></_>
        <_>
          <internalNodes>
            0 -1 250 -9.1730765998363495e-03</internalNodes>
          <leafValues>
            5.7705819606781006e-01 -1.0007569193840027e-01</leafValues></_>
        <_>
          <internalNodes>
            0 -1 202 5.7814768515527248e-03</internalNodes>
          <leafValues>
            -1.5319633483886719e-01 4.6652278304100037e-01</leafValues></_>
        <_>
          <internalNodes>
            0 -1 230 -8.1329103559255600e-03</internalNodes>
          <leafValues>
            3.7256017327308655e-01 -1.8053010106086731e-01</leafValues></_>
        <_>
          <internalNodes>
            0 -1 168 1.2938329018652439e-03</internalNodes>
          <leafValues>
            -1.6123859584331512e-01 4.6267461776733398e-01</leafValues></_>
        <_>
          <internalNodes>
            0 -1 121 -1.6762312501668930e-02</internalNodes>
          <leafValues>
            -8.6456465721130371e-01 9.5083981752395630e-02</leafValues></_></weakClassifiers></_>
    <!-- stage 8 -->
    <_>
      <maxWeakCount>27</maxWeakCount>
      <stageThreshold>-1.5336648225784302e+00</stageThreshold>
      <weakClassifiers>
        <_>
          <internalNodes>
            0 -1 68 1.2998354434967041e-01</internalNodes>
          <leafValues>
            -8.1210476160049438e-01 -1.4750289916992188e-01</leafValues></_>
        <_>
          <internalNodes>
            0 -1 194 -2.0165568217635155e-02</internalNodes>
          <leafValues>
            1.2756642699241638e-01 -4.8900705575942993e-01</leafValues></_>
        <_>
          <internalNodes>
            0 -1 261 -3.6258719861507416e-02</internalNodes>
          <leafValues>
            7.0428472757339478e-01 -1.4832580089569092e-01</leafValues></_>
        <_>
          <internalNodes>
            0 -1 160 1.5891794115304947e-02</internalNodes>
          <leafValues>
            -2.0650945603847504e-01 5.0107210874557495e-01</leafValues></_>
        <_>
          <internalNodes>
            0 -1 137 -1.5125689096748829e-03</internalNodes>
          <leafValues>
            4.2633515596389771e-01 -1.6043680906295776e-01</leafValues></_>
        <_>
          <internalNodes>
            0 -1 199 1.3792327605187893e-02</internalNodes>
          <leafValues>
            -1.1585824191570282e-01 5.6434416770935059e-01</leafValues></_>
        <_>
          <internalNodes>
            0 -1 190 1.2258544564247131e-02</internalNodes>
          <leafValues>
            8.6719803512096405e-02 -8.7108057737350464e-01</leafValues></_>
        <_>
          <internalNodes>
            0 -1 63 -2.5434527196921408e-04</internalNodes>
          <leafValues>
            -5.1819026470184326e-01 1.4084814488887787e-01</leafValues></_>
        <_>
          <internalNodes>
            0 -1 78 -2.8390474617481232e-03</internalNodes>
          <leafValues>
            3.3261346817016602e-01 -2.1641401946544647e-01</leafValues></_>
        <_>
          <internalNodes>
            0 -1 334 8.5109466454014182e-04</internalNodes>
          <leafValues>
            -1.5831397473812103e-01 4.3459674715995789e-01</leafValues></_>
        <_>
          <internalNodes>
            0 -1 210 -1.5187282115221024e-03</internalNodes>
          <leafValues>
            -6.0521697998046875e-01 1.1495668441057205e-01</leafValues></_>
        <_>
          <internalNodes>
            0 -1 98 1.9344052672386169e-01</internalNodes>
          <leafValues>
            6.6210016608238220e-02 -9.3481761217117310e-01</leafValues></_>
        <_>
          <internalNodes>
            0 -1 314 -9.8891137167811394e-04</internalNodes>
          <leafValues>
            2.6723411679267883e-01 -2.3730890452861786e-01</leafValues></_>
        <_>
          <internalNodes>
            0 -1 233 -5.2825096063315868e-03</internalNodes>
          <leafValues>
            -5.6674730777740479e-01 1.1841613054275513e-01</leafValues></_>
        <_>
          <internalNodes>
            0 -1 96 2.1268565207719803e-02</internalNodes>
          <leafValues>
            5.7462971657514572e-02 -8.3505576848983765e-01</leafValues></_>
        <_>
          <internalNodes>
            0 -1 173 -5.7730227708816528e-03</internalNodes>
          <leafValues>
            3.7033724784851074e-01 -1.7208710312843323e-01</leafValues></_>
        <_>
          <internalNodes>
            0 -1 243 -6.6651735687628388e-04</internalNodes>
          <leafValues>
            -6.7086040973663330e-01 9.8557449877262115e-02</leafValues></_>
        <_>
          <internalNodes>
            0 -1 85 1.8466778565198183e-03</internalNodes>
          <leafValues>
            -1.3924130797386169e-01 4.3155294656753540e-01</leafValues></_>
        <_>
          <internalNodes>
            0 -1 53 -1.1662425094982609e-05</internalNodes>
          <leafValues>
            2.2264847159385681e-01 -3.0849504470825195e-01</leafValues></_>
        <_>
          <internalNodes>
            0 -1 277 1.1514935176819563e-03</internalNodes>
          <leafValues>
            1.3807399570941925e-01 -4.2664515972137451e-01</leafValues></_>
        <_>
          <internalNodes>
            0 -1 52 -3.1991183641366661e-04</internalNodes>
          <leafValues>
            -7.1397012472152710e-01 7.2162419557571411e-02</leafValues></_>
        <_>
          <internalNodes>
            0 -1 57 -1.2694781646132469e-02</internalNodes>
          <leafValues>
            2.9966950416564941e-01 -2.0140090584754944e-01</leafValues></_>
        <_>
          <internalNodes>
            0 -1 6 -3.1712716817855835e-01</internalNodes>
          <leafValues>
            -7.9837042093276978e-01 7.4836142361164093e-02</leafValues></_>
        <_>
          <internalNodes>
            0 -1 296 -8.0821273149922490e-04</internalNodes>
          <leafValues>
            3.5983976721763611e-01 -1.7576883733272552e-01</leafValues></_>
        <_>
          <internalNodes>
            0 -1 287 1.8493838142603636e-03</internalNodes>
          <leafValues>
            -1.5613497793674469e-01 4.6414163708686829e-01</leafValues></_>
        <_>
          <internalNodes>
            0 -1 285 -7.8778131864964962e-04</internalNodes>
          <leafValues>
            -6.3266837596893311e-01 1.0822945833206177e-01</leafValues></_>
        <_>
          <internalNodes>
            0 -1 279 -1.3298994417709764e-05</internalNodes>
          <leafValues>
            1.2957145273685455e-01 -4.2037722468376160e-01</leafValues></_></weakClassifiers></_>
    <!-- stage 9 -->
    <_>
      <maxWeakCount>32</maxWeakCount>
      <stageThreshold>-1.5486072301864624e+00</stageThreshold>
      <weakClassifiers>
        <_>
          <internalNodes>
            0 -1 2 5.0434291362762451e-01</internalNodes>
          <leafValues>
            -7.6684582233428955e-01 -1.0670731961727142e-01</leafValues></_>
        <_>
          <internalNodes>
            0 -1 148 5.0581991672515869e-03</internalNodes>
          <leafValues>
            -3.8451871275901794e-01 2.3766213655471802e-01</leafValues></_>
        <_>
          <internalNodes>
            0 -1 297 -2.0596017129719257e-03</internalNodes>
          <leafValues>
            4.3860533833503723e-01 -1.8695628643035889e-01</leafValues></_>
        <_>
          <internalNodes>
            0 -1 270 -1.9214440137147903e-02</internalNodes>
          <leafValues>
            6.9239813089370728e-01 -1.0259986668825150e-01</leafValues></_>
        <_>
          <internalNodes>
            0 -1 196 -5.0938811909873039e-05</internalNodes>
          <leafValues>
            1.9135165214538574e-01 -4.4193840026855469e-01</leafValues></_>
        <_>
          <internalNodes>
            0 -1 181 8.3679873496294022e-03</internalNodes>
          <leafValues>
            -1.0321144014596939e-01 4.7885447740554810e-01</leafValues></_>
        <_>
          <internalNodes>
            0 -1 177 4.5026997104287148e-03</internalNodes>
          <leafValues>
            -1.6132953763008118e-01 4.7595402598381042e-01</leafValues></_>
        <_>
          <internalNodes>
            0 -1 295 -4.6241439878940582e-02</internalNodes>
          <leafValues>
            -7.5090587139129639e-01 9.7002699971199036e-02</leafValues></_>
        <_>
          <internalNodes>
            0 -1 333 -9.3784648925065994e-03</internalNodes>
          <leafValues>
            4.6855247020721436e-01 -1.6352404654026031e-01</leafValues></_>
        <_>
          <internalNodes>
            0 -1 256 4.0592378936707973e-03</internalNodes>
          <leafValues>
            1.2421992421150208e-01 -5.4646563529968262e-01</leafValues></_>
        <_>
          <internalNodes>
            0 -1 1 -3.4422926604747772e-02</internalNodes>
          <leafValues>
            -6.0263949632644653e-01 1.0123105347156525e-01</leafValues></_>
        <_>
          <internalNodes>
            0 -1 131 -1.9961293786764145e-02</internalNodes>
          <leafValues>
            5.9781163930892944e-01 -1.1887167394161224e-01</leafValues></_>
        <_>
          <internalNodes>
            0 -1 5 4.9898959696292877e-03</internalNodes>
          <leafValues>
            1.4219249784946442e-01 -4.5375624299049377e-01</leafValues></_>
        <_>
          <internalNodes>
            0 -1 188 2.2004542406648397e-03</internalNodes>
          <leafValues>
            5.4861512035131454e-02 -8.9719700813293457e-01</leafValues></_>
        <_>
          <internalNodes>
            0 -1 255 -1.6480894386768341e-01</internalNodes>
          <leafValues>
            -4.1497784852981567e-01 1.1911883205175400e-01</leafValues></_>
        <_>
          <internalNodes>
            0 -1 245 9.4170565716922283e-04</internalNodes>
          <leafValues>
            -1.5741920471191406e-01 4.0245008468627930e-01</leafValues></_>
        <_>
          <internalNodes>
            0 -1 155 -1.4199292287230492e-02</internalNodes>
          <leafValues>
            -5.2695864439010620e-01 1.1428471654653549e-01</leafValues></_>
        <_>
          <internalNodes>
            0 -1 4 -7.5562745332717896e-03</internalNodes>
          <leafValues>
            2.6726329326629639e-01 -1.9732345640659332e-01</leafValues></_>
        <_>
          <internalNodes>
            0 -1 26 5.4775094613432884e-03</internalNodes>
          <leafValues>
            -2.8820595145225525e-01 2.0964695513248444e-01</leafValues></_>
        <_>
          <internalNodes>
            0 -1 17 -1.5967162325978279e-02</internalNodes>
          <leafValues>
            6.6941750049591064e-01 -8.6544632911682129e-02</leafValues></_>
        <_>
          <internalNodes>
            0 -1 51 2.0127403549849987e-03</internalNodes>
          <leafValues>
            1.1920622736215591e-01 -5.9265881776809692e-01</leafValues></_>
        <_>
          <internalNodes>
            0 -1 217 -1.7547691240906715e-03</internalNodes>
          <leafValues>
            2.7560794353485107e-01 -2.3535877466201782e-01</leafValues></_>
        <_>
          <internalNodes>
            0 -1 111 -6.1699729412794113e-03</internalNodes>
          <leafValues>
            5.4743254184722900e-01 -1.2215314805507660e-01</leafValues></_>
        <_>
          <internalNodes>
            0 -1 205 8.1419683992862701e-03</internalNodes>
          <leafValues>
            -1.6419343650341034e-01 3.3554920554161072e-01</leafValues></_>
        <_>
          <internalNodes>
            0 -1 205 -1.0023749433457851e-02</internalNodes>
          <leafValues>
            4.2021328210830688e-01 -1.2697231769561768e-01</leafValues></_>
        <_>
          <internalNodes>
            0 -1 335 1.0363924317061901e-02</internalNodes>
          <leafValues>
            1.0133829712867737e-01 -5.4001498222351074e-01</leafValues></_>
        <_>
          <internalNodes>
            0 -1 305 -3.9568580687046051e-03</internalNodes>
          <leafValues>
            2.4087634682655334e-01 -2.5370594859123230e-01</leafValues></_>
        <_>
          <internalNodes>
            0 -1 251 1.0282680392265320e-01</internalNodes>
          <leafValues>
            -1.1591014266014099e-01 6.0325181484222412e-01</leafValues></_>
        <_>
          <internalNodes>
            0 -1 76 -2.1310470765456557e-04</internalNodes>
          <leafValues>
            -4.7440344095230103e-01 1.1999862641096115e-01</leafValues></_>
        <_>
          <internalNodes>
            0 -1 74 -2.6133682695217431e-05</internalNodes>
          <leafValues>
            2.0233744382858276e-01 -2.8227633237838745e-01</leafValues></_>
        <_>
          <internalNodes>
            0 -1 326 4.4529995648190379e-04</internalNodes>
          <leafValues>
            -1.7871116101741791e-01 3.1312012672424316e-01</leafValues></_>
        <_>
          <internalNodes>
            0 -1 42 -3.1173396855592728e-03</internalNodes>
          <leafValues>
            4.0282487869262695e-01 -1.3817110657691956e-01</leafValues></_></weakClassifiers></_>
    <!-- stage 10 -->
    <_>
      <maxWeakCount>31</maxWeakCount>
      <stageThreshold>-1.4980779886245728e+00</stageThreshold>
      <weakClassifiers>
        <_>
          <internalNodes>
            0 -1 43 1.0154094547033310e-01</internalNodes>
          <leafValues>
            -7.5491946935653687e-01 -2.8247913718223572e-01</leafValues></_>
        <_>
          <internalNodes>
            0 -1 274 -2.2846087813377380e-02</internalNodes>
          <leafValues>
            1.2207510322332382e-01 -4.4388327002525330e-01</leafValues></_>
        <_>
          <internalNodes>
            0 -1 329 -1.1478159576654434e-03</internalNodes>
          <leafValues>
            4.6360331773757935e-01 -1.5713118016719818e-01</leafValues></_>
        <_>
          <internalNodes>
            0 -1 118 1.8807098269462585e-01</internalNodes>
          <leafValues>
            8.2427553832530975e-02 -7.3215818405151367e-01</leafValues></_>
        <_>
          <internalNodes>
            0 -1 81 3.4230190515518188e-01</internalNodes>
          <leafValues>
            -1.8026132881641388e-01 3.4709823131561279e-01</leafValues></_>
        <_>
          <internalNodes>
            0 -1 12 -8.8575720787048340e-02</internalNodes>
          <leafValues>
            5.8758509159088135e-01 -1.2594249844551086e-01</leafValues></_>
        <_>
          <internalNodes>
            0 -1 169 -1.5152975684031844e-03</internalNodes>
          <leafValues>
            4.1350579261779785e-01 -1.5498192608356476e-01</leafValues></_>
        <_>
          <internalNodes>
            0 -1 143 -9.6807852387428284e-03</internalNodes>
          <leafValues>
            -9.8262637853622437e-01 5.9253212064504623e-02</leafValues></_>
        <_>
          <internalNodes>
            0 -1 138 6.4301374368369579e-04</internalNodes>
          <leafValues>
            -1.8090839684009552e-01 2.9918980598449707e-01</leafValues></_>
        <_>
          <internalNodes>
            0 -1 223 -4.0654413402080536e-02</internalNodes>
          <leafValues>
            6.1702841520309448e-01 -6.5454021096229553e-02</leafValues></_>
        <_>
          <internalNodes>
            0 -1 65 3.1890319660305977e-03</internalNodes>
          <leafValues>
            -9.8075814545154572e-02 7.3868161439895630e-01</leafValues></_>
        <_>
          <internalNodes>
            0 -1 322 2.0003905519843102e-03</internalNodes>
          <leafValues>
            -2.5965777039527893e-01 2.5231057405471802e-01</leafValues></_>
        <_>
          <internalNodes>
            0 -1 288 1.5383129939436913e-02</internalNodes>
          <leafValues>
            -1.2036722153425217e-01 4.7453740239143372e-01</leafValues></_>
        <_>
          <internalNodes>
            0 -1 247 -1.5765007585287094e-02</internalNodes>
          <leafValues>
            1.9890925288200378e-01 -2.8017073869705200e-01</leafValues></_>
        <_>
          <internalNodes>
            0 -1 75 1.0506596299819648e-04</internalNodes>
          <leafValues>
            1.4023195207118988e-01 -4.4713422656059265e-01</leafValues></_>
        <_>
          <internalNodes>
            0 -1 32 -2.0537870004773140e-03</internalNodes>
          <leafValues>
            2.9634612798690796e-01 -1.8635910749435425e-01</leafValues></_>
        <_>
          <internalNodes>
            0 -1 315 -1.2864553718827665e-04</internalNodes>
          <leafValues>
            -3.2939645648002625e-01 1.6368649899959564e-01</leafValues></_>
        <_>
          <internalNodes>
            0 -1 201 -1.4959089457988739e-01</internalNodes>
          <leafValues>
            8.7687879800796509e-02 -5.9857791662216187e-01</leafValues></_>
        <_>
          <internalNodes>
            0 -1 316 -6.6773581784218550e-04</internalNodes>
          <leafValues>
            4.0689897537231445e-01 -1.3830921053886414e-01</leafValues></_>
        <_>
          <internalNodes>
            0 -1 206 5.7292426936328411e-04</internalNodes>
          <leafValues>
            -1.8374951183795929e-01 2.7085012197494507e-01</leafValues></_>
        <_>
          <internalNodes>
            0 -1 144 -8.1076205242425203e-04</internalNodes>
          <leafValues>
            -8.4448820352554321e-01 6.2763795256614685e-02</leafValues></_>
        <_>
          <internalNodes>
            0 -1 153 1.5346808359026909e-03</internalNodes>
          <leafValues>
            -1.9934576749801636e-01 2.7281454205513000e-01</leafValues></_>
        <_>
          <internalNodes>
            0 -1 104 -3.0021380633115768e-02</internalNodes>
          <leafValues>
            -7.6280331611633301e-01 6.6420964896678925e-02</leafValues></_>
        <_>
          <internalNodes>
            0 -1 60 1.3033470138907433e-02</internalNodes>
          <leafValues>
            -1.6460227966308594e-01 3.2859203219413757e-01</leafValues></_>
        <_>
          <internalNodes>
            0 -1 23 -7.6579517917707562e-04</internalNodes>
          <leafValues>
            2.3593169450759888e-01 -2.4160572886466980e-01</leafValues></_>
        <_>
          <internalNodes>
            0 -1 33 -3.1215773196890950e-04</internalNodes>
          <leafValues>
            -7.3586535453796387e-01 7.5942374765872955e-02</leafValues></_>
        <_>
          <internalNodes>
            0 -1 271 3.7178155034780502e-03</internalNodes>
          <leafValues>
            5.4842725396156311e-02 -7.5992685556411743e-01</leafValues></_>
        <_>
          <internalNodes>
            0 -1 308 -5.8152532437816262e-04</internalNodes>
          <leafValues>
            4.3008640408515930e-01 -1.2760595977306366e-01</leafValues></_>
        <_>
          <internalNodes>
            0 -1 41 3.0794786289334297e-04</internalNodes>
          <leafValues>
            1.2570255994796753e-01 -4.1631123423576355e-01</leafValues></_>
        <_>
          <internalNodes>
            0 -1 237 -7.8715686686336994e-04</internalNodes>
          <leafValues>
            3.0507487058639526e-01 -1.5802241861820221e-01</leafValues></_>
        <_>
          <internalNodes>
            0 -1 208 -3.5571893677115440e-03</internalNodes>
          <leafValues>
            3.9022797346115112e-01 -1.2762081623077393e-01</leafValues></_></weakClassifiers></_>
    <!-- stage 11 -->
    <_>
      <maxWeakCount>30</maxWeakCount>
      <stageThreshold>-1.5290228128433228e+00</stageThreshold>
      <weakClassifiers>
        <_>
          <internalNodes>
            0 -1 134 -3.7854962050914764e-02</internalNodes>
          <leafValues>
            -2.6767092943191528e-01 -7.6582276821136475e-01</leafValues></_>
        <_>
          <internalNodes>
            0 -1 114 3.0632868874818087e-03</internalNodes>
          <leafValues>
            -3.4615844488143921e-01 2.7728235721588135e-01</leafValues></_>
        <_>
          <internalNodes>
            0 -1 212 6.4902268350124359e-03</internalNodes>
          <leafValues>
            1.0490293055772781e-01 -7.0674967765808105e-01</leafValues></_>
        <_>
          <internalNodes>
            0 -1 100 1.0833705775439739e-02</internalNodes>
          <leafValues>
            1.8222585320472717e-01 -3.9666652679443359e-01</leafValues></_>
        <_>
          <internalNodes>
            0 -1 167 2.6437651831656694e-03</internalNodes>
          <leafValues>
            -1.2482149153947830e-01 5.4947215318679810e-01</leafValues></_>
        <_>
          <internalNodes>
            0 -1 10 -4.8896670341491699e-04</internalNodes>
          <leafValues>
            -4.9750995635986328e-01 1.3811008632183075e-01</leafValues></_>
        <_>
          <internalNodes>
            0 -1 145 -1.7883533146232367e-03</internalNodes>
          <leafValues>
            1.9945234060287476e-01 -2.8681099414825439e-01</leafValues></_>
        <_>
          <internalNodes>
            0 -1 132 -7.0811063051223755e-02</internalNodes>
          <leafValues>
            -5.0317329168319702e-01 1.1813829839229584e-01</leafValues></_>
        <_>
          <internalNodes>
            0 -1 175 1.2889065779745579e-02</internalNodes>
          <leafValues>
            -1.2270457297563553e-01 5.1426380872726440e-01</leafValues></_>
        <_>
          <internalNodes>
            0 -1 337 5.7753538712859154e-03</internalNodes>
          <leafValues>
            -1.3739535212516785e-01 4.0363895893096924e-01</leafValues></_>
        <_>
          <internalNodes>
            0 -1 298 -9.8063517361879349e-04</internalNodes>
          <leafValues>
            -4.0803498029708862e-01 1.4385716617107391e-01</leafValues></_>
        <_>
          <internalNodes>
            0 -1 140 1.4377991901710629e-03</internalNodes>
          <leafValues>
            8.1149391829967499e-02 -7.1008402109146118e-01</leafValues></_>
        <_>
          <internalNodes>
            0 -1 254 1.8518971279263496e-02</internalNodes>
          <leafValues>
            9.5733582973480225e-02 -5.7678139209747314e-01</leafValues></_>
        <_>
          <internalNodes>
            0 -1 221 -4.1368812322616577e-02</internalNodes>
          <leafValues>
            -4.6770334243774414e-01 1.0255905240774155e-01</leafValues></_>
        <_>
          <internalNodes>
            0 -1 64 -5.0974212586879730e-02</internalNodes>
          <leafValues>
            -8.6982470750808716e-01 5.2524350583553314e-02</leafValues></_>
        <_>
          <internalNodes>
            0 -1 209 2.1050252020359039e-02</internalNodes>
          <leafValues>
            -9.9039614200592041e-02 6.0903841257095337e-01</leafValues></_>
        <_>
          <internalNodes>
            0 -1 19 -2.2540405392646790e-02</internalNodes>
          <leafValues>
            4.8861494660377502e-01 -1.0084392130374908e-01</leafValues></_>
        <_>
          <internalNodes>
            0 -1 45 8.6560491472482681e-03</internalNodes>
          <leafValues>
            -3.1154772639274597e-01 2.2661469876766205e-01</leafValues></_>
        <_>
          <internalNodes>
            0 -1 185 -6.4198800828307867e-04</internalNodes>
          <leafValues>
            3.1891715526580811e-01 -1.5746602416038513e-01</leafValues></_>
        <_>
          <internalNodes>
            0 -1 290 -1.2376992963254452e-03</internalNodes>
          <leafValues>
            4.7526356577873230e-01 -1.0488626360893250e-01</leafValues></_>
        <_>
          <internalNodes>
            0 -1 31 3.5969619639217854e-03</internalNodes>
          <leafValues>
            8.1712156534194946e-02 -6.3597208261489868e-01</leafValues></_>
        <_>
          <internalNodes>
            0 -1 319 -2.8447322547435760e-02</internalNodes>
          <leafValues>
            3.0366742610931396e-01 -1.7582523822784424e-01</leafValues></_>
        <_>
          <internalNodes>
            0 -1 276 -5.7306484086439013e-04</internalNodes>
          <leafValues>
            -3.7778508663177490e-01 1.5382619202136993e-01</leafValues></_>
        <_>
          <internalNodes>
            0 -1 309 4.6046444913372397e-04</internalNodes>
          <leafValues>
            -1.0295582562685013e-01 5.1753896474838257e-01</leafValues></_>
        <_>
          <internalNodes>
            0 -1 103 -2.4103472009301186e-02</internalNodes>
          <leafValues>
            -1. 5.7697370648384094e-02</leafValues></_>
        <_>
          <internalNodes>
            0 -1 278 -1.6270559281110764e-03</internalNodes>
          <leafValues>
            -6.9387298822402954e-01 5.3101815283298492e-02</leafValues></_>
        <_>
          <internalNodes>
            0 -1 200 -1.0768380761146545e-01</internalNodes>
          <leafValues>
            5.9249598532915115e-02 -7.0689475536346436e-01</leafValues></_>
        <_>
          <internalNodes>
            0 -1 184 -1.0507361002964899e-04</internalNodes>
          <leafValues>
            2.4850092828273773e-01 -2.0552399754524231e-01</leafValues></_>
        <_>
          <internalNodes>
            0 -1 258 4.3175499886274338e-03</internalNodes>
          <leafValues>
            7.6153188943862915e-02 -6.3653832674026489e-01</leafValues></_>
        <_>
          <internalNodes>
            0 -1 236 -2.1498473361134529e-03</internalNodes>
          <leafValues>
            4.0191715955734253e-01 -1.3776984810829163e-01</leafValues></_></weakClassifiers></_>
    <!-- stage 12 -->
    <_>
      <maxWeakCount>32</maxWeakCount>
      <stageThreshold>-1.5003452301025391e+00</stageThreshold>
      <weakClassifiers>
        <_>
          <internalNodes>
            0 -1 46 5.8310925960540771e-02</internalNodes>
          <leafValues>
            -7.3966437578201294e-01 -1.8670886754989624e-01</leafValues></_>
        <_>
          <internalNodes>
            0 -1 58 -2.5134168565273285e-02</internalNodes>
          <leafValues>
            2.6269504427909851e-01 -3.5920605063438416e-01</leafValues></_>
        <_>
          <internalNodes>
            0 -1 268 4.2304266244173050e-03</internalNodes>
          <leafValues>
            -1.8898667395114899e-01 3.4320956468582153e-01</leafValues></_>
        <_>
          <internalNodes>
            0 -1 332 -2.3960483667906374e-04</internalNodes>
          <leafValues>
            -4.6931418776512146e-01 1.3981829583644867e-01</leafValues></_>
        <_>
          <internalNodes>
            0 -1 70 -5.1629960536956787e-02</internalNodes>
          <leafValues>
            2.8044566512107849e-01 -1.9886565208435059e-01</leafValues></_>
        <_>
          <internalNodes>
            0 -1 28 1.5781613765284419e-03</internalNodes>
          <leafValues>
            -1.3341246545314789e-01 4.1372448205947876e-01</leafValues></_>
        <_>
          <internalNodes>
            0 -1 88 -6.5760849975049496e-04</internalNodes>
          <leafValues>
            -7.8834462165832520e-01 7.8332640230655670e-02</leafValues></_>
        <_>
          <internalNodes>
            0 -1 147 -3.9691325277090073e-02</internalNodes>
          <leafValues>
            5.0912296772003174e-01 -1.3793617486953735e-01</leafValues></_>
        <_>
          <internalNodes>
            0 -1 101 3.0710676219314337e-04</internalNodes>
          <leafValues>
            -7.8819327056407928e-02 6.9345283508300781e-01</leafValues></_>
        <_>
          <internalNodes>
            0 -1 115 -1.0264670476317406e-02</internalNodes>
          <leafValues>
            5.3821557760238647e-01 -8.9051388204097748e-02</leafValues></_>
        <_>
          <internalNodes>
            0 -1 232 -2.1419376134872437e-03</internalNodes>
          <leafValues>
            -4.2384380102157593e-01 1.1516767740249634e-01</leafValues></_>
        <_>
          <internalNodes>
            0 -1 198 -5.9673272073268890e-02</internalNodes>
          <leafValues>
            3.6547023057937622e-01 -1.5773575007915497e-01</leafValues></_>
        <_>
          <internalNodes>
            0 -1 79 -2.7466772589832544e-03</internalNodes>
          <leafValues>
            3.3829474449157715e-01 -1.5690885484218597e-01</leafValues></_>
        <_>
          <internalNodes>
            0 -1 95 3.6718375980854034e-02</internalNodes>
          <leafValues>
            8.5212655365467072e-02 -6.2158119678497314e-01</leafValues></_>
        <_>
          <internalNodes>
            0 -1 40 1.8752705305814743e-02</internalNodes>
          <leafValues>
            -1.3077947497367859e-01 4.2469683289527893e-01</leafValues></_>
        <_>
          <internalNodes>
            0 -1 59 -1.0703478008508682e-01</internalNodes>
          <leafValues>
            -7.6747435331344604e-01 6.3666909933090210e-02</leafValues></_>
        <_>
          <internalNodes>
            0 -1 328 6.0255161952227354e-04</internalNodes>
          <leafValues>
            -1.3107091188430786e-01 3.9490973949432373e-01</leafValues></_>
        <_>
          <internalNodes>
            0 -1 214 5.5467139463871717e-04</internalNodes>
          <leafValues>
            8.0801904201507568e-02 -5.6768399477005005e-01</leafValues></_>
        <_>
          <internalNodes>
            0 -1 97 2.0432518422603607e-01</internalNodes>
          <leafValues>
            5.0959609448909760e-02 -8.3849966526031494e-01</leafValues></_>
        <_>
          <internalNodes>
            0 -1 39 1.2358676642179489e-02</internalNodes>
          <leafValues>
            6.0594934970140457e-02 -6.0573697090148926e-01</leafValues></_>
        <_>
          <internalNodes>
            0 -1 273 -2.3182205855846405e-02</internalNodes>
          <leafValues>
            -7.3018056154251099e-01 5.4720595479011536e-02</leafValues></_>
        <_>
          <internalNodes>
            0 -1 183 1.2482868134975433e-01</internalNodes>
          <leafValues>
            -9.7287133336067200e-02 6.2270617485046387e-01</leafValues></_>
        <_>
          <internalNodes>
            0 -1 260 -2.9037048807367682e-04</internalNodes>
          <leafValues>
            1.8796874582767487e-01 -2.9470354318618774e-01</leafValues></_>
        <_>
          <internalNodes>
            0 -1 73 7.0166131481528282e-03</internalNodes>
          <leafValues>
            6.9820776581764221e-02 -5.9746497869491577e-01</leafValues></_>
        <_>
          <internalNodes>
            0 -1 213 -1.0324340546503663e-03</internalNodes>
          <leafValues>
            3.1587710976600647e-01 -1.5580263733863831e-01</leafValues></_>
        <_>
          <internalNodes>
            0 -1 240 -4.5571294613182545e-03</internalNodes>
          <leafValues>
            -3.9175432920455933e-01 1.2989972531795502e-01</leafValues></_>
        <_>
          <internalNodes>
            0 -1 303 -4.0360130369663239e-02</internalNodes>
          <leafValues>
            -1.0294949263334274e-01 5.3086930513381958e-01</leafValues></_>
        <_>
          <internalNodes>
            0 -1 124 -3.1047828961163759e-03</internalNodes>
          <leafValues>
            3.9708778262138367e-01 -1.2919746339321136e-01</leafValues></_>
        <_>
          <internalNodes>
            0 -1 242 2.3201668635010719e-02</internalNodes>
          <leafValues>
            5.8448724448680878e-02 -8.3864825963973999e-01</leafValues></_>
        <_>
          <internalNodes>
            0 -1 311 9.9066214170306921e-04</internalNodes>
          <leafValues>
            -1.3758708536624908e-01 3.6616444587707520e-01</leafValues></_>
        <_>
          <internalNodes>
            0 -1 50 -2.3970760230440646e-04</internalNodes>
          <leafValues>
            -6.9104832410812378e-01 6.7783549427986145e-02</leafValues></_>
        <_>
          <internalNodes>
            0 -1 29 -3.2687117345631123e-03</internalNodes>
          <leafValues>
            3.0223959684371948e-01 -1.6205704212188721e-01</leafValues></_></weakClassifiers></_>
    <!-- stage 13 -->
    <_>
      <maxWeakCount>32</maxWeakCount>
      <stageThreshold>-1.4291551113128662e+00</stageThreshold>
      <weakClassifiers>
        <_>
          <internalNodes>
            0 -1 13 2.9319232702255249e-01</internalNodes>
          <leafValues>
            -7.7433001995086670e-01 -2.9324895143508911e-01</leafValues></_>
        <_>
          <internalNodes>
            0 -1 125 -3.4699304960668087e-03</internalNodes>
          <leafValues>
            3.3808907866477966e-01 -2.9958325624465942e-01</leafValues></_>
        <_>
          <internalNodes>
            0 -1 174 5.2469759248197079e-03</internalNodes>
          <leafValues>
            1.4799723029136658e-01 -4.9792772531509399e-01</leafValues></_>
        <_>
          <internalNodes>
            0 -1 162 2.3372763826046139e-04</internalNodes>
          <leafValues>
            -2.8013247251510620e-01 2.5675585865974426e-01</leafValues></_>
        <_>
          <internalNodes>
            0 -1 342 1.0242182761430740e-02</internalNodes>
          <leafValues>
            1.2030835449695587e-01 -7.8028148412704468e-01</leafValues></_>
        <_>
          <internalNodes>
            0 -1 150 -1.1055145412683487e-02</internalNodes>
          <leafValues>
            3.5166895389556885e-01 -1.5104544162750244e-01</leafValues></_>
        <_>
          <internalNodes>
            0 -1 248 -7.3392072226852179e-04</internalNodes>
          <leafValues>
            2.4971559643745422e-01 -2.5440287590026855e-01</leafValues></_>
        <_>
          <internalNodes>
            0 -1 112 6.7996634170413017e-03</internalNodes>
          <leafValues>
            -7.5586386024951935e-02 8.0983722209930420e-01</leafValues></_>
        <_>
          <internalNodes>
            0 -1 222 1.2636052444577217e-02</internalNodes>
          <leafValues>
            -1.0849095880985260e-01 4.5514363050460815e-01</leafValues></_>
        <_>
          <internalNodes>
            0 -1 299 -6.3815549015998840e-02</internalNodes>
          <leafValues>
            6.3084059953689575e-01 -7.5346849858760834e-02</leafValues></_>
        <_>
          <internalNodes>
            0 -1 282 -4.0133446455001831e-02</internalNodes>
          <leafValues>
            2.1820691227912903e-01 -3.0439591407775879e-01</leafValues></_>
        <_>
          <internalNodes>
            0 -1 130 -3.6481076385825872e-03</internalNodes>
          <leafValues>
            4.8809579014778137e-01 -9.8123826086521149e-02</leafValues></_>
        <_>
          <internalNodes>
            0 -1 135 2.0655263960361481e-01</internalNodes>
          <leafValues>
            -7.2874553501605988e-02 6.6939359903335571e-01</leafValues></_>
        <_>
          <internalNodes>
            0 -1 207 5.4141553118824959e-03</internalNodes>
          <leafValues>
            -1.4148809015750885e-01 3.5966017842292786e-01</leafValues></_>
        <_>
          <internalNodes>
            0 -1 257 2.0515522919595242e-04</internalNodes>
          <leafValues>
            1.1937358230352402e-01 -4.0065184235572815e-01</leafValues></_>
        <_>
          <internalNodes>
            0 -1 119 2.4679978378117085e-03</internalNodes>
          <leafValues>
            -1.1760433763265610e-01 4.4124436378479004e-01</leafValues></_>
        <_>
          <internalNodes>
            0 -1 189 1.5449060127139091e-02</internalNodes>
          <leafValues>
            5.3517896682024002e-02 -9.1515898704528809e-01</leafValues></_>
        <_>
          <internalNodes>
            0 -1 28 -1.7739040777087212e-03</internalNodes>
          <leafValues>
            2.9136762022972107e-01 -1.7199124395847321e-01</leafValues></_>
        <_>
          <internalNodes>
            0 -1 292 -1.0617254301905632e-02</internalNodes>
          <leafValues>
            2.2539660334587097e-01 -2.1958307921886444e-01</leafValues></_>
        <_>
          <internalNodes>
            0 -1 241 -3.4538784530013800e-04</internalNodes>
          <leafValues>
            3.0714145302772522e-01 -1.7588937282562256e-01</leafValues></_>
        <_>
          <internalNodes>
            0 -1 87 -2.3409768939018250e-02</internalNodes>
          <leafValues>
            -8.8918417692184448e-01 4.9469906836748123e-02</leafValues></_>
        <_>
          <internalNodes>
            0 -1 107 1.2065561022609472e-03</internalNodes>
          <leafValues>
            -1.4376397430896759e-01 3.4578213095664978e-01</leafValues></_>
        <_>
          <internalNodes>
            0 -1 122 -1.9791391678154469e-03</internalNodes>
          <leafValues>
            3.2355585694313049e-01 -1.4697109162807465e-01</leafValues></_>
        <_>
          <internalNodes>
            0 -1 215 2.3952287156134844e-03</internalNodes>
          <leafValues>
            -1.1174869537353516e-01 4.1363453865051270e-01</leafValues></_>
        <_>
          <internalNodes>
            0 -1 166 2.9230598011054099e-04</internalNodes>
          <leafValues>
            1.0309446603059769e-01 -4.7984853386878967e-01</leafValues></_>
        <_>
          <internalNodes>
            0 -1 218 -1.0145747661590576e-01</internalNodes>
          <leafValues>
            4.2439863085746765e-02 -8.9708268642425537e-01</leafValues></_>
        <_>
          <internalNodes>
            0 -1 313 -6.3377589685842395e-04</internalNodes>
          <leafValues>
            -2.8227427601814270e-01 1.5575410425662994e-01</leafValues></_>
        <_>
          <internalNodes>
            0 -1 312 1.6757415141910315e-03</internalNodes>
          <leafValues>
            1.1836023628711700e-01 -4.2036300897598267e-01</leafValues></_>
        <_>
          <internalNodes>
            0 -1 72 -9.2821766156703234e-04</internalNodes>
          <leafValues>
            1.8353737890720367e-01 -2.4500313401222229e-01</leafValues></_>
        <_>
          <internalNodes>
            0 -1 22 -3.7555612623691559e-02</internalNodes>
          <leafValues>
            4.5907092094421387e-01 -1.0310699790716171e-01</leafValues></_>
        <_>
          <internalNodes>
            0 -1 18 2.4944923818111420e-02</internalNodes>
          <leafValues>
            -2.0839807391166687e-01 2.6211440563201904e-01</leafValues></_>
        <_>
          <internalNodes>
            0 -1 272 6.0631707310676575e-03</internalNodes>
          <leafValues>
            8.2364618778228760e-02 -5.9057348966598511e-01</leafValues></_></weakClassifiers></_>
    <!-- stage 14 -->
    <_>
      <maxWeakCount>38</maxWeakCount>
      <stageThreshold>-1.4813915491104126e+00</stageThreshold>
      <weakClassifiers>
        <_>
          <internalNodes>
            0 -1 149 2.5555884838104248e-01</internalNodes>
          <leafValues>
            -7.7140074968338013e-01 -3.3267909288406372e-01</leafValues></_>
        <_>
          <internalNodes>
            0 -1 341 -3.6016884259879589e-03</internalNodes>
          <leafValues>
            2.7693057060241699e-01 -3.1458383798599243e-01</leafValues></_>
        <_>
          <internalNodes>
            0 -1 159 -2.0748428069055080e-03</internalNodes>
          <leafValues>
            2.6693779230117798e-01 -2.3720443248748779e-01</leafValues></_>
        <_>
          <internalNodes>
            0 -1 224 -7.4375484837219119e-04</internalNodes>
          <leafValues>
            1.7211481928825378e-01 -3.3000251650810242e-01</leafValues></_>
        <_>
          <internalNodes>
            0 -1 204 1.0163623839616776e-02</internalNodes>
          <leafValues>
            -9.4559453427791595e-02 5.6772738695144653e-01</leafValues></_>
        <_>
          <internalNodes>
            0 -1 163 -1.6625572461634874e-03</internalNodes>
          <leafValues>
            -6.9792938232421875e-01 1.0333255678415298e-01</leafValues></_>
        <_>
          <internalNodes>
            0 -1 55 -1.7453275620937347e-02</internalNodes>
          <leafValues>
            2.5292056798934937e-01 -2.1380932629108429e-01</leafValues></_>
        <_>
          <internalNodes>
            0 -1 56 -2.4253637820947915e-04</internalNodes>
          <leafValues>
            -4.2139565944671631e-01 1.2258069217205048e-01</leafValues></_>
        <_>
          <internalNodes>
            0 -1 176 1.2209078297019005e-02</internalNodes>
          <leafValues>
            -1.4456066489219666e-01 3.9147552847862244e-01</leafValues></_>
        <_>
          <internalNodes>
            0 -1 178 1.7572604119777679e-02</internalNodes>
          <leafValues>
            -1.6294588148593903e-01 4.3014720082283020e-01</leafValues></_>
        <_>
          <internalNodes>
            0 -1 294 -1.5270565636456013e-03</internalNodes>
          <leafValues>
            3.5032391548156738e-01 -1.3496367633342743e-01</leafValues></_>
        <_>
          <internalNodes>
            0 -1 320 -1.4231149107217789e-03</internalNodes>
          <leafValues>
            4.0461680293083191e-01 -1.2416274100542068e-01</leafValues></_>
        <_>
          <internalNodes>
            0 -1 71 -4.3345481157302856e-02</internalNodes>
          <leafValues>
            -8.2593661546707153e-01 6.6227212548255920e-02</leafValues></_>
        <_>
          <internalNodes>
            0 -1 108 -2.7664803201332688e-04</internalNodes>
          <leafValues>
            -5.9836184978485107e-01 5.7929478585720062e-02</leafValues></_>
        <_>
          <internalNodes>
            0 -1 238 -5.6746148038655519e-04</internalNodes>
          <leafValues>
            4.5526894927024841e-01 -1.0394062846899033e-01</leafValues></_>
        <_>
          <internalNodes>
            0 -1 154 -2.7294326573610306e-02</internalNodes>
          <leafValues>
            -6.2548303604125977e-01 9.3799583613872528e-02</leafValues></_>
        <_>
          <internalNodes>
            0 -1 307 8.0999862402677536e-03</internalNodes>
          <leafValues>
            6.9075316190719604e-02 -6.1204677820205688e-01</leafValues></_>
        <_>
          <internalNodes>
            0 -1 228 8.0879975575953722e-04</internalNodes>
          <leafValues>
            -1.3498649001121521e-01 3.6985141038894653e-01</leafValues></_>
        <_>
          <internalNodes>
            0 -1 123 1.2141345068812370e-03</internalNodes>
          <leafValues>
            -1.3468734920024872e-01 4.4388824701309204e-01</leafValues></_>
        <_>
          <internalNodes>
            0 -1 193 -9.2313081026077271e-02</internalNodes>
          <leafValues>
            -8.9221602678298950e-01 5.7658698409795761e-02</leafValues></_>
        <_>
          <internalNodes>
            0 -1 327 -2.2553107701241970e-03</internalNodes>
          <leafValues>
            1.7684955894947052e-01 -2.4239796400070190e-01</leafValues></_>
        <_>
          <internalNodes>
            0 -1 27 -3.6486588418483734e-02</internalNodes>
          <leafValues>
            5.0664836168289185e-01 -1.0612167418003082e-01</leafValues></_>
        <_>
          <internalNodes>
            0 -1 92 -1.4154123142361641e-02</internalNodes>
          <leafValues>
            -5.9041702747344971e-01 8.8077694177627563e-02</leafValues></_>
        <_>
          <internalNodes>
            0 -1 171 -2.7712848968803883e-03</internalNodes>
          <leafValues>
            4.2485460638999939e-01 -1.2092161178588867e-01</leafValues></_>
        <_>
          <internalNodes>
            0 -1 267 1.0157816112041473e-02</internalNodes>
          <leafValues>
            -1.5348303318023682e-01 3.7339404225349426e-01</leafValues></_>
        <_>
          <internalNodes>
            0 -1 300 -7.8327266965061426e-04</internalNodes>
          <leafValues>
            -3.6000686883926392e-01 1.4081193506717682e-01</leafValues></_>
        <_>
          <internalNodes>
            0 -1 244 9.7646040376275778e-04</internalNodes>
          <leafValues>
            6.1939563602209091e-02 -7.6195168495178223e-01</leafValues></_>
        <_>
          <internalNodes>
            0 -1 226 -2.5012474507093430e-02</internalNodes>
          <leafValues>
            -6.4144253730773926e-01 6.7540764808654785e-02</leafValues></_>
        <_>
          <internalNodes>
            0 -1 280 -6.7510118242353201e-04</internalNodes>
          <leafValues>
            3.1945222616195679e-01 -1.5186089277267456e-01</leafValues></_>
        <_>
          <internalNodes>
            0 -1 146 -4.3934085406363010e-03</internalNodes>
          <leafValues>
            -6.0289847850799561e-01 7.9917505383491516e-02</leafValues></_>
        <_>
          <internalNodes>
            0 -1 289 3.7114377482794225e-04</internalNodes>
          <leafValues>
            9.7163289785385132e-02 -4.9089390039443970e-01</leafValues></_>
        <_>
          <internalNodes>
            0 -1 127 1.4828427229076624e-03</internalNodes>
          <leafValues>
            -1.2667445838451385e-01 4.2808416485786438e-01</leafValues></_>
        <_>
          <internalNodes>
            0 -1 116 1.3183361291885376e-01</internalNodes>
          <leafValues>
            6.1498630791902542e-02 -7.5809741020202637e-01</leafValues></_>
        <_>
          <internalNodes>
            0 -1 50 1.7686437058728188e-04</internalNodes>
          <leafValues>
            7.9179644584655762e-02 -5.0245052576065063e-01</leafValues></_>
        <_>
          <internalNodes>
            0 -1 161 3.9052188396453857e-02</internalNodes>
          <leafValues>
            -2.7030602097511292e-01 1.8341970443725586e-01</leafValues></_>
        <_>
          <internalNodes>
            0 -1 263 -3.1468289671465755e-04</internalNodes>
          <leafValues>
            4.6691882610321045e-01 -1.2807972729206085e-01</leafValues></_>
        <_>
          <internalNodes>
            0 -1 49 -6.1570911202579737e-04</internalNodes>
          <leafValues>
            1.8931505084037781e-01 -2.4891664087772369e-01</leafValues></_>
        <_>
          <internalNodes>
            0 -1 165 3.6154058761894703e-04</internalNodes>
          <leafValues>
            -1.7287011444568634e-01 2.7501231431961060e-01</leafValues></_></weakClassifiers></_></stages>
  <features>
    <_>
      <rects>
        <_>
          0 0 6 2 -1.</_>
        <_>
          3 0 3 2 2.</_></rects>
      <tilted>0</tilted></_>
    <_>
      <rects>
        <_>
          0 0 20 2 -1.</_>
        <_>
          10 0 10 2 2.</_></rects>
      <tilted>0</tilted></_>
    <_>
      <rects>
        <_>
          0 0 20 20 -1.</_>
        <_>
          0 10 20 10 2.</_></rects>
      <tilted>0</tilted></_>
    <_>
      <rects>
        <_>
          0 0 21 20 -1.</_>
        <_>
          0 10 21 10 2.</_></rects>
      <tilted>0</tilted></_>
    <_>
      <rects>
        <_>
          0 0 23 4 -1.</_>
        <_>
          0 2 23 2 2.</_></rects>
      <tilted>0</tilted></_>
    <_>
      <rects>
        <_>
          0 1 2 10 -1.</_>
        <_>
          0 6 2 5 2.</_></rects>
      <tilted>0</tilted></_>
    <_>
      <rects>
        <_>
          0 1 20 22 -1.</_>
        <_>
          0 1 10 11 2.</_>
        <_>
          10 12 10 11 2.</_></rects>
      <tilted>0</tilted></_>
    <_>
      <rects>
        <_>
          0 2 2 1 -1.</_>
        <_>
          1 2 1 1 2.</_></rects>
      <tilted>0</tilted></_>
    <_>
      <rects>
        <_>
          0 2 10 15 -1.</_>
        <_>
          5 2 5 15 2.</_></rects>
      <tilted>0</tilted></_>
    <_>
      <rects>
        <_>
          0 3 2 1 -1.</_>
        <_>
          1 3 1 1 2.</_></rects>
      <tilted>0</tilted></_>
    <_>
      <rects>
        <_>
          0 4 4 2 -1.</_>
        <_>
          0 5 4 1 2.</_></rects>
      <tilted>0</tilted></_>
    <_>
      <rects>
        <_>
          0 4 8 19 -1.</_>
        <_>
          4 4 4 19 2.</_></rects>
      <tilted>0</tilted></_>
    <_>
      <rects>
        <_>
          0 4 10 19 -1.</_>
        <_>
          5 4 5 19 2.</_></rects>
      <tilted>0</tilted></_>
    <_>
      <rects>
        <_>
          0 4 21 14 -1.</_>
        <_>
          0 11 21 7 2.</_></rects>
      <tilted>0</tilted></_>
    <_>
      <rects>
        <_>
          0 5 18 4 -1.</_>
        <_>
          6 5 6 4 2.</_></rects>
      <tilted>0</tilted></_>
    <_>
      <rects>
        <_>
          0 5 21 12 -1.</_>
        <_>
          0 11 21 6 2.</_></rects>
      <tilted>0</tilted></_>
    <_>
      <rects>
        <_>
          0 6 8 7 -1.</_>
        <_>
          4 6 4 7 2.</_></rects>
      <tilted>0</tilted></_>
    <_>
      <rects>
        <_>
          0 7 1 14 -1.</_>
        <_>
          0 14 1 7 2.</_></rects>
      <tilted>0</tilted></_>
    <_>
      <rects>
        <_>
          0 7 6 11 -1.</_>
        <_>
          3 7 3 11 2.</_></rects>
      <tilted>0</tilted></_>
    <_>
      <rects>
        <_>
          0 7 8 9 -1.</_>
        <_>
          4 7 4 9 2.</_></rects>
      <tilted>0</tilted></_>
    <_>
      <rects>
        <_>
          0 7 18 1 -1.</_>
        <_>
          6 7 6 1 2.</_></rects>
      <tilted>0</tilted></_>
    <_>
      <rects>
        <_>
          0 8 1 12 -1.</_>
        <_>
          0 14 1 6 2.</_></rects>
      <tilted>0</tilted></_>
    <_>
      <rects>
        <_>
          0 8 10 10 -1.</_>
        <_>
          5 8 5 10 2.</_></rects>
      <tilted>0</tilted></_>
    <_>
      <rects>
        <_>
          0 9 2 14 -1.</_>
        <_>
          0 9 1 7 2.</_>
        <_>
          1 16 1 7 2.</_></rects>
      <tilted>0</tilted></_>
    <_>
      <rects>
        <_>
          0 9 6 12 -1.</_>
        <_>
          3 9 3 12 2.</_></rects>
      <tilted>0</tilted></_>
    <_>
      <rects>
        <_>
          0 10 4 8 -1.</_>
        <_>
          0 10 2 4 2.</_>
        <_>
          2 14 2 4 2.</_></rects>
      <tilted>0</tilted></_>
    <_>
      <rects>
        <_>
          0 10 6 7 -1.</_>
        <_>
          3 10 3 7 2.</_></rects>
      <tilted>0</tilted></_>
    <_>
      <rects>
        <_>
          0 10 16 8 -1.</_>
        <_>
          8 10 8 8 2.</_></rects>
      <tilted>0</tilted></_>
    <_>
      <rects>
        <_>
          0 11 4 4 -1.</_>
        <_>
          0 11 2 2 2.</_>
        <_>
          2 13 2 2 2.</_></rects>
      <tilted>0</tilted></_>
    <_>
      <rects>
        <_>
          0 13 11 4 -1.</_>
        <_>
          0 15 11 2 2.</_></rects>
      <tilted>0</tilted></_>
    <_>
      <rects>
        <_>
          0 14 1 6 -1.</_>
        <_>
          0 16 1 2 2.</_></rects>
      <tilted>0</tilted></_>
    <_>
      <rects>
        <_>
          0 14 2 10 -1.</_>
        <_>
          1 14 1 10 2.</_></rects>
      <tilted>0</tilted></_>
    <_>
      <rects>
        <_>
          0 14 20 2 -1.</_>
        <_>
          0 14 10 1 2.</_>
        <_>
          10 15 10 1 2.</_></rects>
      <tilted>0</tilted></_>
    <_>
      <rects>
        <_>
          0 16 2 1 -1.</_>
        <_>
          1 16 1 1 2.</_></rects>
      <tilted>0</tilted></_>
    <_>
      <rects>
        <_>
          0 18 10 4 -1.</_>
        <_>
          5 18 5 4 2.</_></rects>
      <tilted>0</tilted></_>
    <_>
      <rects>
        <_>
          0 19 6 5 -1.</_>
        <_>
          3 19 3 5 2.</_></rects>
      <tilted>0</tilted></_>
    <_>
      <rects>
        <_>
          0 20 4 1 -1.</_>
        <_>
          2 20 2 1 2.</_></rects>
      <tilted>0</tilted></_>
    <_>
      <rects>
        <_>
          0 20 6 4 -1.</_>
        <_>
          0 22 6 2 2.</_></rects>
      <tilted>0</tilted></_>
    <_>
      <rects>
        <_>
          0 22 18 2 -1.</_>
        <_>
          0 23 18 1 2.</_></rects>
      <tilted>0</tilted></_>
    <_>
      <rects>
        <_>
          1 0 12 1 -1.</_>
        <_>
          7 0 6 1 2.</_></rects>
      <tilted>0</tilted></_>
    <_>
      <rects>
        <_>
          1 3 6 8 -1.</_>
        <_>
          1 3 3 4 2.</_>
        <_>
          4 7 3 4 2.</_></rects>
      <tilted>0</tilted></_>
    <_>
      <rects>
        <_>
          1 5 2 2 -1.</_>
        <_>
          2 5 1 2 2.</_></rects>
      <tilted>0</tilted></_>
    <_>
      <rects>
        <_>
          1 6 4 6 -1.</_>
        <_>
          1 6 2 3 2.</_>
        <_>
          3 9 2 3 2.</_></rects>
      <tilted>0</tilted></_>
    <_>
      <rects>
        <_>
          1 7 20 6 -1.</_>
        <_>
          1 10 20 3 2.</_></rects>
      <tilted>0</tilted></_>
    <_>
      <rects>
        <_>
          1 8 6 10 -1.</_>
        <_>
          1 8 3 5 2.</_>
        <_>
          4 13 3 5 2.</_></rects>
      <tilted>0</tilted></_>
    <_>
      <rects>
        <_>
          1 8 6 14 -1.</_>
        <_>
          4 8 3 14 2.</_></rects>
      <tilted>0</tilted></_>
    <_>
      <rects>
        <_>
          1 8 19 4 -1.</_>
        <_>
          1 10 19 2 2.</_></rects>
      <tilted>0</tilted></_>
    <_>
      <rects>
        <_>
          1 8 20 4 -1.</_>
        <_>
          1 10 20 2 2.</_></rects>
      <tilted>0</tilted></_>
    <_>
      <rects>
        <_>
          1 10 6 2 -1.</_>
        <_>
          1 10 3 1 2.</_>
        <_>
          4 11 3 1 2.</_></rects>
      <tilted>0</tilted></_>
    <_>
      <rects>
        <_>
          1 14 8 6 -1.</_>
        <_>
          1 14 4 3 2.</_>
        <_>
          5 17 4 3 2.</_></rects>
      <tilted>0</tilted></_>
    <_>
      <rects>
        <_>
          1 18 2 1 -1.</_>
        <_>
          2 18 1 1 2.</_></rects>
      <tilted>0</tilted></_>
    <_>
      <rects>
        <_>
          1 19 6 1 -1.</_>
        <_>
          4 19 3 1 2.</_></rects>
      <tilted>0</tilted></_>
    <_>
      <rects>
        <_>
          1 20 2 1 -1.</_>
        <_>
          2 20 1 1 2.</_></rects>
      <tilted>0</tilted></_>
    <_>
      <rects>
        <_>
          1 21 2 3 -1.</_>
        <_>
          2 21 1 3 2.</_></rects>
      <tilted>0</tilted></_>
    <_>
      <rects>
        <_>
          1 22 13 2 -1.</_>
        <_>
          1 23 13 1 2.</_></rects>
      <tilted>0</tilted></_>
    <_>
      <rects>
        <_>
          1 22 23 2 -1.</_>
        <_>
          1 23 23 1 2.</_></rects>
      <tilted>0</tilted></_>
    <_>
      <rects>
        <_>
          2 0 4 1 -1.</_>
        <_>
          4 0 2 1 2.</_></rects>
      <tilted>0</tilted></_>
    <_>
      <rects>
        <_>
          2 0 4 24 -1.</_>
        <_>
          2 0 2 12 2.</_>
        <_>
          4 12 2 12 2.</_></rects>
      <tilted>0</tilted></_>
    <_>
      <rects>
        <_>
          2 2 6 20 -1.</_>
        <_>
          2 2 3 10 2.</_>
        <_>
          5 12 3 10 2.</_></rects>
      <tilted>0</tilted></_>
    <_>
      <rects>
        <_>
          2 2 20 4 -1.</_>
        <_>
          12 2 10 4 2.</_></rects>
      <tilted>0</tilted></_>
    <_>
      <rects>
        <_>
          2 4 6 12 -1.</_>
        <_>
          2 4 3 6 2.</_>
        <_>
          5 10 3 6 2.</_></rects>
      <tilted>0</tilted></_>
    <_>
      <rects>
        <_>
          2 4 18 1 -1.</_>
        <_>
          11 4 9 1 2.</_></rects>
      <tilted>0</tilted></_>
    <_>
      <rects>
        <_>
          2 4 19 12 -1.</_>
        <_>
          2 10 19 6 2.</_></rects>
      <tilted>0</tilted></_>
    <_>
      <rects>
        <_>
          2 5 2 2 -1.</_>
        <_>
          3 5 1 2 2.</_></rects>
      <tilted>0</tilted></_>
    <_>
      <rects>
        <_>
          2 5 16 2 -1.</_>
        <_>
          10 5 8 2 2.</_></rects>
      <tilted>0</tilted></_>
    <_>
      <rects>
        <_>
          2 6 15 2 -1.</_>
        <_>
          7 6 5 2 2.</_></rects>
      <tilted>0</tilted></_>
    <_>
      <rects>
        <_>
          2 6 19 8 -1.</_>
        <_>
          2 10 19 4 2.</_></rects>
      <tilted>0</tilted></_>
    <_>
      <rects>
        <_>
          2 6 20 8 -1.</_>
        <_>
          2 10 20 4 2.</_></rects>
      <tilted>0</tilted></_>
    <_>
      <rects>
        <_>
          2 6 22 8 -1.</_>
        <_>
          2 10 22 4 2.</_></rects>
      <tilted>0</tilted></_>
    <_>
      <rects>
        <_>
          2 8 4 8 -1.</_>
        <_>
          2 8 2 4 2.</_>
        <_>
          4 12 2 4 2.</_></rects>
      <tilted>0</tilted></_>
    <_>
      <rects>
        <_>
          2 9 16 14 -1.</_>
        <_>
          2 16 16 7 2.</_></rects>
      <tilted>0</tilted></_>
    <_>
      <rects>
        <_>
          2 11 22 6 -1.</_>
        <_>
          2 11 11 3 2.</_>
        <_>
          13 14 11 3 2.</_></rects>
      <tilted>0</tilted></_>
    <_>
      <rects>
        <_>
          2 12 6 8 -1.</_>
        <_>
          2 12 3 4 2.</_>
        <_>
          5 16 3 4 2.</_></rects>
      <tilted>0</tilted></_>
    <_>
      <rects>
        <_>
          2 15 12 6 -1.</_>
        <_>
          2 15 6 3 2.</_>
        <_>
          8 18 6 3 2.</_></rects>
      <tilted>0</tilted></_>
    <_>
      <rects>
        <_>
          2 17 2 7 -1.</_>
        <_>
          3 17 1 7 2.</_></rects>
      <tilted>0</tilted></_>
    <_>
      <rects>
        <_>
          2 18 2 1 -1.</_>
        <_>
          3 18 1 1 2.</_></rects>
      <tilted>0</tilted></_>
    <_>
      <rects>
        <_>
          2 18 2 2 -1.</_>
        <_>
          3 18 1 2 2.</_></rects>
      <tilted>0</tilted></_>
    <_>
      <rects>
        <_>
          2 19 4 1 -1.</_>
        <_>
          4 19 2 1 2.</_></rects>
      <tilted>0</tilted></_>
    <_>
      <rects>
        <_>
          2 22 4 2 -1.</_>
        <_>
          2 23 4 1 2.</_></rects>
      <tilted>0</tilted></_>
    <_>
      <rects>
        <_>
          3 0 14 2 -1.</_>
        <_>
          3 0 7 1 2.</_>
        <_>
          10 1 7 1 2.</_></rects>
      <tilted>0</tilted></_>
    <_>
      <rects>
        <_>
          3 0 15 2 -1.</_>
        <_>
          3 1 15 1 2.</_></rects>
      <tilted>0</tilted></_>
    <_>
      <rects>
        <_>
          3 0 16 18 -1.</_>
        <_>
          3 9 16 9 2.</_></rects>
      <tilted>0</tilted></_>
    <_>
      <rects>
        <_>
          3 0 20 8 -1.</_>
        <_>
          3 4 20 4 2.</_></rects>
      <tilted>0</tilted></_>
    <_>
      <rects>
        <_>
          3 3 10 14 -1.</_>
        <_>
          3 10 10 7 2.</_></rects>
      <tilted>0</tilted></_>
    <_>
      <rects>
        <_>
          3 6 6 8 -1.</_>
        <_>
          3 6 3 4 2.</_>
        <_>
          6 10 3 4 2.</_></rects>
      <tilted>0</tilted></_>
    <_>
      <rects>
        <_>
          3 7 2 8 -1.</_>
        <_>
          3 7 1 4 2.</_>
        <_>
          4 11 1 4 2.</_></rects>
      <tilted>0</tilted></_>
    <_>
      <rects>
        <_>
          3 7 5 2 -1.</_>
        <_>
          3 8 5 1 2.</_></rects>
      <tilted>0</tilted></_>
    <_>
      <rects>
        <_>
          3 12 1 6 -1.</_>
        <_>
          3 14 1 2 2.</_></rects>
      <tilted>0</tilted></_>
    <_>
      <rects>
        <_>
          3 18 2 3 -1.</_>
        <_>
          4 18 1 3 2.</_></rects>
      <tilted>0</tilted></_>
    <_>
      <rects>
        <_>
          3 20 7 4 -1.</_>
        <_>
          3 22 7 2 2.</_></rects>
      <tilted>0</tilted></_>
    <_>
      <rects>
        <_>
          3 20 17 4 -1.</_>
        <_>
          3 22 17 2 2.</_></rects>
      <tilted>0</tilted></_>
    <_>
      <rects>
        <_>
          3 22 15 2 -1.</_>
        <_>
          3 23 15 1 2.</_></rects>
      <tilted>0</tilted></_>
    <_>
      <rects>
        <_>
          4 0 16 1 -1.</_>
        <_>
          12 0 8 1 2.</_></rects>
      <tilted>0</tilted></_>
    <_>
      <rects>
        <_>
          4 0 9 16 -1.</_>
        <_>
          4 8 9 8 2.</_></rects>
      <tilted>0</tilted></_>
    <_>
      <rects>
        <_>
          4 0 10 4 -1.</_>
        <_>
          4 2 10 2 2.</_></rects>
      <tilted>0</tilted></_>
    <_>
      <rects>
        <_>
          4 2 13 6 -1.</_>
        <_>
          4 5 13 3 2.</_></rects>
      <tilted>0</tilted></_>
    <_>
      <rects>
        <_>
          4 2 14 4 -1.</_>
        <_>
          4 4 14 2 2.</_></rects>
      <tilted>0</tilted></_>
    <_>
      <rects>
        <_>
          4 3 10 14 -1.</_>
        <_>
          4 10 10 7 2.</_></rects>
      <tilted>0</tilted></_>
    <_>
      <rects>
        <_>
          4 4 10 14 -1.</_>
        <_>
          4 11 10 7 2.</_></rects>
      <tilted>0</tilted></_>
    <_>
      <rects>
        <_>
          4 4 13 15 -1.</_>
        <_>
          4 9 13 5 2.</_></rects>
      <tilted>0</tilted></_>
    <_>
      <rects>
        <_>
          4 4 20 4 -1.</_>
        <_>
          4 6 20 2 2.</_></rects>
      <tilted>0</tilted></_>
    <_>
      <rects>
        <_>
          4 5 15 1 -1.</_>
        <_>
          9 5 5 1 2.</_></rects>
      <tilted>0</tilted></_>
    <_>
      <rects>
        <_>
          4 7 4 8 -1.</_>
        <_>
          4 7 2 4 2.</_>
        <_>
          6 11 2 4 2.</_></rects>
      <tilted>0</tilted></_>
    <_>
      <rects>
        <_>
          4 10 6 6 -1.</_>
        <_>
          4 13 6 3 2.</_></rects>
      <tilted>0</tilted></_>
    <_>
      <rects>
        <_>
          4 11 18 6 -1.</_>
        <_>
          4 11 9 3 2.</_>
        <_>
          13 14 9 3 2.</_></rects>
      <tilted>0</tilted></_>
    <_>
      <rects>
        <_>
          4 12 12 8 -1.</_>
        <_>
          8 12 4 8 2.</_></rects>
      <tilted>0</tilted></_>
    <_>
      <rects>
        <_>
          4 13 16 6 -1.</_>
        <_>
          4 13 8 3 2.</_>
        <_>
          12 16 8 3 2.</_></rects>
      <tilted>0</tilted></_>
    <_>
      <rects>
        <_>
          4 14 18 2 -1.</_>
        <_>
          4 14 9 1 2.</_>
        <_>
          13 15 9 1 2.</_></rects>
      <tilted>0</tilted></_>
    <_>
      <rects>
        <_>
          4 15 2 2 -1.</_>
        <_>
          5 15 1 2 2.</_></rects>
      <tilted>0</tilted></_>
    <_>
      <rects>
        <_>
          4 15 4 1 -1.</_>
        <_>
          6 15 2 1 2.</_></rects>
      <tilted>0</tilted></_>
    <_>
      <rects>
        <_>
          4 16 4 5 -1.</_>
        <_>
          6 16 2 5 2.</_></rects>
      <tilted>0</tilted></_>
    <_>
      <rects>
        <_>
          4 22 20 2 -1.</_>
        <_>
          4 22 10 1 2.</_>
        <_>
          14 23 10 1 2.</_></rects>
      <tilted>0</tilted></_>
    <_>
      <rects>
        <_>
          4 22 15 2 -1.</_>
        <_>
          4 23 15 1 2.</_></rects>
      <tilted>0</tilted></_>
    <_>
      <rects>
        <_>
          5 0 12 2 -1.</_>
        <_>
          5 0 6 1 2.</_>
        <_>
          11 1 6 1 2.</_></rects>
      <tilted>0</tilted></_>
    <_>
      <rects>
        <_>
          5 0 9 2 -1.</_>
        <_>
          5 1 9 1 2.</_></rects>
      <tilted>0</tilted></_>
    <_>
      <rects>
        <_>
          5 2 4 4 -1.</_>
        <_>
          7 2 2 4 2.</_></rects>
      <tilted>0</tilted></_>
    <_>
      <rects>
        <_>
          5 2 10 10 -1.</_>
        <_>
          5 7 10 5 2.</_></rects>
      <tilted>0</tilted></_>
    <_>
      <rects>
        <_>
          5 4 2 10 -1.</_>
        <_>
          5 4 1 5 2.</_>
        <_>
          6 9 1 5 2.</_></rects>
      <tilted>0</tilted></_>
    <_>
      <rects>
        <_>
          5 4 10 16 -1.</_>
        <_>
          5 12 10 8 2.</_></rects>
      <tilted>0</tilted></_>
    <_>
      <rects>
        <_>
          5 5 8 2 -1.</_>
        <_>
          5 5 4 1 2.</_>
        <_>
          9 6 4 1 2.</_></rects>
      <tilted>0</tilted></_>
    <_>
      <rects>
        <_>
          5 9 4 1 -1.</_>
        <_>
          7 9 2 1 2.</_></rects>
      <tilted>0</tilted></_>
    <_>
      <rects>
        <_>
          5 12 10 8 -1.</_>
        <_>
          5 12 5 4 2.</_>
        <_>
          10 16 5 4 2.</_></rects>
      <tilted>0</tilted></_>
    <_>
      <rects>
        <_>
          5 13 18 2 -1.</_>
        <_>
          5 13 9 1 2.</_>
        <_>
          14 14 9 1 2.</_></rects>
      <tilted>0</tilted></_>
    <_>
      <rects>
        <_>
          5 14 9 2 -1.</_>
        <_>
          5 15 9 1 2.</_></rects>
      <tilted>0</tilted></_>
    <_>
      <rects>
        <_>
          5 14 18 2 -1.</_>
        <_>
          5 14 9 1 2.</_>
        <_>
          14 15 9 1 2.</_></rects>
      <tilted>0</tilted></_>
    <_>
      <rects>
        <_>
          5 15 18 2 -1.</_>
        <_>
          5 15 9 1 2.</_>
        <_>
          14 16 9 1 2.</_></rects>
      <tilted>0</tilted></_>
    <_>
      <rects>
        <_>
          5 16 2 6 -1.</_>
        <_>
          6 16 1 6 2.</_></rects>
      <tilted>0</tilted></_>
    <_>
      <rects>
        <_>
          5 16 17 2 -1.</_>
        <_>
          5 17 17 1 2.</_></rects>
      <tilted>0</tilted></_>
    <_>
      <rects>
        <_>
          5 20 1 4 -1.</_>
        <_>
          5 22 1 2 2.</_></rects>
      <tilted>0</tilted></_>
    <_>
      <rects>
        <_>
          6 0 2 14 -1.</_>
        <_>
          6 0 1 7 2.</_>
        <_>
          7 7 1 7 2.</_></rects>
      <tilted>0</tilted></_>
    <_>
      <rects>
        <_>
          6 0 8 2 -1.</_>
        <_>
          6 0 4 1 2.</_>
        <_>
          10 1 4 1 2.</_></rects>
      <tilted>0</tilted></_>
    <_>
      <rects>
        <_>
          6 1 4 7 -1.</_>
        <_>
          8 1 2 7 2.</_></rects>
      <tilted>0</tilted></_>
    <_>
      <rects>
        <_>
          6 2 2 12 -1.</_>
        <_>
          6 6 2 4 2.</_></rects>
      <tilted>0</tilted></_>
    <_>
      <rects>
        <_>
          6 3 5 2 -1.</_>
        <_>
          6 4 5 1 2.</_></rects>
      <tilted>0</tilted></_>
    <_>
      <rects>
        <_>
          6 4 16 4 -1.</_>
        <_>
          14 4 8 4 2.</_></rects>
      <tilted>0</tilted></_>
    <_>
      <rects>
        <_>
          6 5 18 18 -1.</_>
        <_>
          15 5 9 18 2.</_></rects>
      <tilted>0</tilted></_>
    <_>
      <rects>
        <_>
          6 6 6 1 -1.</_>
        <_>
          9 6 3 1 2.</_></rects>
      <tilted>0</tilted></_>
    <_>
      <rects>
        <_>
          6 8 4 1 -1.</_>
        <_>
          8 8 2 1 2.</_></rects>
      <tilted>0</tilted></_>
    <_>
      <rects>
        <_>
          6 8 4 2 -1.</_>
        <_>
          6 8 2 1 2.</_>
        <_>
          8 9 2 1 2.</_></rects>
      <tilted>0</tilted></_>
    <_>
      <rects>
        <_>
          6 8 8 1 -1.</_>
        <_>
          10 8 4 1 2.</_></rects>
      <tilted>0</tilted></_>
    <_>
      <rects>
        <_>
          6 11 2 12 -1.</_>
        <_>
          6 11 1 6 2.</_>
        <_>
          7 17 1 6 2.</_></rects>
      <tilted>0</tilted></_>
    <_>
      <rects>
        <_>
          6 13 2 6 -1.</_>
        <_>
          6 13 1 3 2.</_>
        <_>
          7 16 1 3 2.</_></rects>
      <tilted>0</tilted></_>
    <_>
      <rects>
        <_>
          6 13 4 6 -1.</_>
        <_>
          8 13 2 6 2.</_></rects>
      <tilted>0</tilted></_>
    <_>
      <rects>
        <_>
          6 13 8 6 -1.</_>
        <_>
          6 13 4 3 2.</_>
        <_>
          10 16 4 3 2.</_></rects>
      <tilted>0</tilted></_>
    <_>
      <rects>
        <_>
          6 18 2 3 -1.</_>
        <_>
          7 18 1 3 2.</_></rects>
      <tilted>0</tilted></_>
    <_>
      <rects>
        <_>
          6 18 1 6 -1.</_>
        <_>
          6 21 1 3 2.</_></rects>
      <tilted>0</tilted></_>
    <_>
      <rects>
        <_>
          6 21 6 2 -1.</_>
        <_>
          9 21 3 2 2.</_></rects>
      <tilted>0</tilted></_>
    <_>
      <rects>
        <_>
          7 0 6 8 -1.</_>
        <_>
          10 0 3 8 2.</_></rects>
      <tilted>0</tilted></_>
    <_>
      <rects>
        <_>
          7 0 9 4 -1.</_>
        <_>
          7 2 9 2 2.</_></rects>
      <tilted>0</tilted></_>
    <_>
      <rects>
        <_>
          7 0 11 20 -1.</_>
        <_>
          7 10 11 10 2.</_></rects>
      <tilted>0</tilted></_>
    <_>
      <rects>
        <_>
          7 1 4 20 -1.</_>
        <_>
          7 1 2 10 2.</_>
        <_>
          9 11 2 10 2.</_></rects>
      <tilted>0</tilted></_>
    <_>
      <rects>
        <_>
          7 2 4 7 -1.</_>
        <_>
          9 2 2 7 2.</_></rects>
      <tilted>0</tilted></_>
    <_>
      <rects>
        <_>
          7 3 4 14 -1.</_>
        <_>
          7 3 2 7 2.</_>
        <_>
          9 10 2 7 2.</_></rects>
      <tilted>0</tilted></_>
    <_>
      <rects>
        <_>
          7 3 8 4 -1.</_>
        <_>
          7 3 4 2 2.</_>
        <_>
          11 5 4 2 2.</_></rects>
      <tilted>0</tilted></_>
    <_>
      <rects>
        <_>
          7 3 6 8 -1.</_>
        <_>
          7 7 6 4 2.</_></rects>
      <tilted>0</tilted></_>
    <_>
      <rects>
        <_>
          7 3 13 4 -1.</_>
        <_>
          7 5 13 2 2.</_></rects>
      <tilted>0</tilted></_>
    <_>
      <rects>
        <_>
          7 4 6 4 -1.</_>
        <_>
          10 4 3 4 2.</_></rects>
      <tilted>0</tilted></_>
    <_>
      <rects>
        <_>
          7 4 6 12 -1.</_>
        <_>
          7 4 3 6 2.</_>
        <_>
          10 10 3 6 2.</_></rects>
      <tilted>0</tilted></_>
    <_>
      <rects>
        <_>
          7 4 14 7 -1.</_>
        <_>
          14 4 7 7 2.</_></rects>
      <tilted>0</tilted></_>
    <_>
      <rects>
        <_>
          7 7 6 1 -1.</_>
        <_>
          10 7 3 1 2.</_></rects>
      <tilted>0</tilted></_>
    <_>
      <rects>
        <_>
          7 7 10 6 -1.</_>
        <_>
          7 7 5 3 2.</_>
        <_>
          12 10 5 3 2.</_></rects>
      <tilted>0</tilted></_>
    <_>
      <rects>
        <_>
          7 7 16 6 -1.</_>
        <_>
          7 10 16 3 2.</_></rects>
      <tilted>0</tilted></_>
    <_>
      <rects>
        <_>
          7 8 2 6 -1.</_>
        <_>
          7 8 1 3 2.</_>
        <_>
          8 11 1 3 2.</_></rects>
      <tilted>0</tilted></_>
    <_>
      <rects>
        <_>
          7 11 2 10 -1.</_>
        <_>
          7 11 1 5 2.</_>
        <_>
          8 16 1 5 2.</_></rects>
      <tilted>0</tilted></_>
    <_>
      <rects>
        <_>
          7 11 6 10 -1.</_>
        <_>
          7 11 3 5 2.</_>
        <_>
          10 16 3 5 2.</_></rects>
      <tilted>0</tilted></_>
    <_>
      <rects>
        <_>
          7 12 12 2 -1.</_>
        <_>
          7 12 6 1 2.</_>
        <_>
          13 13 6 1 2.</_></rects>
      <tilted>0</tilted></_>
    <_>
      <rects>
        <_>
          7 13 2 6 -1.</_>
        <_>
          7 13 1 3 2.</_>
        <_>
          8 16 1 3 2.</_></rects>
      <tilted>0</tilted></_>
    <_>
      <rects>
        <_>
