<?xml version="1.0"?>
<opencv_storage>
<cascade>
  <stageType>BOOST</stageType>
  <featureType>HAAR</featureType>
  <height>40</height>
  <width>40</width>
  <stageParams>
    <boostType>GAB</boostType>
    <minHitRate>9.9500000476837158e-01</minHitRate>
    <maxFalseAlarm>3.0000001192092896e-01</maxFalseAlarm>
    <weightTrimRate>9.4999999999999996e-01</weightTrimRate>
    <maxDepth>1</maxDepth>
    <maxWeakCount>100</maxWeakCount></stageParams>
  <featureParams>
    <maxCatCount>0</maxCatCount>
    <featSize>1</featSize>
    <mode>BASIC</mode></featureParams>
  <stageNum>13</stageNum>
  <stages>
    <!-- stage 0 -->
    <_>
      <maxWeakCount>10</maxWeakCount>
      <stageThreshold>-1.6811674833297729e+00</stageThreshold>
      <weakClassifiers>
        <_>
          <internalNodes>
            0 -1 81 -2.3123987019062042e-02</internalNodes>
          <leafValues>
            6.5917605161666870e-01 -8.6310905218124390e-01</leafValues></_>
        <_>
          <internalNodes>
            0 -1 173 2.5207217782735825e-02</internalNodes>
          <leafValues>
            -5.4612451791763306e-01 7.7310919761657715e-01</leafValues></_>
        <_>
          <internalNodes>
            0 -1 174 -1.3626279309391975e-02</internalNodes>
          <leafValues>
            8.5405707359313965e-01 -2.6768487691879272e-01</leafValues></_>
        <_>
          <internalNodes>
            0 -1 66 -2.7784027159214020e-02</internalNodes>
          <leafValues>
            3.7754178047180176e-01 -6.3496333360671997e-01</leafValues></_>
        <_>
          <internalNodes>
            0 -1 138 -9.8782945424318314e-03</internalNodes>
          <leafValues>
            7.0095235109329224e-01 -2.5441282987594604e-01</leafValues></_>
        <_>
          <internalNodes>
            0 -1 205 -5.0423899665474892e-04</internalNodes>
          <leafValues>
            4.6726354956626892e-01 -3.8038843870162964e-01</leafValues></_>
        <_>
          <internalNodes>
            0 -1 98 -6.7435302771627903e-03</internalNodes>
          <leafValues>
            6.6937750577926636e-01 -2.1875879168510437e-01</leafValues></_>
        <_>
          <internalNodes>
            0 -1 59 5.6402676273137331e-04</internalNodes>
          <leafValues>
            2.9193204641342163e-01 -6.6640955209732056e-01</leafValues></_>
        <_>
          <internalNodes>
            0 -1 62 5.4680877365171909e-03</internalNodes>
          <leafValues>
            -3.1297522783279419e-01 5.6831640005111694e-01</leafValues></_>
        <_>
          <internalNodes>
            0 -1 11 -3.7307546008378267e-03</internalNodes>
          <leafValues>
            5.5857628583908081e-01 -2.2362609207630157e-01</leafValues></_></weakClassifiers></_>
    <!-- stage 1 -->
    <_>
      <maxWeakCount>9</maxWeakCount>
      <stageThreshold>-1.6816436052322388e+00</stageThreshold>
      <weakClassifiers>
        <_>
          <internalNodes>
            0 -1 71 -1.1600121855735779e-02</internalNodes>
          <leafValues>
            2.6241135597229004e-01 -8.5507243871688843e-01</leafValues></_>
        <_>
          <internalNodes>
            0 -1 176 2.9455365613102913e-02</internalNodes>
          <leafValues>
            -5.3590989112854004e-01 5.0295877456665039e-01</leafValues></_>
        <_>
          <internalNodes>
            0 -1 114 -7.9239853221224621e-06</internalNodes>
          <leafValues>
            4.2766547203063965e-01 -5.1071768999099731e-01</leafValues></_>
        <_>
          <internalNodes>
            0 -1 90 -9.3843266367912292e-03</internalNodes>
          <leafValues>
            1.9669008255004883e-01 -9.2918413877487183e-01</leafValues></_>
        <_>
          <internalNodes>
            0 -1 229 1.3389493688009679e-04</internalNodes>
          <leafValues>
            -2.6989421248435974e-01 6.8011677265167236e-01</leafValues></_>
        <_>
          <internalNodes>
            0 -1 229 -1.0012344864662737e-04</internalNodes>
          <leafValues>
            6.4302432537078857e-01 -2.8987491130828857e-01</leafValues></_>
        <_>
          <internalNodes>
            0 -1 65 -3.3312402665615082e-02</internalNodes>
          <leafValues>
            -8.6861586570739746e-01 1.9658832252025604e-01</leafValues></_>
        <_>
          <internalNodes>
            0 -1 214 -4.6244966797530651e-03</internalNodes>
          <leafValues>
            7.0512801408767700e-01 -2.2360701858997345e-01</leafValues></_>
        <_>
          <internalNodes>
            0 -1 24 2.2114700078964233e-01</internalNodes>
          <leafValues>
            -3.2822903990745544e-01 6.2384712696075439e-01</leafValues></_></weakClassifiers></_>
    <!-- stage 2 -->
    <_>
      <maxWeakCount>15</maxWeakCount>
      <stageThreshold>-1.6270862817764282e+00</stageThreshold>
      <weakClassifiers>
        <_>
          <internalNodes>
            0 -1 52 4.7262057662010193e-02</internalNodes>
          <leafValues>
            -8.0423063039779663e-01 8.3215795457363129e-02</leafValues></_>
        <_>
          <internalNodes>
            0 -1 19 -1.6733888536691666e-02</internalNodes>
          <leafValues>
            4.5769792795181274e-01 -5.1637583971023560e-01</leafValues></_>
        <_>
          <internalNodes>
            0 -1 191 -5.7491771876811981e-03</internalNodes>
          <leafValues>
            7.6281255483627319e-01 -1.9789376854896545e-01</leafValues></_>
        <_>
          <internalNodes>
            0 -1 218 -8.2172155380249023e-03</internalNodes>
          <leafValues>
            5.1188176870346069e-01 -3.5281258821487427e-01</leafValues></_>
        <_>
          <internalNodes>
            0 -1 132 -4.7637056559324265e-03</internalNodes>
          <leafValues>
            -7.8412628173828125e-01 1.5591828525066376e-01</leafValues></_>
        <_>
          <internalNodes>
            0 -1 110 -6.6077872179448605e-04</internalNodes>
          <leafValues>
            5.1911753416061401e-01 -2.5948950648307800e-01</leafValues></_>
        <_>
          <internalNodes>
            0 -1 125 8.2680061459541321e-03</internalNodes>
          <leafValues>
            -2.5019335746765137e-01 6.8659996986389160e-01</leafValues></_>
        <_>
          <internalNodes>
            0 -1 45 -4.7191116027534008e-04</internalNodes>
          <leafValues>
            2.9915681481361389e-01 -4.3209481239318848e-01</leafValues></_>
        <_>
          <internalNodes>
            0 -1 194 -8.4218813572078943e-04</internalNodes>
          <leafValues>
            6.9538962841033936e-01 -1.6214795410633087e-01</leafValues></_>
        <_>
          <internalNodes>
            0 -1 195 3.6553887184709311e-04</internalNodes>
          <leafValues>
            -2.0890861749649048e-01 5.2003997564315796e-01</leafValues></_>
        <_>
          <internalNodes>
            0 -1 141 8.8679399341344833e-03</internalNodes>
          <leafValues>
            1.5351571142673492e-01 -8.2574325799942017e-01</leafValues></_>
        <_>
          <internalNodes>
            0 -1 157 -4.4142970000393689e-04</internalNodes>
          <leafValues>
            4.7631716728210449e-01 -2.4008621275424957e-01</leafValues></_>
        <_>
          <internalNodes>
            0 -1 55 -3.3272770233452320e-03</internalNodes>
          <leafValues>
            5.6657135486602783e-01 -1.9977618753910065e-01</leafValues></_>
        <_>
          <internalNodes>
            0 -1 227 -2.4303957616211846e-05</internalNodes>
          <leafValues>
            3.4473818540573120e-01 -3.1751558184623718e-01</leafValues></_>
        <_>
          <internalNodes>
            0 -1 51 6.7401677370071411e-03</internalNodes>
          <leafValues>
            -2.0220352709293365e-01 5.1355016231536865e-01</leafValues></_></weakClassifiers></_>
    <!-- stage 3 -->
    <_>
      <maxWeakCount>13</maxWeakCount>
      <stageThreshold>-1.4353350400924683e+00</stageThreshold>
      <weakClassifiers>
        <_>
          <internalNodes>
            0 -1 172 8.1364348530769348e-02</internalNodes>
          <leafValues>
            -7.1408402919769287e-01 4.9825784564018250e-01</leafValues></_>
        <_>
          <internalNodes>
            0 -1 123 -8.3446054486557841e-04</internalNodes>
          <leafValues>
            2.7043548226356506e-01 -5.6980127096176147e-01</leafValues></_>
        <_>
          <internalNodes>
            0 -1 7 -4.5193068683147430e-02</internalNodes>
          <leafValues>
            6.0096096992492676e-01 -2.7064785361289978e-01</leafValues></_>
        <_>
          <internalNodes>
            0 -1 122 3.0612885020673275e-03</internalNodes>
          <leafValues>
            1.6110572218894958e-01 -8.9856815338134766e-01</leafValues></_>
        <_>
          <internalNodes>
            0 -1 44 9.1995409457013011e-04</internalNodes>
          <leafValues>
            1.7589177191257477e-01 -7.4885171651840210e-01</leafValues></_>
        <_>
          <internalNodes>
            0 -1 53 -7.4278167448937893e-04</internalNodes>
          <leafValues>
            -8.3438408374786377e-01 8.5656695067882538e-02</leafValues></_>
        <_>
          <internalNodes>
            0 -1 187 -6.6545195877552032e-03</internalNodes>
          <leafValues>
            6.2660515308380127e-01 -1.9480991363525391e-01</leafValues></_>
        <_>
          <internalNodes>
            0 -1 198 -1.6086131334304810e-02</internalNodes>
          <leafValues>
            4.5706331729888916e-01 -2.6489028334617615e-01</leafValues></_>
        <_>
          <internalNodes>
            0 -1 86 9.4999698922038078e-04</internalNodes>
          <leafValues>
            -2.7212589979171753e-01 3.9610230922698975e-01</leafValues></_>
        <_>
          <internalNodes>
            0 -1 120 -2.1370607428252697e-03</internalNodes>
          <leafValues>
            6.3800638914108276e-01 -1.7534254491329193e-01</leafValues></_>
        <_>
          <internalNodes>
            0 -1 167 -1.5644174069166183e-02</internalNodes>
          <leafValues>
            -7.7698612213134766e-01 1.5911382436752319e-01</leafValues></_>
        <_>
          <internalNodes>
            0 -1 94 -9.0998969972133636e-03</internalNodes>
          <leafValues>
            -9.6837711334228516e-01 8.7324194610118866e-02</leafValues></_>
        <_>
          <internalNodes>
            0 -1 140 1.2640636414289474e-03</internalNodes>
          <leafValues>
            -2.2644686698913574e-01 4.9689280986785889e-01</leafValues></_></weakClassifiers></_>
    <!-- stage 4 -->
    <_>
      <maxWeakCount>17</maxWeakCount>
      <stageThreshold>-1.4717892408370972e+00</stageThreshold>
      <weakClassifiers>
        <_>
          <internalNodes>
            0 -1 49 1.3118696212768555e-01</internalNodes>
          <leafValues>
            -8.4086018800735474e-01 9.4339624047279358e-02</leafValues></_>
        <_>
          <internalNodes>
            0 -1 4 3.4834139049053192e-02</internalNodes>
          <leafValues>
            -4.5383119583129883e-01 3.8874161243438721e-01</leafValues></_>
        <_>
          <internalNodes>
            0 -1 147 -1.8782645463943481e-02</internalNodes>
          <leafValues>
            -8.8919013738632202e-01 1.2610737979412079e-01</leafValues></_>
        <_>
          <internalNodes>
            0 -1 164 -2.8449515812098980e-03</internalNodes>
          <leafValues>
            5.2302265167236328e-01 -3.1715399026870728e-01</leafValues></_>
        <_>
          <internalNodes>
            0 -1 206 -2.9987297952175140e-02</internalNodes>
          <leafValues>
            6.2962597608566284e-01 -2.6582083106040955e-01</leafValues></_>
        <_>
          <internalNodes>
            0 -1 235 -1.5960701275616884e-03</internalNodes>
          <leafValues>
            6.6155457496643066e-01 -1.3573330640792847e-01</leafValues></_>
        <_>
          <internalNodes>
            0 -1 225 6.8732253275811672e-03</internalNodes>
          <leafValues>
            -1.2152241915464401e-01 7.7979391813278198e-01</leafValues></_>
        <_>
          <internalNodes>
            0 -1 197 -5.2086892537772655e-04</internalNodes>
          <leafValues>
            5.0632196664810181e-01 -1.4911073446273804e-01</leafValues></_>
        <_>
          <internalNodes>
            0 -1 192 -1.1559551581740379e-02</internalNodes>
          <leafValues>
            4.4707453250885010e-01 -1.9780999422073364e-01</leafValues></_>
        <_>
          <internalNodes>
            0 -1 50 -7.5200553983449936e-03</internalNodes>
          <leafValues>
            5.2669918537139893e-01 -1.9350512325763702e-01</leafValues></_>
        <_>
          <internalNodes>
            0 -1 78 -3.9336172631010413e-04</internalNodes>
          <leafValues>
            -7.6517766714096069e-01 1.4832894504070282e-01</leafValues></_>
        <_>
          <internalNodes>
            0 -1 20 -2.6203259825706482e-02</internalNodes>
          <leafValues>
            4.8696720600128174e-01 -1.9098800420761108e-01</leafValues></_>
        <_>
          <internalNodes>
            0 -1 31 5.0190044566988945e-04</internalNodes>
          <leafValues>
            2.1341134607791901e-01 -4.9193951487541199e-01</leafValues></_>
        <_>
          <internalNodes>
            0 -1 23 -2.0060592796653509e-03</internalNodes>
          <leafValues>
            -4.8963129520416260e-01 1.5961031615734100e-01</leafValues></_>
        <_>
          <internalNodes>
            0 -1 134 -6.1280478257685900e-04</internalNodes>
          <leafValues>
            5.0568825006484985e-01 -1.9173450767993927e-01</leafValues></_>
        <_>
          <internalNodes>
            0 -1 76 -6.1024737078696489e-04</internalNodes>
          <leafValues>
            5.1233267784118652e-01 -1.6252204775810242e-01</leafValues></_>
        <_>
          <internalNodes>
            0 -1 85 6.2491849530488253e-04</internalNodes>
          <leafValues>
            -2.9090908169746399e-01 3.4359964728355408e-01</leafValues></_></weakClassifiers></_>
    <!-- stage 5 -->
    <_>
      <maxWeakCount>17</maxWeakCount>
      <stageThreshold>-1.5284388065338135e+00</stageThreshold>
      <weakClassifiers>
        <_>
          <internalNodes>
            0 -1 8 -1.0445345193147659e-02</internalNodes>
          <leafValues>
            -7.1638143062591553e-01 6.6536962985992432e-01</leafValues></_>
        <_>
          <internalNodes>
            0 -1 224 -1.8312068656086922e-02</internalNodes>
          <leafValues>
            4.2425504326820374e-01 -4.3225327134132385e-01</leafValues></_>
        <_>
          <internalNodes>
            0 -1 108 -1.1736789718270302e-02</internalNodes>
          <leafValues>
            5.3475886583328247e-01 -2.6010817289352417e-01</leafValues></_>
        <_>
          <internalNodes>
            0 -1 143 -8.3047006046399474e-04</internalNodes>
          <leafValues>
            3.3269312977790833e-01 -3.3759120106697083e-01</leafValues></_>
        <_>
          <internalNodes>
            0 -1 13 -2.0442510023713112e-02</internalNodes>
          <leafValues>
            -7.8408998250961304e-01 1.4542709290981293e-01</leafValues></_>
        <_>
          <internalNodes>
            0 -1 104 7.0808758027851582e-03</internalNodes>
          <leafValues>
            -8.7222449481487274e-02 8.9041596651077271e-01</leafValues></_>
        <_>
          <internalNodes>
            0 -1 181 1.6604845877736807e-03</internalNodes>
          <leafValues>
            1.2790791690349579e-01 -9.0891528129577637e-01</leafValues></_>
        <_>
          <internalNodes>
            0 -1 105 -2.6339029427617788e-03</internalNodes>
          <leafValues>
            -2.2030116617679596e-01 4.1332975029945374e-01</leafValues></_>
        <_>
          <internalNodes>
            0 -1 185 -1.5962244942784309e-03</internalNodes>
          <leafValues>
            5.0017362833023071e-01 -1.7525818943977356e-01</leafValues></_>
        <_>
          <internalNodes>
            0 -1 231 4.9707584548741579e-04</internalNodes>
          <leafValues>
            -2.0823511481285095e-01 4.3345233798027039e-01</leafValues></_>
        <_>
          <internalNodes>
            0 -1 101 3.1183200189843774e-04</internalNodes>
          <leafValues>
            1.2094946950674057e-01 -7.1729290485382080e-01</leafValues></_>
        <_>
          <internalNodes>
            0 -1 183 -5.9688009787350893e-04</internalNodes>
          <leafValues>
            -6.4083135128021240e-01 1.1564674973487854e-01</leafValues></_>
        <_>
          <internalNodes>
            0 -1 63 8.6562028154730797e-03</internalNodes>
          <leafValues>
            -2.1404007077217102e-01 4.0958005189895630e-01</leafValues></_>
        <_>
          <internalNodes>
            0 -1 46 6.7992750555276871e-03</internalNodes>
          <leafValues>
            1.1889298260211945e-01 -7.5493651628494263e-01</leafValues></_>
        <_>
          <internalNodes>
            0 -1 0 -4.1852958500385284e-02</internalNodes>
          <leafValues>
            -7.0571559667587280e-01 1.0453183948993683e-01</leafValues></_>
        <_>
          <internalNodes>
            0 -1 119 9.5907878130674362e-03</internalNodes>
          <leafValues>
            -2.2633397579193115e-01 4.6039733290672302e-01</leafValues></_>
        <_>
          <internalNodes>
            0 -1 162 -2.1278343629091978e-03</internalNodes>
          <leafValues>
            -8.0020105838775635e-01 1.0710073262453079e-01</leafValues></_></weakClassifiers></_>
    <!-- stage 6 -->
    <_>
      <maxWeakCount>17</maxWeakCount>
      <stageThreshold>-1.3776406049728394e+00</stageThreshold>
      <weakClassifiers>
        <_>
          <internalNodes>
            0 -1 223 -4.2325265705585480e-02</internalNodes>
          <leafValues>
            -7.9609048366546631e-01 3.8551858067512512e-01</leafValues></_>
        <_>
          <internalNodes>
            0 -1 163 2.2688203898724169e-05</internalNodes>
          <leafValues>
            1.0199618339538574e-01 -7.0028060674667358e-01</leafValues></_>
        <_>
          <internalNodes>
            0 -1 61 -8.9342119172215462e-03</internalNodes>
          <leafValues>
            6.1380583047866821e-01 -2.3029640316963196e-01</leafValues></_>
        <_>
          <internalNodes>
            0 -1 156 -2.7241385541856289e-03</internalNodes>
          <leafValues>
            5.3336679935455322e-01 -1.8118004500865936e-01</leafValues></_>
        <_>
          <internalNodes>
            0 -1 200 -2.8375774854794145e-04</internalNodes>
          <leafValues>
            2.7435603737831116e-01 -3.8507217168807983e-01</leafValues></_>
        <_>
          <internalNodes>
            0 -1 169 -1.4294401044026017e-03</internalNodes>
          <leafValues>
            -7.1047776937484741e-01 1.8891209363937378e-01</leafValues></_>
        <_>
          <internalNodes>
            0 -1 126 1.4323685318231583e-02</internalNodes>
          <leafValues>
            -2.1792596578598022e-01 5.8517163991928101e-01</leafValues></_>
        <_>
          <internalNodes>
            0 -1 99 -1.7330290284007788e-03</internalNodes>
          <leafValues>
            5.2428680658340454e-01 -1.9625523686408997e-01</leafValues></_>
        <_>
          <internalNodes>
            0 -1 150 4.8930412158370018e-03</internalNodes>
          <leafValues>
            1.7560160160064697e-01 -7.7643769979476929e-01</leafValues></_>
        <_>
          <internalNodes>
            0 -1 226 2.6696897111833096e-03</internalNodes>
          <leafValues>
            -2.1248030662536621e-01 4.9477291107177734e-01</leafValues></_>
        <_>
          <internalNodes>
            0 -1 221 -1.4357650070451200e-04</internalNodes>
          <leafValues>
            -4.8005566000938416e-01 2.0648615062236786e-01</leafValues></_>
        <_>
          <internalNodes>
            0 -1 212 -2.5154399918392301e-04</internalNodes>
          <leafValues>
            -4.6016955375671387e-01 1.8444988131523132e-01</leafValues></_>
        <_>
          <internalNodes>
            0 -1 67 2.3989118635654449e-03</internalNodes>
          <leafValues>
            -1.6207629442214966e-01 5.7837027311325073e-01</leafValues></_>
        <_>
          <internalNodes>
            0 -1 32 2.2221831022761762e-04</internalNodes>
          <leafValues>
            1.2911891937255859e-01 -7.5619500875473022e-01</leafValues></_>
        <_>
          <internalNodes>
            0 -1 211 -2.9465422267094254e-04</internalNodes>
          <leafValues>
            6.0817229747772217e-01 -1.6432291269302368e-01</leafValues></_>
        <_>
          <internalNodes>
            0 -1 160 -6.1614164151251316e-03</internalNodes>
          <leafValues>
            7.5009232759475708e-01 -1.0337927192449570e-01</leafValues></_>
        <_>
          <internalNodes>
            0 -1 117 1.1549496557563543e-03</internalNodes>
          <leafValues>
            -1.9138644635677338e-01 4.2772227525711060e-01</leafValues></_></weakClassifiers></_>
    <!-- stage 7 -->
    <_>
      <maxWeakCount>19</maxWeakCount>
      <stageThreshold>-1.4472030401229858e+00</stageThreshold>
      <weakClassifiers>
        <_>
          <internalNodes>
            0 -1 29 4.3665923178195953e-02</internalNodes>
          <leafValues>
            -7.4436676502227783e-01 6.5934069454669952e-02</leafValues></_>
        <_>
          <internalNodes>
            0 -1 82 -2.2453845012933016e-03</internalNodes>
          <leafValues>
            2.6949739456176758e-01 -4.7813916206359863e-01</leafValues></_>
        <_>
          <internalNodes>
            0 -1 83 2.6812171563506126e-03</internalNodes>
          <leafValues>
            -2.4566677212715149e-01 4.3707078695297241e-01</leafValues></_>
        <_>
          <internalNodes>
            0 -1 149 -4.3088058009743690e-03</internalNodes>
          <leafValues>
            5.9797590970993042e-01 -1.8485836684703827e-01</leafValues></_>
        <_>
          <internalNodes>
            0 -1 9 8.0746300518512726e-03</internalNodes>
          <leafValues>
            -1.5400481224060059e-01 5.8681905269622803e-01</leafValues></_>
        <_>
          <internalNodes>
            0 -1 170 -6.4513145480304956e-04</internalNodes>
          <leafValues>
            2.6935616135597229e-01 -3.8064697384834290e-01</leafValues></_>
        <_>
          <internalNodes>
            0 -1 77 -4.8489101231098175e-02</internalNodes>
          <leafValues>
            -6.8334889411926270e-01 1.4990970492362976e-01</leafValues></_>
        <_>
          <internalNodes>
            0 -1 1 1.6874184831976891e-02</internalNodes>
          <leafValues>
            9.7268864512443542e-02 -6.4899712800979614e-01</leafValues></_>
        <_>
          <internalNodes>
            0 -1 74 2.5271242856979370e-01</internalNodes>
          <leafValues>
            8.6364902555942535e-02 -9.5291954278945923e-01</leafValues></_>
        <_>
          <internalNodes>
            0 -1 3 3.4308357862755656e-04</internalNodes>
          <leafValues>
            1.2991350889205933e-01 -5.5326157808303833e-01</leafValues></_>
        <_>
          <internalNodes>
            0 -1 234 3.5811419365927577e-04</internalNodes>
          <leafValues>
            -1.5451398491859436e-01 5.5358546972274780e-01</leafValues></_>
        <_>
          <internalNodes>
            0 -1 118 -5.1335208117961884e-02</internalNodes>
          <leafValues>
            -6.9528436660766602e-01 1.3377499580383301e-01</leafValues></_>
        <_>
          <internalNodes>
            0 -1 111 2.8917228337377310e-04</internalNodes>
          <leafValues>
            7.6488338410854340e-02 -7.1431189775466919e-01</leafValues></_>
        <_>
          <internalNodes>
            0 -1 40 -1.0567588731646538e-02</internalNodes>
          <leafValues>
            4.1950193047523499e-01 -1.7998477816581726e-01</leafValues></_>
        <_>
          <internalNodes>
            0 -1 6 1.9003266096115112e-01</internalNodes>
          <leafValues>
            -2.1293747425079346e-01 3.9017921686172485e-01</leafValues></_>
        <_>
          <internalNodes>
            0 -1 154 -8.1098496913909912e-02</internalNodes>
          <leafValues>
            1.0455811768770218e-01 -7.2860181331634521e-01</leafValues></_>
        <_>
          <internalNodes>
            0 -1 36 -2.2026972146704793e-04</internalNodes>
          <leafValues>
            -8.1566065549850464e-01 6.4209043979644775e-02</leafValues></_>
        <_>
          <internalNodes>
            0 -1 73 -7.5605888850986958e-03</internalNodes>
          <leafValues>
            3.7743559479713440e-01 -1.9721452891826630e-01</leafValues></_>
        <_>
          <internalNodes>
            0 -1 193 -1.6417153179645538e-02</internalNodes>
          <leafValues>
            2.8630596399307251e-01 -3.0162718892097473e-01</leafValues></_></weakClassifiers></_>
    <!-- stage 8 -->
    <_>
      <maxWeakCount>20</maxWeakCount>
      <stageThreshold>-1.4894374608993530e+00</stageThreshold>
      <weakClassifiers>
        <_>
          <internalNodes>
            0 -1 28 3.3357377105858177e-05</internalNodes>
          <leafValues>
            -6.9470405578613281e-01 5.4978352785110474e-01</leafValues></_>
        <_>
          <internalNodes>
            0 -1 25 1.3106795959174633e-02</internalNodes>
          <leafValues>
            -4.7480461001396179e-01 2.2925181686878204e-01</leafValues></_>
        <_>
          <internalNodes>
            0 -1 5 -3.2985113561153412e-02</internalNodes>
          <leafValues>
            6.1147820949554443e-01 -1.7191623151302338e-01</leafValues></_>
        <_>
          <internalNodes>
            0 -1 144 -8.6658876389265060e-03</internalNodes>
          <leafValues>
            3.1950595974922180e-01 -4.1345968842506409e-01</leafValues></_>
        <_>
          <internalNodes>
            0 -1 89 1.8552450463175774e-02</internalNodes>
          <leafValues>
            -1.6975405812263489e-01 5.2319025993347168e-01</leafValues></_>
        <_>
          <internalNodes>
            0 -1 115 1.2265449389815331e-02</internalNodes>
          <leafValues>
            -1.4982081949710846e-01 5.7165044546127319e-01</leafValues></_>
        <_>
          <internalNodes>
            0 -1 210 4.3450956582091749e-04</internalNodes>
          <leafValues>
            -1.0196209698915482e-01 5.6186914443969727e-01</leafValues></_>
        <_>
          <internalNodes>
            0 -1 203 6.3431391026824713e-04</internalNodes>
          <leafValues>
            -1.5578702092170715e-01 4.6410620212554932e-01</leafValues></_>
        <_>
          <internalNodes>
            0 -1 70 1.3388566731009632e-04</internalNodes>
          <leafValues>
            1.2253003567457199e-01 -6.2190151214599609e-01</leafValues></_>
        <_>
          <internalNodes>
            0 -1 72 -3.0384382698684931e-03</internalNodes>
          <leafValues>
            4.2597955465316772e-01 -2.0589663088321686e-01</leafValues></_>
        <_>
          <internalNodes>
            0 -1 216 -4.1246338514611125e-04</internalNodes>
          <leafValues>
            -3.4379518032073975e-01 2.1067166328430176e-01</leafValues></_>
        <_>
          <internalNodes>
            0 -1 230 -9.2071641120128334e-05</internalNodes>
          <leafValues>
            4.0028086304664612e-01 -1.6898223757743835e-01</leafValues></_>
        <_>
          <internalNodes>
            0 -1 124 1.3629113091155887e-03</internalNodes>
          <leafValues>
            1.3377666473388672e-01 -5.2909052371978760e-01</leafValues></_>
        <_>
          <internalNodes>
            0 -1 96 1.3890715781599283e-03</internalNodes>
          <leafValues>
            -1.7820248007774353e-01 4.6021720767021179e-01</leafValues></_>
        <_>
          <internalNodes>
            0 -1 155 3.9606285281479359e-04</internalNodes>
          <leafValues>
            9.3688353896141052e-02 -8.7349581718444824e-01</leafValues></_>
        <_>
          <internalNodes>
            0 -1 158 -4.8674194840714335e-04</internalNodes>
          <leafValues>
            4.1951555013656616e-01 -1.8410728871822357e-01</leafValues></_>
        <_>
          <internalNodes>
            0 -1 228 -5.5712886387482285e-04</internalNodes>
          <leafValues>
            8.2488268613815308e-01 -7.7882245182991028e-02</leafValues></_>
        <_>
          <internalNodes>
            0 -1 220 4.5272083953022957e-03</internalNodes>
          <leafValues>
            -2.5746873021125793e-01 3.2348507642745972e-01</leafValues></_>
        <_>
          <internalNodes>
            0 -1 87 2.4401540867984295e-03</internalNodes>
          <leafValues>
            -1.0650809854269028e-01 7.2614753246307373e-01</leafValues></_>
        <_>
          <internalNodes>
            0 -1 75 6.7538395524024963e-03</internalNodes>
          <leafValues>
            1.2456362694501877e-01 -7.3282402753829956e-01</leafValues></_></weakClassifiers></_>
    <!-- stage 9 -->
    <_>
      <maxWeakCount>26</maxWeakCount>
      <stageThreshold>-1.5408043861389160e+00</stageThreshold>
      <weakClassifiers>
        <_>
          <internalNodes>
            0 -1 48 1.2619332410395145e-03</internalNodes>
          <leafValues>
            -6.6848194599151611e-01 4.6153846383094788e-01</leafValues></_>
        <_>
          <internalNodes>
            0 -1 18 -1.8569293897598982e-03</internalNodes>
          <leafValues>
            1.1600609123706818e-01 -5.8107346296310425e-01</leafValues></_>
        <_>
          <internalNodes>
            0 -1 91 2.6726618409156799e-02</internalNodes>
          <leafValues>
            -1.5836848318576813e-01 6.6314256191253662e-01</leafValues></_>
        <_>
          <internalNodes>
            0 -1 184 -4.7505460679531097e-03</internalNodes>
          <leafValues>
            -8.7411558628082275e-01 1.1242810636758804e-01</leafValues></_>
        <_>
          <internalNodes>
            0 -1 204 -2.5717006064951420e-04</internalNodes>
          <leafValues>
            4.5850992202758789e-01 -1.7743588984012604e-01</leafValues></_>
        <_>
          <internalNodes>
            0 -1 165 -5.6010659318417311e-04</internalNodes>
          <leafValues>
            -4.5043724775314331e-01 1.6206112504005432e-01</leafValues></_>
        <_>
          <internalNodes>
            0 -1 57 -9.0314476983621716e-04</internalNodes>
          <leafValues>
            -7.4675834178924561e-01 1.0414782911539078e-01</leafValues></_>
        <_>
          <internalNodes>
            0 -1 58 1.4927031588740647e-04</internalNodes>
          <leafValues>
            1.9891981780529022e-01 -3.3010703325271606e-01</leafValues></_>
        <_>
          <internalNodes>
            0 -1 95 -8.3501846529543400e-04</internalNodes>
          <leafValues>
            -7.5072199106216431e-01 8.3935812115669250e-02</leafValues></_>
        <_>
          <internalNodes>
            0 -1 34 -2.9968103626742959e-04</internalNodes>
          <leafValues>
            -4.5202434062957764e-01 1.3869045674800873e-01</leafValues></_>
        <_>
          <internalNodes>
            0 -1 233 -4.3934868881478906e-04</internalNodes>
          <leafValues>
            4.8725664615631104e-01 -1.4260238409042358e-01</leafValues></_>
        <_>
          <internalNodes>
            0 -1 92 -4.6957042068243027e-02</internalNodes>
          <leafValues>
            -8.2004100084304810e-01 8.6608164012432098e-02</leafValues></_>
        <_>
          <internalNodes>
            0 -1 129 -2.1483193268068135e-04</internalNodes>
          <leafValues>
            4.6711206436157227e-01 -1.6607540845870972e-01</leafValues></_>
        <_>
          <internalNodes>
            0 -1 182 5.9987965505570173e-04</internalNodes>
          <leafValues>
            -1.2431889772415161e-01 4.9712586402893066e-01</leafValues></_>
        <_>
          <internalNodes>
            0 -1 236 -9.3492271844297647e-04</internalNodes>
          <leafValues>
            -1.4689062535762787e-01 4.6023908257484436e-01</leafValues></_>
        <_>
          <internalNodes>
            0 -1 112 1.4676945284008980e-02</internalNodes>
          <leafValues>
            8.1853166222572327e-02 -8.3297240734100342e-01</leafValues></_>
        <_>
          <internalNodes>
            0 -1 68 1.0906061652349308e-04</internalNodes>
          <leafValues>
            -2.8667566180229187e-01 2.2626820206642151e-01</leafValues></_>
        <_>
          <internalNodes>
            0 -1 175 -5.5320491082966328e-04</internalNodes>
          <leafValues>
            3.4292507171630859e-01 -1.8499201536178589e-01</leafValues></_>
        <_>
          <internalNodes>
            0 -1 107 -8.9088492095470428e-03</internalNodes>
          <leafValues>
            3.9962530136108398e-01 -1.5919393301010132e-01</leafValues></_>
        <_>
          <internalNodes>
            0 -1 106 1.7087686806917191e-02</internalNodes>
          <leafValues>
            -1.8351562321186066e-01 4.6993938088417053e-01</leafValues></_>
        <_>
          <internalNodes>
            0 -1 146 7.3206971865147352e-04</internalNodes>
          <leafValues>
            -2.0805518329143524e-01 3.6396741867065430e-01</leafValues></_>
        <_>
          <internalNodes>
            0 -1 21 -1.5468102646991611e-03</internalNodes>
          <leafValues>
            2.8353050351142883e-01 -2.2140026092529297e-01</leafValues></_>
        <_>
          <internalNodes>
            0 -1 102 -1.5958741307258606e-02</internalNodes>
          <leafValues>
            -5.4185616970062256e-01 1.3468107581138611e-01</leafValues></_>
        <_>
          <internalNodes>
            0 -1 64 8.0941105261445045e-03</internalNodes>
          <leafValues>
            -1.2343373149633408e-01 6.2780523300170898e-01</leafValues></_>
        <_>
          <internalNodes>
            0 -1 161 -9.5010131190065295e-05</internalNodes>
          <leafValues>
            4.6675500273704529e-01 -1.3065734505653381e-01</leafValues></_>
        <_>
          <internalNodes>
            0 -1 213 -2.8099240735173225e-03</internalNodes>
          <leafValues>
            -6.7879033088684082e-01 9.7325168550014496e-02</leafValues></_></weakClassifiers></_>
    <!-- stage 10 -->
    <_>
      <maxWeakCount>25</maxWeakCount>
      <stageThreshold>-1.5181193351745605e+00</stageThreshold>
      <weakClassifiers>
        <_>
          <internalNodes>
            0 -1 22 4.9303495883941650e-01</internalNodes>
          <leafValues>
            -7.2320741415023804e-01 -7.6045626774430275e-03</leafValues></_>
        <_>
          <internalNodes>
            0 -1 139 -7.6253176666796207e-04</internalNodes>
          <leafValues>
            3.2095709443092346e-01 -3.3995860815048218e-01</leafValues></_>
        <_>
          <internalNodes>
            0 -1 189 -1.9859893247485161e-02</internalNodes>
          <leafValues>
            2.8975358605384827e-01 -2.9713958501815796e-01</leafValues></_>
        <_>
          <internalNodes>
            0 -1 177 -1.9634965807199478e-02</internalNodes>
          <leafValues>
            7.4898803234100342e-01 -1.3878832757472992e-01</leafValues></_>
        <_>
          <internalNodes>
            0 -1 116 -5.4539579898118973e-02</internalNodes>
          <leafValues>
            4.0265619754791260e-01 -1.8139451742172241e-01</leafValues></_>
        <_>
          <internalNodes>
            0 -1 201 -9.6629746258258820e-04</internalNodes>
          <leafValues>
            4.5996105670928955e-01 -1.5618638694286346e-01</leafValues></_>
        <_>
          <internalNodes>
            0 -1 103 7.1470914408564568e-03</internalNodes>
          <leafValues>
            7.8378319740295410e-02 -8.4987443685531616e-01</leafValues></_>
        <_>
          <internalNodes>
            0 -1 27 -6.7958340514451265e-04</internalNodes>
          <leafValues>
            3.0911016464233398e-01 -2.0542268455028534e-01</leafValues></_>
        <_>
          <internalNodes>
            0 -1 127 4.2943414300680161e-03</internalNodes>
          <leafValues>
            -1.1955715715885162e-01 5.2112972736358643e-01</leafValues></_>
        <_>
          <internalNodes>
            0 -1 159 2.3125601001083851e-03</internalNodes>
          <leafValues>
            -1.5745320916175842e-01 4.2224931716918945e-01</leafValues></_>
        <_>
          <internalNodes>
            0 -1 43 3.9848778396844864e-04</internalNodes>
          <leafValues>
            1.0737589746713638e-01 -6.8684774637222290e-01</leafValues></_>
        <_>
          <internalNodes>
            0 -1 10 9.2898011207580566e-03</internalNodes>
          <leafValues>
            -2.5820812582969666e-01 2.4488642811775208e-01</leafValues></_>
        <_>
          <internalNodes>
            0 -1 12 3.4382310695946217e-03</internalNodes>
          <leafValues>
            -1.7433510720729828e-01 5.1683831214904785e-01</leafValues></_>
        <_>
          <internalNodes>
            0 -1 16 1.0943936649709940e-04</internalNodes>
          <leafValues>
            1.4488957822322845e-01 -4.8894256353378296e-01</leafValues></_>
        <_>
          <internalNodes>
            0 -1 15 -6.4646673854440451e-04</internalNodes>
          <leafValues>
            3.5602697730064392e-01 -1.9196671247482300e-01</leafValues></_>
        <_>
          <internalNodes>
            0 -1 190 7.3668630793690681e-03</internalNodes>
          <leafValues>
            1.4383359253406525e-01 -4.6911513805389404e-01</leafValues></_>
        <_>
          <internalNodes>
            0 -1 88 -3.0785202980041504e-03</internalNodes>
          <leafValues>
            3.9825379848480225e-01 -1.7259320616722107e-01</leafValues></_>
        <_>
          <internalNodes>
            0 -1 208 -1.0512964800000191e-02</internalNodes>
          <leafValues>
            6.8488603830337524e-01 -1.0406732559204102e-01</leafValues></_>
        <_>
          <internalNodes>
            0 -1 148 2.9258903115987778e-02</internalNodes>
          <leafValues>
            -2.9596477746963501e-01 2.5560814142227173e-01</leafValues></_>
        <_>
          <internalNodes>
            0 -1 137 1.5050314366817474e-02</internalNodes>
          <leafValues>
            -1.0575400292873383e-01 6.8651664257049561e-01</leafValues></_>
        <_>
          <internalNodes>
            0 -1 135 -1.2815266847610474e-01</internalNodes>
          <leafValues>
            1.0799075663089752e-01 -7.2140872478485107e-01</leafValues></_>
        <_>
          <internalNodes>
            0 -1 232 -9.2398200649768114e-04</internalNodes>
          <leafValues>
            2.8660425543785095e-01 -2.2138530015945435e-01</leafValues></_>
        <_>
          <internalNodes>
            0 -1 133 -8.4130149334669113e-03</internalNodes>
          <leafValues>
            -6.6838574409484863e-01 8.8959552347660065e-02</leafValues></_>
        <_>
          <internalNodes>
            0 -1 179 -1.1461084941402078e-03</internalNodes>
          <leafValues>
            5.4917305707931519e-01 -1.2803319096565247e-01</leafValues></_>
        <_>
          <internalNodes>
            0 -1 178 6.9593843363691121e-05</internalNodes>
          <leafValues>
            -2.3788781464099884e-01 2.6327517628669739e-01</leafValues></_></weakClassifiers></_>
    <!-- stage 11 -->
    <_>
      <maxWeakCount>23</maxWeakCount>
      <stageThreshold>-1.4284266233444214e+00</stageThreshold>
      <weakClassifiers>
        <_>
          <internalNodes>
            0 -1 33 4.1375167667865753e-02</internalNodes>
          <leafValues>
            -7.6064544916152954e-01 -2.0584927499294281e-01</leafValues></_>
        <_>
          <internalNodes>
            0 -1 171 -2.6303568854928017e-02</internalNodes>
          <leafValues>
            1.4921140670776367e-01 -4.7461393475532532e-01</leafValues></_>
        <_>
          <internalNodes>
            0 -1 100 6.2321224249899387e-03</internalNodes>
          <leafValues>
            1.9680887460708618e-01 -4.8937746882438660e-01</leafValues></_>
        <_>
          <internalNodes>
            0 -1 215 -3.2956380164250731e-04</internalNodes>
          <leafValues>
            -5.7539403438568115e-01 1.2489643692970276e-01</leafValues></_>
        <_>
          <internalNodes>
            0 -1 128 -1.2304383562877774e-04</internalNodes>
          <leafValues>
            3.9834251999855042e-01 -2.0269846916198730e-01</leafValues></_>
        <_>
          <internalNodes>
            0 -1 202 1.7073651542887092e-04</internalNodes>
          <leafValues>
            -1.3826680183410645e-01 4.6001759171485901e-01</leafValues></_>
        <_>
          <internalNodes>
            0 -1 47 5.7980339042842388e-03</internalNodes>
          <leafValues>
            1.2785071134567261e-01 -5.8783245086669922e-01</leafValues></_>
        <_>
          <internalNodes>
            0 -1 207 -2.8923521749675274e-03</internalNodes>
          <leafValues>
            2.0740331709384918e-01 -2.9145357012748718e-01</leafValues></_>
        <_>
          <internalNodes>
            0 -1 186 -2.6697617024183273e-02</internalNodes>
          <leafValues>
            6.9290828704833984e-01 -1.1076945811510086e-01</leafValues></_>
        <_>
          <internalNodes>
            0 -1 37 2.9174467921257019e-01</internalNodes>
          <leafValues>
            -2.4176427721977234e-01 3.0621612071990967e-01</leafValues></_>
        <_>
          <internalNodes>
            0 -1 39 1.5577432513237000e-01</internalNodes>
          <leafValues>
            8.2497261464595795e-02 -8.3907294273376465e-01</leafValues></_>
        <_>
          <internalNodes>
            0 -1 188 -4.1719453292898834e-04</internalNodes>
          <leafValues>
            3.5938379168510437e-01 -1.9811242818832397e-01</leafValues></_>
        <_>
          <internalNodes>
            0 -1 196 7.4443488847464323e-04</internalNodes>
          <leafValues>
            -1.5795347094535828e-01 4.6171942353248596e-01</leafValues></_>
        <_>
          <internalNodes>
            0 -1 113 -2.9464653925970197e-04</internalNodes>
          <leafValues>
            -8.5568982362747192e-01 9.2842727899551392e-02</leafValues></_>
        <_>
          <internalNodes>
            0 -1 30 9.6260657301172614e-05</internalNodes>
          <leafValues>
            1.5689021348953247e-01 -3.6687687039375305e-01</leafValues></_>
        <_>
          <internalNodes>
            0 -1 222 2.7451105415821075e-03</internalNodes>
          <leafValues>
            1.3047179579734802e-01 -4.9414801597595215e-01</leafValues></_>
        <_>
          <internalNodes>
            0 -1 131 -1.2141693150624633e-04</internalNodes>
          <leafValues>
            -5.5584448575973511e-01 1.0448403656482697e-01</leafValues></_>
        <_>
          <internalNodes>
            0 -1 152 1.9602419342845678e-03</internalNodes>
          <leafValues>
            -1.5668962895870209e-01 4.3000099062919617e-01</leafValues></_>
        <_>
          <internalNodes>
            0 -1 130 -1.8128639785572886e-03</internalNodes>
          <leafValues>
            -1. 5.7676736265420914e-02</leafValues></_>
        <_>
          <internalNodes>
            0 -1 79 -7.4792379746213555e-04</internalNodes>
          <leafValues>
            3.7704619765281677e-01 -1.7744207382202148e-01</leafValues></_>
        <_>
          <internalNodes>
            0 -1 69 -2.0383585244417191e-02</internalNodes>
          <leafValues>
            -8.0220443010330200e-01 8.4267124533653259e-02</leafValues></_>
        <_>
          <internalNodes>
            0 -1 121 -5.4038089001551270e-04</internalNodes>
          <leafValues>
            4.2886570096015930e-01 -1.7522740364074707e-01</leafValues></_>
        <_>
          <internalNodes>
            0 -1 145 -7.3446822352707386e-04</internalNodes>
          <leafValues>
            2.9099449515342712e-01 -2.0232103765010834e-01</leafValues></_></weakClassifiers></_>
    <!-- stage 12 -->
    <_>
      <maxWeakCount>28</maxWeakCount>
      <stageThreshold>-1.4467120170593262e+00</stageThreshold>
      <weakClassifiers>
        <_>
          <internalNodes>
            0 -1 38 4.5458883047103882e-01</internalNodes>
          <leafValues>
            -7.4742269515991211e-01 -2.0725388824939728e-01</leafValues></_>
        <_>
          <internalNodes>
            0 -1 99 -1.3624660205096006e-03</internalNodes>
          <leafValues>
            2.1926227211952209e-01 -3.5737958550453186e-01</leafValues></_>
        <_>
          <internalNodes>
            0 -1 153 -1.0997189208865166e-02</internalNodes>
          <leafValues>
            2.7150350809097290e-01 -2.5042790174484253e-01</leafValues></_>
        <_>
          <internalNodes>
            0 -1 93 3.1480580219067633e-04</internalNodes>
          <leafValues>
            9.7240328788757324e-02 -6.1718058586120605e-01</leafValues></_>
        <_>
          <internalNodes>
            0 -1 41 6.8168644793331623e-04</internalNodes>
          <leafValues>
            -8.7690718472003937e-02 5.6526970863342285e-01</leafValues></_>
        <_>
          <internalNodes>
            0 -1 42 -8.9499466121196747e-03</internalNodes>
          <leafValues>
            3.0913937091827393e-01 -2.3315431177616119e-01</leafValues></_>
        <_>
          <internalNodes>
            0 -1 97 4.0552392601966858e-03</internalNodes>
          <leafValues>
            -1.6117449104785919e-01 4.1856002807617188e-01</leafValues></_>
        <_>
          <internalNodes>
            0 -1 84 1.3255912065505981e-01</internalNodes>
          <leafValues>
            1.1500829458236694e-01 -6.7485821247100830e-01</leafValues></_>
        <_>
          <internalNodes>
            0 -1 35 -4.9309956375509501e-04</internalNodes>
          <leafValues>
            3.0457738041877747e-01 -2.0113071799278259e-01</leafValues></_>
        <_>
          <internalNodes>
            0 -1 17 -3.6597356665879488e-04</internalNodes>
          <leafValues>
            -7.1853333711624146e-01 1.0366394370794296e-01</leafValues></_>
        <_>
          <internalNodes>
            0 -1 219 -3.8010871503502131e-04</internalNodes>
          <leafValues>
            3.9700624346733093e-01 -1.6591827571392059e-01</leafValues></_>
        <_>
          <internalNodes>
            0 -1 56 2.2235764190554619e-03</internalNodes>
          <leafValues>
            -7.2097010910511017e-02 7.7051579952239990e-01</leafValues></_>
        <_>
          <internalNodes>
            0 -1 26 -1.7235107719898224e-02</internalNodes>
          <leafValues>
            5.4116320610046387e-01 -1.1868511885404587e-01</leafValues></_>
        <_>
          <internalNodes>
            0 -1 142 4.7816061414778233e-03</internalNodes>
          <leafValues>
            1.0518632829189301e-01 -5.8341413736343384e-01</leafValues></_>
        <_>
          <internalNodes>
            0 -1 136 6.0164602473378181e-03</internalNodes>
          <leafValues>
            -1.3793364167213440e-01 4.4935095310211182e-01</leafValues></_>
        <_>
          <internalNodes>
            0 -1 151 -1.4691032469272614e-02</internalNodes>
          <leafValues>
            -5.5232316255569458e-01 1.1575014144182205e-01</leafValues></_>
        <_>
          <internalNodes>
            0 -1 14 -1.3296996476128697e-03</internalNodes>
          <leafValues>
            3.5318699479103088e-01 -1.8654114007949829e-01</leafValues></_>
        <_>
          <internalNodes>
            0 -1 209 -1.0333329439163208e-02</internalNodes>
          <leafValues>
            -6.9039767980575562e-01 8.8733896613121033e-02</leafValues></_>
        <_>
          <internalNodes>
            0 -1 54 1.9293604418635368e-03</internalNodes>
          <leafValues>
            -1.4003352820873260e-01 4.3229237198829651e-01</leafValues></_>
        <_>
          <internalNodes>
            0 -1 80 -2.7804484125226736e-04</internalNodes>
          <leafValues>
            -6.4416092634201050e-01 8.4086284041404724e-02</leafValues></_>
        <_>
          <internalNodes>
            0 -1 109 2.0161140710115433e-02</internalNodes>
          <leafValues>
            1.1957404017448425e-01 -4.3699264526367188e-01</leafValues></_>
        <_>
          <internalNodes>
            0 -1 217 6.7736289929598570e-04</internalNodes>
          <leafValues>
            -1.6679389774799347e-01 3.3546990156173706e-01</leafValues></_>
        <_>
          <internalNodes>
            0 -1 199 -2.2593957837671041e-03</internalNodes>
          <leafValues>
            3.5506817698478699e-01 -1.6137665510177612e-01</leafValues></_>
        <_>
          <internalNodes>
            0 -1 180 -1.9371713278815150e-04</internalNodes>
          <leafValues>
            2.4775655567646027e-01 -2.0877243578433990e-01</leafValues></_>
        <_>
          <internalNodes>
            0 -1 168 -1.6064768715295941e-04</internalNodes>
          <leafValues>
            4.2673179507255554e-01 -1.2365966290235519e-01</leafValues></_>
        <_>
          <internalNodes>
            0 -1 166 2.7965020854026079e-04</internalNodes>
          <leafValues>
            -2.9556438326835632e-01 2.4304960668087006e-01</leafValues></_>
        <_>
          <internalNodes>
            0 -1 2 -1.0492701403563842e-04</internalNodes>
          <leafValues>
            -4.2766535282135010e-01 1.4461596310138702e-01</leafValues></_>
        <_>
          <internalNodes>
            0 -1 60 2.0103152096271515e-01</internalNodes>
          <leafValues>
            5.5691704154014587e-02 -9.0070796012878418e-01</leafValues></_></weakClassifiers></_></stages>
  <features>
    <_>
      <rects>
        <_>
          0 0 32 5 -1.</_>
        <_>
          16 0 16 5 2.</_></rects>
      <tilted>0</tilted></_>
    <_>
      <rects>
        <_>
          0 1 32 2 -1.</_>
        <_>
          16 1 16 2 2.</_></rects>
      <tilted>0</tilted></_>
    <_>
      <rects>
        <_>
          0 4 2 8 -1.</_>
        <_>
          1 4 1 8 2.</_></rects>
      <tilted>0</tilted></_>
    <_>
      <rects>
        <_>
          0 8 4 3 -1.</_>
        <_>
          2 8 2 3 2.</_></rects>
      <tilted>0</tilted></_>
    <_>
      <rects>
        <_>
          0 9 12 16 -1.</_>
        <_>
          6 9 6 16 2.</_></rects>
      <tilted>0</tilted></_>
    <_>
      <rects>
        <_>
          0 9 16 14 -1.</_>
        <_>
          8 9 8 14 2.</_></rects>
      <tilted>0</tilted></_>
    <_>
      <rects>
        <_>
          0 9 39 24 -1.</_>
        <_>
          0 21 39 12 2.</_></rects>
      <tilted>0</tilted></_>
    <_>
      <rects>
        <_>
          0 10 14 28 -1.</_>
        <_>
          0 10 7 14 2.</_>
        <_>
          7 24 7 14 2.</_></rects>
      <tilted>0</tilted></_>
    <_>
      <rects>
        <_>
          0 10 30 4 -1.</_>
        <_>
          10 10 10 4 2.</_></rects>
      <tilted>0</tilted></_>
    <_>
      <rects>
        <_>
          0 14 1 20 -1.</_>
        <_>
          0 24 1 10 2.</_></rects>
      <tilted>0</tilted></_>
    <_>
      <rects>
        <_>
          0 16 10 14 -1.</_>
        <_>
          5 16 5 14 2.</_></rects>
      <tilted>0</tilted></_>
    <_>
      <rects>
        <_>
          0 17 8 12 -1.</_>
        <_>
          0 17 4 6 2.</_>
        <_>
          4 23 4 6 2.</_></rects>
      <tilted>0</tilted></_>
    <_>
      <rects>
        <_>
          0 18 8 12 -1.</_>
        <_>
          0 18 4 6 2.</_>
        <_>
          4 24 4 6 2.</_></rects>
      <tilted>0</tilted></_>
    <_>
      <rects>
        <_>
          0 22 3 6 -1.</_>
        <_>
          0 24 3 2 2.</_></rects>
      <tilted>0</tilted></_>
    <_>
      <rects>
        <_>
          0 25 40 2 -1.</_>
        <_>
          0 25 20 1 2.</_>
        <_>
          20 26 20 1 2.</_></rects>
      <tilted>0</tilted></_>
    <_>
      <rects>
        <_>
          0 30 4 10 -1.</_>
        <_>
          0 30 2 5 2.</_>
        <_>
          2 35 2 5 2.</_></rects>
      <tilted>0</tilted></_>
    <_>
      <rects>
        <_>
          0 31 4 1 -1.</_>
        <_>
          2 31 2 1 2.</_></rects>
      <tilted>0</tilted></_>
    <_>
      <rects>
        <_>
          0 31 4 2 -1.</_>
        <_>
          2 31 2 2 2.</_></rects>
      <tilted>0</tilted></_>
    <_>
      <rects>
        <_>
          0 34 10 6 -1.</_>
        <_>
          0 37 10 3 2.</_></rects>
      <tilted>0</tilted></_>
    <_>
      <rects>
        <_>
          0 36 30 4 -1.</_>
        <_>
          0 38 30 2 2.</_></rects>
      <tilted>0</tilted></_>
    <_>
      <rects>
        <_>
          0 36 31 4 -1.</_>
        <_>
          0 38 31 2 2.</_></rects>
      <tilted>0</tilted></_>
    <_>
      <rects>
        <_>
          0 38 17 2 -1.</_>
        <_>
          0 39 17 1 2.</_></rects>
      <tilted>0</tilted></_>
    <_>
      <rects>
        <_>
          1 0 34 32 -1.</_>
        <_>
          1 16 34 16 2.</_></rects>
      <tilted>0</tilted></_>
    <_>
      <rects>
        <_>
          1 2 8 10 -1.</_>
        <_>
          5 2 4 10 2.</_></rects>
      <tilted>0</tilted></_>
    <_>
      <rects>
        <_>
          1 4 31 26 -1.</_>
        <_>
          1 17 31 13 2.</_></rects>
      <tilted>0</tilted></_>
    <_>
      <rects>
        <_>
          1 7 10 21 -1.</_>
        <_>
          6 7 5 21 2.</_></rects>
      <tilted>0</tilted></_>
    <_>
      <rects>
        <_>
          1 9 10 29 -1.</_>
        <_>
          6 9 5 29 2.</_></rects>
      <tilted>0</tilted></_>
    <_>
      <rects>
        <_>
          1 11 28 2 -1.</_>
        <_>
          1 11 14 1 2.</_>
        <_>
          15 12 14 1 2.</_></rects>
      <tilted>0</tilted></_>
    <_>
      <rects>
        <_>
          1 12 27 1 -1.</_>
        <_>
          10 12 9 1 2.</_></rects>
      <tilted>0</tilted></_>
    <_>
      <rects>
        <_>
          1 13 34 6 -1.</_>
        <_>
          1 16 34 3 2.</_></rects>
      <tilted>0</tilted></_>
    <_>
      <rects>
        <_>
          1 31 6 7 -1.</_>
        <_>
          4 31 3 7 2.</_></rects>
      <tilted>0</tilted></_>
    <_>
      <rects>
        <_>
          1 33 8 7 -1.</_>
        <_>
          5 33 4 7 2.</_></rects>
      <tilted>0</tilted></_>
    <_>
      <rects>
        <_>
          1 37 4 1 -1.</_>
        <_>
          3 37 2 1 2.</_></rects>
      <tilted>0</tilted></_>
    <_>
      <rects>
        <_>
          2 1 12 20 -1.</_>
        <_>
          8 1 6 20 2.</_></rects>
      <tilted>0</tilted></_>
    <_>
      <rects>
        <_>
          2 2 4 7 -1.</_>
        <_>
          4 2 2 7 2.</_></rects>
      <tilted>0</tilted></_>
    <_>
      <rects>
        <_>
          2 14 2 14 -1.</_>
        <_>
          2 14 1 7 2.</_>
        <_>
          3 21 1 7 2.</_></rects>
      <tilted>0</tilted></_>
    <_>
      <rects>
        <_>
          2 32 4 1 -1.</_>
        <_>
          4 32 2 1 2.</_></rects>
      <tilted>0</tilted></_>
    <_>
      <rects>
        <_>
          3 0 31 32 -1.</_>
        <_>
          3 16 31 16 2.</_></rects>
      <tilted>0</tilted></_>
    <_>
      <rects>
        <_>
          3 0 34 32 -1.</_>
        <_>
          3 16 34 16 2.</_></rects>
      <tilted>0</tilted></_>
    <_>
      <rects>
        <_>
          3 7 17 20 -1.</_>
        <_>
          3 17 17 10 2.</_></rects>
      <tilted>0</tilted></_>
    <_>
      <rects>
        <_>
          3 12 6 16 -1.</_>
        <_>
          3 20 6 8 2.</_></rects>
      <tilted>0</tilted></_>
    <_>
      <rects>
        <_>
          3 14 2 8 -1.</_>
        <_>
          3 14 1 4 2.</_>
        <_>
          4 18 1 4 2.</_></rects>
      <tilted>0</tilted></_>
    <_>
      <rects>
        <_>
          3 22 14 14 -1.</_>
        <_>
          3 29 14 7 2.</_></rects>
      <tilted>0</tilted></_>
    <_>
      <rects>
        <_>
          3 29 2 8 -1.</_>
        <_>
          4 29 1 8 2.</_></rects>
      <tilted>0</tilted></_>
    <_>
      <rects>
        <_>
          3 29 4 5 -1.</_>
        <_>
          5 29 2 5 2.</_></rects>
      <tilted>0</tilted></_>
    <_>
      <rects>
        <_>
          3 34 5 6 -1.</_>
        <_>
          3 37 5 3 2.</_></rects>
      <tilted>0</tilted></_>
    <_>
      <rects>
        <_>
          4 2 9 6 -1.</_>
        <_>
          4 5 9 3 2.</_></rects>
      <tilted>0</tilted></_>
    <_>
      <rects>
        <_>
          4 6 35 4 -1.</_>
        <_>
          4 8 35 2 2.</_></rects>
      <tilted>0</tilted></_>
    <_>
      <rects>
        <_>
          4 7 27 2 -1.</_>
        <_>
          13 7 9 2 2.</_></rects>
      <tilted>0</tilted></_>
    <_>
      <rects>
        <_>
          4 8 31 18 -1.</_>
        <_>
          4 17 31 9 2.</_></rects>
      <tilted>0</tilted></_>
    <_>
      <rects>
        <_>
          4 11 6 27 -1.</_>
        <_>
          7 11 3 27 2.</_></rects>
      <tilted>0</tilted></_>
    <_>
      <rects>
        <_>
          4 11 8 14 -1.</_>
        <_>
          4 11 4 7 2.</_>
        <_>
          8 18 4 7 2.</_></rects>
      <tilted>0</tilted></_>
    <_>
      <rects>
        <_>
          4 12 30 8 -1.</_>
        <_>
          4 16 30 4 2.</_></rects>
      <tilted>0</tilted></_>
    <_>
      <rects>
        <_>
          4 29 4 5 -1.</_>
        <_>
          6 29 2 5 2.</_></rects>
      <tilted>0</tilted></_>
    <_>
      <rects>
        <_>
          5 0 22 2 -1.</_>
        <_>
          5 1 22 1 2.</_></rects>
      <tilted>0</tilted></_>
    <_>
      <rects>
        <_>
          5 10 4 18 -1.</_>
        <_>
          5 10 2 9 2.</_>
        <_>
          7 19 2 9 2.</_></rects>
      <tilted>0</tilted></_>
    <_>
      <rects>
        <_>
          5 10 21 4 -1.</_>
        <_>
          12 10 7 4 2.</_></rects>
      <tilted>0</tilted></_>
    <_>
      <rects>
        <_>
          5 27 4 8 -1.</_>
        <_>
          7 27 2 8 2.</_></rects>
      <tilted>0</tilted></_>
    <_>
      <rects>
        <_>
          5 30 8 6 -1.</_>
        <_>
          9 30 4 6 2.</_></rects>
      <tilted>0</tilted></_>
    <_>
      <rects>
        <_>
          5 31 4 6 -1.</_>
        <_>
          7 31 2 6 2.</_></rects>
      <tilted>0</tilted></_>
    <_>
      <rects>
        <_>
          6 6 19 22 -1.</_>
        <_>
          6 17 19 11 2.</_></rects>
      <tilted>0</tilted></_>
    <_>
      <rects>
        <_>
          6 8 8 14 -1.</_>
        <_>
          6 8 4 7 2.</_>
        <_>
          10 15 4 7 2.</_></rects>
      <tilted>0</tilted></_>
    <_>
      <rects>
        <_>
          6 9 8 12 -1.</_>
        <_>
          6 9 4 6 2.</_>
        <_>
          10 15 4 6 2.</_></rects>
      <tilted>0</tilted></_>
    <_>
      <rects>
        <_>
          6 10 8 18 -1.</_>
        <_>
          6 10 4 9 2.</_>
        <_>
          10 19 4 9 2.</_></rects>
      <tilted>0</tilted></_>
    <_>
      <rects>
        <_>
          6 14 32 2 -1.</_>
        <_>
          6 15 32 1 2.</_></rects>
      <tilted>0</tilted></_>
    <_>
      <rects>
        <_>
          6 25 2 15 -1.</_>
        <_>
          6 30 2 5 2.</_></rects>
      <tilted>0</tilted></_>
    <_>
      <rects>
        <_>
          6 27 21 3 -1.</_>
        <_>
          13 27 7 3 2.</_></rects>
      <tilted>0</tilted></_>
    <_>
      <rects>
        <_>
          6 38 24 2 -1.</_>
        <_>
          6 38 12 1 2.</_>
        <_>
          18 39 12 1 2.</_></rects>
      <tilted>0</tilted></_>
    <_>
      <rects>
        <_>
          7 9 22 2 -1.</_>
        <_>
          7 10 22 1 2.</_></rects>
      <tilted>0</tilted></_>
    <_>
      <rects>
        <_>
          7 18 24 10 -1.</_>
        <_>
          7 18 12 5 2.</_>
        <_>
          19 23 12 5 2.</_></rects>
      <tilted>0</tilted></_>
    <_>
      <rects>
        <_>
          7 25 2 8 -1.</_>
        <_>
          7 25 1 4 2.</_>
        <_>
          8 29 1 4 2.</_></rects>
      <tilted>0</tilted></_>
    <_>
      <rects>
        <_>
          7 36 25 4 -1.</_>
        <_>
          7 38 25 2 2.</_></rects>
      <tilted>0</tilted></_>
    <_>
      <rects>
        <_>
          8 0 18 4 -1.</_>
        <_>
          8 0 9 2 2.</_>
        <_>
          17 2 9 2 2.</_></rects>
      <tilted>0</tilted></_>
    <_>
      <rects>
        <_>
          8 0 19 6 -1.</_>
        <_>
          8 3 19 3 2.</_></rects>
      <tilted>0</tilted></_>
    <_>
      <rects>
        <_>
          8 3 17 30 -1.</_>
        <_>
          8 18 17 15 2.</_></rects>
      <tilted>0</tilted></_>
    <_>
      <rects>
        <_>
          8 7 24 4 -1.</_>
        <_>
          8 9 24 2 2.</_></rects>
      <tilted>0</tilted></_>
    <_>
      <rects>
        <_>
          8 14 12 2 -1.</_>
        <_>
          8 14 6 1 2.</_>
        <_>
          14 15 6 1 2.</_></rects>
      <tilted>0</tilted></_>
    <_>
      <rects>
        <_>
          8 17 22 22 -1.</_>
        <_>
          8 17 11 11 2.</_>
        <_>
          19 28 11 11 2.</_></rects>
      <tilted>0</tilted></_>
    <_>
      <rects>
        <_>
          8 22 2 13 -1.</_>
        <_>
          9 22 1 13 2.</_></rects>
      <tilted>0</tilted></_>
    <_>
      <rects>
        <_>
          8 23 28 2 -1.</_>
        <_>
          8 23 14 1 2.</_>
        <_>
          22 24 14 1 2.</_></rects>
      <tilted>0</tilted></_>
    <_>
      <rects>
        <_>
          8 24 2 10 -1.</_>
        <_>
          8 24 1 5 2.</_>
        <_>
          9 29 1 5 2.</_></rects>
      <tilted>0</tilted></_>
    <_>
      <rects>
        <_>
          8 34 24 6 -1.</_>
        <_>
          8 37 24 3 2.</_></rects>
      <tilted>0</tilted></_>
    <_>
      <rects>
        <_>
          8 36 5 4 -1.</_>
        <_>
          8 38 5 2 2.</_></rects>
      <tilted>0</tilted></_>
    <_>
      <rects>
        <_>
          9 0 15 4 -1.</_>
        <_>
          9 2 15 2 2.</_></rects>
      <tilted>0</tilted></_>
    <_>
      <rects>
        <_>
          9 1 13 22 -1.</_>
        <_>
          9 12 13 11 2.</_></rects>
      <tilted>0</tilted></_>
    <_>
      <rects>
        <_>
          9 13 6 6 -1.</_>
        <_>
          9 13 3 3 2.</_>
        <_>
          12 16 3 3 2.</_></rects>
      <tilted>0</tilted></_>
    <_>
      <rects>
        <_>
          9 13 8 6 -1.</_>
        <_>
          9 13 4 3 2.</_>
        <_>
          13 16 4 3 2.</_></rects>
      <tilted>0</tilted></_>
    <_>
      <rects>
        <_>
          9 38 22 2 -1.</_>
        <_>
          9 39 22 1 2.</_></rects>
      <tilted>0</tilted></_>
    <_>
      <rects>
        <_>
          10 0 18 4 -1.</_>
        <_>
          10 0 9 2 2.</_>
        <_>
          19 2 9 2 2.</_></rects>
      <tilted>0</tilted></_>
    <_>
      <rects>
        <_>
          10 10 10 14 -1.</_>
        <_>
          10 10 5 7 2.</_>
        <_>
          15 17 5 7 2.</_></rects>
      <tilted>0</tilted></_>
    <_>
      <rects>
        <_>
          10 10 15 3 -1.</_>
        <_>
          10 11 15 1 2.</_></rects>
      <tilted>0</tilted></_>
    <_>
      <rects>
        <_>
          10 14 23 4 -1.</_>
        <_>
          10 16 23 2 2.</_></rects>
      <tilted>0</tilted></_>
    <_>
      <rects>
        <_>
          10 17 30 14 -1.</_>
        <_>
          10 17 15 7 2.</_>
        <_>
          25 24 15 7 2.</_></rects>
      <tilted>0</tilted></_>
    <_>
      <rects>
        <_>
          10 20 2 18 -1.</_>
        <_>
          10 20 1 9 2.</_>
        <_>
          11 29 1 9 2.</_></rects>
      <tilted>0</tilted></_>
    <_>
      <rects>
        <_>
          10 20 12 12 -1.</_>
        <_>
          10 20 6 6 2.</_>
        <_>
          16 26 6 6 2.</_></rects>
      <tilted>0</tilted></_>
    <_>
      <rects>
        <_>
          10 30 6 3 -1.</_>
        <_>
          13 30 3 3 2.</_></rects>
      <tilted>0</tilted></_>
    <_>
      <rects>
        <_>
          11 0 10 4 -1.</_>
        <_>
          11 0 5 2 2.</_>
        <_>
          16 2 5 2 2.</_></rects>
      <tilted>0</tilted></_>
    <_>
      <rects>
        <_>
          11 10 10 2 -1.</_>
        <_>
          16 10 5 2 2.</_></rects>
      <tilted>0</tilted></_>
    <_>
      <rects>
        <_>
          11 11 10 3 -1.</_>
        <_>
          16 11 5 3 2.</_></rects>
      <tilted>0</tilted></_>
    <_>
      <rects>
        <_>
          11 13 8 1 -1.</_>
        <_>
          15 13 4 1 2.</_></rects>
      <tilted>0</tilted></_>
    <_>
      <rects>
        <_>
          11 19 24 8 -1.</_>
        <_>
          11 23 24 4 2.</_></rects>
      <tilted>0</tilted></_>
    <_>
      <rects>
        <_>
          11 20 2 16 -1.</_>
        <_>
          11 20 1 8 2.</_>
        <_>
          12 28 1 8 2.</_></rects>
      <tilted>0</tilted></_>
    <_>
      <rects>
        <_>
          11 21 16 18 -1.</_>
        <_>
          11 21 8 9 2.</_>
        <_>
          19 30 8 9 2.</_></rects>
      <tilted>0</tilted></_>
    <_>
      <rects>
        <_>
          11 22 14 12 -1.</_>
        <_>
          11 22 7 6 2.</_>
        <_>
          18 28 7 6 2.</_></rects>
      <tilted>0</tilted></_>
    <_>
      <rects>
        <_>
          11 36 23 4 -1.</_>
        <_>
          11 38 23 2 2.</_></rects>
      <tilted>0</tilted></_>
    <_>
      <rects>
        <_>
          11 39 9 1 -1.</_>
        <_>
          14 39 3 1 2.</_></rects>
      <tilted>0</tilted></_>
    <_>
      <rects>
        <_>
          12 2 10 9 -1.</_>
        <_>
          17 2 5 9 2.</_></rects>
      <tilted>0</tilted></_>
    <_>
      <rects>
        <_>
          12 3 6 10 -1.</_>
        <_>
          15 3 3 10 2.</_></rects>
      <tilted>0</tilted></_>
    <_>
      <rects>
        <_>
          12 4 8 11 -1.</_>
        <_>
          16 4 4 11 2.</_></rects>
      <tilted>0</tilted></_>
    <_>
      <rects>
        <_>
          12 4 28 16 -1.</_>
        <_>
          12 4 14 8 2.</_>
        <_>
          26 12 14 8 2.</_></rects>
      <tilted>0</tilted></_>
    <_>
      <rects>
        <_>
          12 11 8 1 -1.</_>
        <_>
          16 11 4 1 2.</_></rects>
      <tilted>0</tilted></_>
    <_>
      <rects>
        <_>
          12 19 2 14 -1.</_>
        <_>
          12 19 1 7 2.</_>
        <_>
          13 26 1 7 2.</_></rects>
      <tilted>0</tilted></_>
    <_>
      <rects>
        <_>
          12 19 26 8 -1.</_>
        <_>
          12 19 13 4 2.</_>
        <_>
          25 23 13 4 2.</_></rects>
      <tilted>0</tilted></_>
    <_>
      <rects>
        <_>
          12 23 2 8 -1.</_>
        <_>
          12 23 1 4 2.</_>
        <_>
          13 27 1 4 2.</_></rects>
      <tilted>0</tilted></_>
    <_>
      <rects>
        <_>
          12 35 1 2 -1.</_>
        <_>
          12 36 1 1 2.</_></rects>
      <tilted>0</tilted></_>
    <_>
      <rects>
        <_>
          13 4 10 5 -1.</_>
        <_>
          18 4 5 5 2.</_></rects>
      <tilted>0</tilted></_>
    <_>
      <rects>
        <_>
          13 4 24 13 -1.</_>
        <_>
          25 4 12 13 2.</_></rects>
      <tilted>0</tilted></_>
    <_>
      <rects>
        <_>
          13 6 8 6 -1.</_>
        <_>
          13 6 4 3 2.</_>
        <_>
          17 9 4 3 2.</_></rects>
      <tilted>0</tilted></_>
    <_>
      <rects>
        <_>
          13 6 6 34 -1.</_>
        <_>
          13 23 6 17 2.</_></rects>
      <tilted>0</tilted></_>
    <_>
      <rects>
        <_>
          13 10 10 14 -1.</_>
        <_>
          13 10 5 7 2.</_>
        <_>
          18 17 5 7 2.</_></rects>
      <tilted>0</tilted></_>
    <_>
      <rects>
        <_>
          13 11 8 4 -1.</_>
        <_>
          13 11 4 2 2.</_>
        <_>
          17 13 4 2 2.</_></rects>
      <tilted>0</tilted></_>
    <_>
      <rects>
        <_>
          13 14 8 2 -1.</_>
        <_>
          13 14 4 1 2.</_>
        <_>
          17 15 4 1 2.</_></rects>
      <tilted>0</tilted></_>
    <_>
      <rects>
        <_>
          13 17 4 22 -1.</_>
        <_>
          13 17 2 11 2.</_>
        <_>
          15 28 2 11 2.</_></rects>
      <tilted>0</tilted></_>
    <_>
      <rects>
        <_>
          13 32 1 8 -1.</_>
        <_>
          13 36 1 4 2.</_></rects>
      <tilted>0</tilted></_>
    <_>
      <rects>
        <_>
          14 0 12 1 -1.</_>
        <_>
          20 0 6 1 2.</_></rects>
      <tilted>0</tilted></_>
    <_>
      <rects>
        <_>
          14 4 6 10 -1.</_>
        <_>
          17 4 3 10 2.</_></rects>
      <tilted>0</tilted></_>
    <_>
      <rects>
        <_>
          14 5 8 8 -1.</_>
        <_>
          18 5 4 8 2.</_></rects>
      <tilted>0</tilted></_>
    <_>
      <rects>
        <_>
          14 8 24 1 -1.</_>
        <_>
          26 8 12 1 2.</_></rects>
      <tilted>0</tilted></_>
    <_>
      <rects>
        <_>
          14 12 5 2 -1.</_>
        <_>
          14 13 5 1 2.</_></rects>
      <tilted>0</tilted></_>
    <_>
      <rects>
        <_>
          14 14 4 2 -1.</_>
        <_>
          14 15 4 1 2.</_></rects>
      <tilted>0</tilted></_>
    <_>
      <rects>
        <_>
          14 16 1 8 -1.</_>
        <_>
          14 20 1 4 2.</_></rects>
      <tilted>0</tilted></_>
    <_>
      <rects>
        <_>
          14 21 2 5 -1.</_>
        <_>
          15 21 1 5 2.</_></rects>
      <tilted>0</tilted></_>
    <_>
      <rects>
        <_>
          14 22 6 15 -1.</_>
        <_>
          17 22 3 15 2.</_></rects>
      <tilted>0</tilted></_>
    <_>
      <rects>
        <_>
          14 37 9 1 -1.</_>
        <_>
          17 37 3 1 2.</_></rects>
      <tilted>0</tilted></_>
    <_>
      <rects>
        <_>
          15 0 2 10 -1.</_>
        <_>
          15 0 1 5 2.</_>
        <_>
          16 5 1 5 2.</_></rects>
      <tilted>0</tilted></_>
    <_>
      <rects>
        <_>
          15 1 14 33 -1.</_>
        <_>
          15 12 14 11 2.</_></rects>
      <tilted>0</tilted></_>
    <_>
      <rects>
        <_>
          15 4 6 12 -1.</_>
        <_>
          15 4 3 6 2.</_>
        <_>
          18 10 3 6 2.</_></rects>
      <tilted>0</tilted></_>
    <_>
      <rects>
        <_>
          15 7 8 5 -1.</_>
        <_>
          19 7 4 5 2.</_></rects>
      <tilted>0</tilted></_>
    <_>
      <rects>
        <_>
          15 7 8 14 -1.</_>
        <_>
          15 7 4 7 2.</_>
        <_>
          19 14 4 7 2.</_></rects>
      <tilted>0</tilted></_>
    <_>
      <rects>
        <_>
          15 13 6 1 -1.</_>
        <_>
          18 13 3 1 2.</_></rects>
      <tilted>0</tilted></_>
    <_>
      <rects>
        <_>
          15 16 22 2 -1.</_>
        <_>
          15 16 11 1 2.</_>
        <_>
          26 17 11 1 2.</_></rects>
      <tilted>0</tilted></_>
    <_>
      <rects>
        <_>
          15 22 16 12 -1.</_>
        <_>
          15 22 8 6 2.</_>
        <_>
          23 28 8 6 2.</_></rects>
      <tilted>0</tilted></_>
    <_>
      <rects>
        <_>
          15 26 18 10 -1.</_>
        <_>
          15 26 9 5 2.</_>
        <_>
          24 31 9 5 2.</_></rects>
      <tilted>0</tilted></_>
    <_>
      <rects>
        <_>
          15 34 1 6 -1.</_>
        <_>
          15 37 1 3 2.</_></rects>
      <tilted>0</tilted></_>
    <_>
      <rects>
        <_>
          15 34 11 6 -1.</_>
        <_>
          15 37 11 3 2.</_></rects>
      <tilted>0</tilted></_>
    <_>
      <rects>
        <_>
          15 36 1 4 -1.</_>
        <_>
          15 38 1 2 2.</_></rects>
      <tilted>0</tilted></_>
    <_>
      <rects>
        <_>
          16 7 4 12 -1.</_>
        <_>
          16 7 2 6 2.</_>
        <_>
          18 13 2 6 2.</_></rects>
      <tilted>0</tilted></_>
    <_>
      <rects>
        <_>
          16 7 5 3 -1.</_>
        <_>
          16 8 5 1 2.</_></rects>
      <tilted>0</tilted></_>
    <_>
      <rects>
        <_>
          16 12 24 10 -1.</_>
        <_>
          16 17 24 5 2.</_></rects>
      <tilted>0</tilted></_>
    <_>
      <rects>
        <_>
          16 13 17 4 -1.</_>
        <_>
          16 15 17 2 2.</_></rects>
      <tilted>0</tilted></_>
    <_>
      <rects>
        <_>
          16 20 12 12 -1.</_>
        <_>
          16 20 6 6 2.</_>
        <_>
          22 26 6 6 2.</_></rects>
      <tilted>0</tilted></_>
    <_>
      <rects>
        <_>
          16 20 12 20 -1.</_>
        <_>
          16 20 6 10 2.</_>
        <_>
          22 30 6 10 2.</_></rects>
      <tilted>0</tilted></_>
    <_>
      <rects>
        <_>
          16 22 22 4 -1.</_>
        <_>
          16 22 11 2 2.</_>
        <_>
          27 24 11 2 2.</_></rects>
      <tilted>0</tilted></_>
    <_>
      <rects>
        <_>
          16 36 16 4 -1.</_>
        <_>
          16 38 16 2 2.</_></rects>
      <tilted>0</tilted></_>
    <_>
      <rects>
        <_>
          17 2 9 30 -1.</_>
        <_>
          17 12 9 10 2.</_></rects>
      <tilted>0</tilted></_>
    <_>
      <rects>
        <_>
          17 19 2 12 -1.</_>
        <_>
          17 19 1 6 2.</_>
        <_>
          18 25 1 6 2.</_></rects>
      <tilted>0</tilted></_>
    <_>
      <rects>
        <_>
          17 38 11 2 -1.</_>
        <_>
          17 39 11 1 2.</_></rects>
      <tilted>0</tilted></_>
    <_>
      <rects>
        <_>
          18 8 6 4 -1.</_>
        <_>
          18 8 3 2 2.</_>
        <_>
          21 10 3 2 2.</_></rects>
      <tilted>0</tilted></_>
    <_>
      <rects>
        <_>
          18 11 4 4 -1.</_>
        <_>
          18 11 2 2 2.</_>
        <_>
          20 13 2 2 2.</_></rects>
      <tilted>0</tilted></_>
    <_>
      <rects>
        <_>
          18 37 18 2 -1.</_>
        <_>
          18 37 9 1 2.</_>
        <_>
          27 38 9 1 2.</_></rects>
      <tilted>0</tilted></_>
    <_>
      <rects>
        <_>
          19 3 4 11 -1.</_>
        <_>
          21 3 2 11 2.</_></rects>
      <tilted>0</tilted></_>
    <_>
      <rects>
        <_>
          19 14 1 2 -1.</_>
        <_>
          19 15 1 1 2.</_></rects>
      <tilted>0</tilted></_>
    <_>
      <rects>
        <_>
          19 19 4 16 -1.</_>
        <_>
          19 19 2 8 2.</_>
        <_>
          21 27 2 8 2.</_></rects>
      <tilted>0</tilted></_>
    <_>
      <rects>
        <_>
          19 29 10 8 -1.</_>
        <_>
          24 29 5 8 2.</_></rects>
      <tilted>0</tilted></_>
    <_>
      <rects>
        <_>
          19 36 5 4 -1.</_>
        <_>
          19 38 5 2 2.</_></rects>
      <tilted>0</tilted></_>
    <_>
      <rects>
        <_>
          20 0 12 1 -1.</_>
        <_>
          26 0 6 1 2.</_></rects>
      <tilted>0</tilted></_>
    <_>
      <rects>
        <_>
          20 13 1 6 -1.</_>
        <_>
          20 16 1 3 2.</_></rects>
      <tilted>0</tilted></_>
    <_>
      <rects>
        <_>
          20 19 16 12 -1.</_>
        <_>
          20 19 8 6 2.</_>
        <_>
          28 25 8 6 2.</_></rects>
      <tilted>0</tilted></_>
    <_>
      <rects>
        <_>
          21 15 2 2 -1.</_>
        <_>
          21 16 2 1 2.</_></rects>
      <tilted>0</tilted></_>
    <_>
      <rects>
        <_>
          21 17 4 14 -1.</_>
        <_>
          21 17 2 7 2.</_>
        <_>
          23 24 2 7 2.</_></rects>
      <tilted>0</tilted></_>
    <_>
      <rects>
        <_>
          21 25 4 10 -1.</_>
        <_>
          21 30 4 5 2.</_></rects>
      <tilted>0</tilted></_>
    <_>
      <rects>
        <_>
          21 30 19 10 -1.</_>
        <_>
          21 35 19 5 2.</_></rects>
      <tilted>0</tilted></_>
    <_>
      <rects>
        <_>
          22 11 13 12 -1.</_>
        <_>
          22 17 13 6 2.</_></rects>
      <tilted>0</tilted></_>
    <_>
      <rects>
        <_>
          22 12 13 8 -1.</_>
        <_>
          22 16 13 4 2.</_></rects>
      <tilted>0</tilted></_>
    <_>
      <rects>
        <_>
          22 13 13 6 -1.</_>
        <_>
          22 16 13 3 2.</_></rects>
      <tilted>0</tilted></_>
    <_>
      <rects>
        <_>
          22 29 18 2 -1.</_>
        <_>
          22 29 9 1 2.</_>
        <_>
          31 30 9 1 2.</_></rects>
      <tilted>0</tilted></_>
    <_>
      <rects>
        <_>
          23 9 10 12 -1.</_>
        <_>
          23 15 10 6 2.</_></rects>
      <tilted>0</tilted></_>
    <_>
      <rects>
        <_>
          23 10 7 10 -1.</_>
        <_>
          23 15 7 5 2.</_></rects>
      <tilted>0</tilted></_>
    <_>
      <rects>
        <_>
          23 15 2 2 -1.</_>
        <_>
          23 16 2 1 2.</_></rects>
      <tilted>0</tilted></_>
    <_>
      <rects>
        <_>
          23 15 8 2 -1.</_>
        <_>
          23 16 8 1 2.</_></rects>
      <tilted>0</tilted></_>
    <_>
      <rects>
        <_>
          23 35 2 2 -1.</_>
        <_>
          23 36 2 1 2.</_></rects>
      <tilted>0</tilted></_>
    <_>
      <rects>
        <_>
          24 17 4 12 -1.</_>
        <_>
          24 17 2 6 2.</_>
        <_>
          26 23 2 6 2.</_></rects>
      <tilted>0</tilted></_>
    <_>
      <rects>
        <_>
          24 29 14 2 -1.</_>
        <_>
          24 29 7 1 2.</_>
        <_>
          31 30 7 1 2.</_></rects>
      <tilted>0</tilted></_>
    <_>
      <rects>
        <_>
          25 16 2 14 -1.</_>
        <_>
          25 16 1 7 2.</_>
        <_>
          26 23 1 7 2.</_></rects>
      <tilted>0</tilted></_>
    <_>
      <rects>
        <_>
          26 24 2 10 -1.</_>
        <_>
          26 29 2 5 2.</_></rects>
      <tilted>0</tilted></_>
    <_>
      <rects>
        <_>
          26 37 11 2 -1.</_>
        <_>
          26 38 11 1 2.</_></rects>
      <tilted>0</tilted></_>
    <_>
      <rects>
        <_>
          27 11 7 10 -1.</_>
        <_>
          27 16 7 5 2.</_></rects>
      <tilted>0</tilted></_>
    <_>
      <rects>
        <_>
          27 15 9 6 -1.</_>
        <_>
          27 18 9 3 2.</_></rects>
      <tilted>0</tilted></_>
    <_>
      <rects>
        <_>
          27 22 12 2 -1.</_>
        <_>
          27 22 6 1 2.</_>
        <_>
          33 23 6 1 2.</_></rects>
      <tilted>0</tilted></_>
    <_>
      <rects>
        <_>
          27 29 13 10 -1.</_>
        <_>
          27 34 13 5 2.</_></rects>
      <tilted>0</tilted></_>
    <_>
      <rects>
        <_>
          28 1 12 13 -1.</_>
        <_>
          34 1 6 13 2.</_></rects>
      <tilted>0</tilted></_>
    <_>
      <rects>
        <_>
          28 7 1 16 -1.</_>
        <_>
          28 15 1 8 2.</_></rects>
      <tilted>0</tilted></_>
    <_>
      <rects>
        <_>
          28 11 12 10 -1.</_>
        <_>
          28 11 6 5 2.</_>
        <_>
          34 16 6 5 2.</_></rects>
      <tilted>0</tilted></_>
    <_>
      <rects>
        <_>
          28 14 12 10 -1.</_>
        <_>
          34 14 6 10 2.</_></rects>
      <tilted>0</tilted></_>
    <_>
      <rects>
        <_>
          28 16 8 2 -1.</_>
        <_>
          28 16 4 1 2.</_>
        <_>
          32 17 4 1 2.</_></rects>
      <tilted>0</tilted></_>
    <_>
      <rects>
        <_>
          28 16 10 2 -1.</_>
        <_>
          28 16 5 1 2.</_>
        <_>
          33 17 5 1 2.</_></rects>
      <tilted>0</tilted></_>
    <_>
      <rects>
        <_>
          28 22 12 2 -1.</_>
        <_>
          28 22 6 1 2.</_>
        <_>
          34 23 6 1 2.</_></rects>
      <tilted>0</tilted></_>
    <_>
      <rects>
        <_>
          28 27 10 2 -1.</_>
        <_>
          28 27 5 1 2.</_>
        <_>
          33 28 5 1 2.</_></rects>
      <tilted>0</tilted></_>
    <_>
      <rects>
        <_>
          28 30 12 6 -1.</_>
        <_>
          34 30 6 6 2.</_></rects>
      <tilted>0</tilted></_>
    <_>
      <rects>
        <_>
          29 16 10 4 -1.</_>
        <_>
          29 16 5 2 2.</_>
        <_>
          34 18 5 2 2.</_></rects>
      <tilted>0</tilted></_>
    <_>
      <rects>
        <_>
          29 19 4 10 -1.</_>
        <_>
          29 24 4 5 2.</_></rects>
      <tilted>0</tilted></_>
    <_>
      <rects>
        <_>
          29 26 9 2 -1.</_>
        <_>
          29 27 9 1 2.</_></rects>
      <tilted>0</tilted></_>
    <_>
      <rects>
        <_>
          29 28 3 2 -1.</_>
        <_>
          29 29 3 1 2.</_></rects>
      <tilted>0</tilted></_>
    <_>
      <rects>
        <_>
          30 20 10 2 -1.</_>
        <_>
          30 20 5 1 2.</_>
        <_>
          35 21 5 1 2.</_></rects>
      <tilted>0</tilted></_>
    <_>
      <rects>
        <_>
          30 26 3 2 -1.</_>
        <_>
          30 27 3 1 2.</_></rects>
      <tilted>0</tilted></_>
    <_>
      <rects>
        <_>
          30 30 3 6 -1.</_>
        <_>
          30 33 3 3 2.</_></rects>
      <tilted>0</tilted></_>
    <_>
      <rects>
        <_>
          31 4 3 26 -1.</_>
        <_>
          31 17 3 13 2.</_></rects>
      <tilted>0</tilted></_>
    <_>
      <rects>
        <_>
          31 12 6 11 -1.</_>
        <_>
          34 12 3 11 2.</_></rects>
      <tilted>0</tilted></_>
    <_>
      <rects>
        <_>
          31 15 5 8 -1.</_>
        <_>
          31 19 5 4 2.</_></rects>
      <tilted>0</tilted></_>
    <_>
      <rects>
        <_>
          31 22 4 10 -1.</_>
        <_>
          31 27 4 5 2.</_></rects>
      <tilted>0</tilted></_>
    <_>
      <rects>
        <_>
          31 23 7 2 -1.</_>
        <_>
          31 24 7 1 2.</_></rects>
      <tilted>0</tilted></_>
    <_>
      <rects>
        <_>
          31 26 2 2 -1.</_>
        <_>
          31 27 2 1 2.</_></rects>
      <tilted>0</tilted></_>
    <_>
      <rects>
        <_>
          32 0 6 8 -1.</_>
        <_>
          32 0 3 4 2.</_>
        <_>
          35 4 3 4 2.</_></rects>
      <tilted>0</tilted></_>
    <_>
      <rects>
        <_>
          32 6 8 2 -1.</_>
        <_>
          36 6 4 2 2.</_></rects>
      <tilted>0</tilted></_>
    <_>
      <rects>
        <_>
          32 8 1 16 -1.</_>
        <_>
          32 16 1 8 2.</_></rects>
      <tilted>0</tilted></_>
    <_>
      <rects>
        <_>
          32 8 4 4 -1.</_>
        <_>
          32 8 2 2 2.</_>
        <_>
          34 10 2 2 2.</_></rects>
      <tilted>0</tilted></_>
    <_>
      <rects>
        <_>
          32 8 8 6 -1.</_>
        <_>
          32 8 4 3 2.</_>
        <_>
          36 11 4 3 2.</_></rects>
      <tilted>0</tilted></_>
    <_>
      <rects>
        <_>
          32 15 4 6 -1.</_>
        <_>
          32 15 2 3 2.</_>
        <_>
          34 18 2 3 2.</_></rects>
      <tilted>0</tilted></_>
    <_>
      <rects>
        <_>
          32 17 8 8 -1.</_>
        <_>
          36 17 4 8 2.</_></rects>
      <tilted>0</tilted></_>
    <_>
      <rects>
        <_>
          32 27 3 2 -1.</_>
        <_>
          32 28 3 1 2.</_></rects>
      <tilted>0</tilted></_>
    <_>
      <rects>
        <_>
          32 28 8 12 -1.</_>
        <_>
          32 28 4 6 2.</_>
        <_>
          36 34 4 6 2.</_></rects>
      <tilted>0</tilted></_>
    <_>
      <rects>
        <_>
          33 0 6 1 -1.</_>
        <_>
          36 0 3 1 2.</_></rects>
      <tilted>0</tilted></_>
    <_>
      <rects>
        <_>
          33 21 6 10 -1.</_>
        <_>
          33 26 6 5 2.</_></rects>
      <tilted>0</tilted></_>
    <_>
      <rects>
        <_>
          34 7 6 33 -1.</_>
        <_>
          34 18 6 11 2.</_></rects>
      <tilted>0</tilted></_>
    <_>
      <rects>
        <_>
          34 16 6 17 -1.</_>
        <_>
          37 16 3 17 2.</_></rects>
      <tilted>0</tilted></_>
    <_>
      <rects>
        <_>
          34 25 6 10 -1.</_>
        <_>
          37 25 3 10 2.</_></rects>
      <tilted>0</tilted></_>
    <_>
      <rects>
        <_>
          34 30 6 6 -1.</_>
        <_>
          34 30 3 3 2.</_>
        <_>
          37 33 3 3 2.</_></rects>
      <tilted>0</tilted></_>
    <_>
      <rects>
        <_>
          34 32 1 2 -1.</_>
        <_>
          34 33 1 1 2.</_></rects>
      <tilted>0</tilted></_>
    <_>
      <rects>
        <_>
          34 33 4 2 -1.</_>
        <_>
          34 33 2 1 2.</_>
        <_>
          36 34 2 1 2.</_></rects>
      <tilted>0</tilted></_>
    <_>
      <rects>
        <_>
          35 21 4 2 -1.</_>
        <_>
          35 21 2 1 2.</_>
        <_>
          37 22 2 1 2.</_></rects>
      <tilted>0</tilted></_>
    <_>
      <rects>
        <_>
          36 20 1 2 -1.</_>
        <_>
          36 21 1 1 2.</_></rects>
      <tilted>0</tilted></_>
    <_>
      <rects>
        <_>
          36 20 4 4 -1.</_>
        <_>
          36 20 2 2 2.</_>
        <_>
          38 22 2 2 2.</_></rects>
      <tilted>0</tilted></_>
    <_>
      <rects>
        <_>
          36 25 4 2 -1.</_>
        <_>
          38 25 2 2 2.</_></rects>
      <tilted>0</tilted></_>
    <_>
      <rects>
        <_>
          37 17 2 4 -1.</_>
        <_>
          37 17 1 2 2.</_>
        <_>
          38 19 1 2 2.</_></rects>
      <tilted>0</tilted></_>
    <_>
      <rects>
        <_>
          37 19 2 4 -1.</_>
        <_>
          37 19 1 2 2.</_>
        <_>
          38 21 1 2 2.</_></rects>
      <tilted>0</tilted></_>
    <_>
      <rects>
        <_>
          37 19 2 9 -1.</_>
        <_>
          38 19 1 9 2.</_></rects>
      <tilted>0</tilted></_>
    <_>
      <rects>
        <_>
          39 25 1 6 -1.</_>
        <_>
          39 27 1 2 2.</_></rects>
      <tilted>0</tilted></_></features></cascade>
</opencv_storage>
